-0.321912
-0.214964
-0.195234
-0.021726
0.133908
0.140864
0.343698
0.088994
0.066120
0.118126
-0.292207
-0.306537
0.197419
-0.114207
0.063128
0.238830
0.086476
0.057407
0.155764
0.198775
-0.107375
0.202617
0.013441
0.089196
0.043168
0.038452
0.055462
-0.134823
0.030646
-0.004571
-0.034594
0.260324
-0.071032
0.213144
0.282794
0.019075
-0.027634
-0.091697
0.114047
-0.034364
0.204628
0.218781
0.104427
0.020895
0.199444
0.144091
0.006858
-0.007845
0.240659
0.060113
-0.007138
0.074255
-0.095564
-0.214759
0.113238
0.318683
0.302279
0.028656
-0.073645
-0.036126
-0.136836
-0.337713
-0.179050
0.175546
0.271124
0.259663
0.055068
0.022239
-0.132374
-0.125904
-0.075832
-0.350990
0.170687
-0.009060
0.023298
-0.037213
0.168546
0.142971
0.037253
0.176405
0.079398
0.055986
0.252316
0.377196
-0.261026
-0.047801
0.222181
-0.375980
-0.144431
-0.118286
-0.066244
0.160213
0.080891
0.229607
0.189236
0.147748
-0.124115
-0.247112
-0.141790
-0.248687
0.156071
0.191630
-0.173692
0.212213
0.024604
0.092396
0.097235
0.187517
-0.220804
-0.306913
-0.228985
0.266196
-0.000447
-0.068651
0.124313
0.283255
0.151314
0.140141
0.227013
-0.220885
0.171678
0.120428
-0.202238
0.182994
0.013169
0.154463
-0.034771
0.158528
-0.070389
0.130869
0.142002
0.087380
-0.087061
0.092522
0.168616
0.047004
0.266537
0.112412
-0.192010
0.146337
0.200570
-0.346342
0.068576
0.065244
-0.131160
-0.043436
0.062590
0.164547
0.104464
0.120115
0.067686
0.059203
0.181169
-0.053841
-0.078158
0.199857
-0.016211
0.056348
0.196356
-0.046289
0.189187
0.140080
0.132130
0.111993
-0.115269
0.096858
0.009225
0.102626
0.232252
0.084407
0.182430
-0.306233
0.060153
0.193323
-0.007966
0.308736
0.218956
0.155453
-0.072171
-0.291616
-0.140787
0.207479
0.192650
-0.218415
0.099365
0.134748
-0.103005
0.139052
-0.054343
0.115036
0.302817
0.220263
0.041458
0.074327
0.122756
-0.319299
-0.308830
-0.317208
-0.065091
-0.040072
0.052874
0.165103
0.201949
0.145122
0.203164
-0.082538
-0.210122
-0.060985
0.032247
0.240674
-0.058392
0.070669
0.246054
0.053958
0.207074
0.027244
0.081545
0.143769
0.160253
0.207546
0.208995
0.054151
-0.031481
0.190879
-0.067042
-0.133694
0.094194
0.186042
0.019966
0.086066
0.020396
-0.143430
0.098795
0.113437
0.120245
0.010750
0.114716
-0.190222
0.250844
0.222586
-0.447076
-0.104425
0.192171
0.173619
0.164051
-0.084061
-0.089284
0.228011
-0.112029
-0.020848
0.182771
0.133416
-0.125298
-0.191312
-0.217046
0.098914
0.084181
0.249090
0.109395
0.091205
-0.024643
0.159264
0.109643
0.085419
0.214485
-0.007610
-0.082551
0.164047
0.006920
0.147607
0.043037
0.161207
-0.003890
0.155169
0.188855
-0.107677
0.239237
0.168330
-0.066137
0.202985
0.231667
0.113184
0.079377
0.010982
0.115851
-0.267968
-0.260260
-0.168243
