-0.176302
0.043398
0.172245
0.031206
0.024009
-0.051404
0.181447
-0.044292
0.021887
0.036365
0.009781
0.024497
0.095176
0.071949
-0.009411
0.039388
-0.063562
0.024041
0.032769
-0.055607
-0.047858
-0.011000
0.094127
-0.014696
0.033500
0.030804
-0.024937
-0.031089
0.063465
0.130768
-0.004483
0.028226
0.088411
0.129227
-0.020886
-0.082244
-0.029358
0.016010
0.005034
0.100935
0.065644
0.009604
0.071745
-0.055976
-0.087496
0.019598
-0.001585
-0.027020
-0.071385
0.102207
0.061614
0.062276
-0.015740
0.041816
-0.016544
-0.081920
-0.074798
-0.124044
-0.025026
0.139960
0.009502
0.015190
0.061646
-0.089694
-0.083067
-0.076358
-0.097671
-0.053522
0.076973
0.019846
0.059514
-0.050537
-0.068599
0.077996
0.067340
-0.040988
-0.028808
-0.085758
0.005816
0.052886
0.062086
-0.063833
-0.106535
-0.183342
-0.273800
-0.291093
-0.241273
-0.312507
-0.249365
-0.165437
-0.085608
-0.048487
-0.020032
-0.003602
0.126125
0.003286
0.007992
0.035468
0.029664
-0.040115
-0.071678
0.074578
-0.026185
0.036247
0.033462
0.054297
0.069490
0.062895
-0.108708
-0.041200
0.002276
-0.049821
-0.153671
-0.152647
0.052118
-0.088850
-0.126269
0.026426
-0.033817
0.036396
-0.032996
-0.048340
-0.006149
-0.005747
0.075381
-0.010982
-0.019326
0.039286
-0.081366
0.081975
0.093722
-0.021451
0.044706
-0.026455
0.055292
-0.127661
-0.024221
-0.069819
-0.103014
-0.018874
-0.049220
-0.017675
0.004499
0.060166
-0.124751
-0.014196
0.027210
-0.020005
0.044255
-0.029716
0.119620
0.060800
-0.096746
-0.097113
-0.050830
-0.001525
-0.014248
0.115424
-0.020747
0.111713
-0.036513
0.044823
-0.005555
-0.030026
-0.011646
-0.041500
-0.065859
-0.039965
0.037280
0.025466
-0.000996
-0.092303
0.026641
0.095615
-0.139127
0.033424
0.056081
-0.024650
0.044797
-0.113375
-0.001679
-0.012379
0.033156
-0.026453
-0.000258
0.069481
0.006521
0.005535
-0.021976
-0.046066
-0.070559
-0.090236
-0.172601
-0.114544
-0.096875
-0.096663
-0.050048
-0.158817
0.018002
-0.017154
0.042477
0.052293
0.132407
0.105719
0.134341
0.033089
-0.018709
-0.012043
0.040621
0.098473
0.012753
0.059623
0.059496
0.108171
-0.053759
-0.017370
-0.101134
-0.077418
-0.027969
0.057687
-0.001265
0.056508
0.105232
0.115123
0.056407
-0.021138
-0.060597
0.091988
-0.072054
-0.040676
0.074916
-0.020110
0.061912
0.060654
-0.035507
-0.045324
-0.041444
-0.045875
-0.023141
-0.020990
-0.111752
-0.001488
0.016338
0.004410
-0.054411
-0.015043
0.021839
0.044882
0.016143
0.008479
-0.047152
-0.023695
-0.044672
-0.055262
0.007655
0.009225
0.161879
0.008615
0.047922
-0.038158
-0.093555
0.056924
-0.001489
-0.018618
0.000226
0.028768
0.077835
0.046862
-0.024289
-0.054182
-0.010459
-0.037814
0.064770
0.008458
0.020045
0.005454
0.055002
0.026320
0.080169
0.003084
-0.056129
-0.111540
-0.049674
-0.092309
0.122083
-0.044246
0.141092
0.022109
-0.072958
0.008043
0.177282
-0.263332
-0.029350
0.156858
0.202304
0.228210
0.215417
0.044240
0.090637
0.130917
-0.126053
0.016297
-0.091181
0.078634
-0.044886
-0.083070
-0.035875
-0.028622
0.089261
0.072319
0.093881
0.038564
-0.025791
-0.102589
-0.149935
-0.048186
-0.000355
-0.062242
-0.104143
-0.106438
0.036416
-0.054080
0.002253
-0.098370
0.001019
0.075463
0.102966
-0.098038
-0.019749
-0.059832
-0.099312
-0.089676
-0.158251
0.042973
0.067212
0.086152
0.046645
-0.048869
0.124290
-0.053370
-0.121319
-0.011958
-0.058516
-0.042260
-0.133419
0.106368
0.067455
0.189733
0.007636
0.116867
0.070070
-0.084413
-0.023412
-0.083790
0.068487
0.147744
0.093650
0.011489
0.029201
0.051940
-0.039300
-0.009166
0.033507
0.017057
0.048466
0.035025
-0.041949
-0.143160
-0.138441
0.110290
-0.084381
-0.072682
0.239963
0.207426
0.037154
0.116575
0.222055
-0.192268
-0.027336
0.035235
0.054653
-0.047541
0.162373
0.105385
-0.139504
0.023075
-0.150899
-0.023066
-0.007492
0.086795
0.007944
0.039646
0.001789
-0.094746
0.010605
-0.184752
-0.037568
-0.003635
0.120350
-0.153531
0.026875
0.052193
0.182411
0.151262
0.221082
0.128138
0.069552
0.037826
0.042812
0.028205
-0.032989
-0.136568
-0.169613
-0.034601
0.030237
0.068600
0.026186
-0.065021
-0.011133
-0.084905
-0.160805
0.008734
-0.157657
0.039775
-0.044596
-0.045916
0.048547
0.088374
0.042317
0.008731
-0.003406
-0.236158
-0.029580
-0.050895
0.085719
-0.016113
-0.059801
-0.010348
-0.116907
-0.078985
-0.145730
0.010538
-0.023744
0.078275
0.048651
0.040588
-0.018076
-0.141651
-0.103103
-0.103353
-0.052130
-0.007611
0.093599
-0.097707
-0.015022
-0.032280
-0.101822
-0.069376
-0.161009
-0.074515
-0.017610
0.076527
-0.045510
0.141361
0.122297
-0.133004
0.037077
-0.186526
-0.031047
-0.026958
-0.066755
0.081366
-0.007876
0.007259
-0.024068
0.050582
-0.149258
-0.045708
-0.154815
-0.072578
0.136892
0.234358
0.268957
-0.032318
0.145366
0.038768
-0.034694
-0.011613
0.052255
-0.090671
0.011923
0.150590
-0.169001
-0.097328
-0.099650
0.006484
0.017208
0.056035
-0.014376
0.074992
-0.062696
-0.125817
-0.115554
-0.176910
0.034850
-0.024415
0.001715
-0.032132
-0.027994
0.110597
-0.118227
-0.129283
-0.158815
0.030711
0.087397
0.020948
-0.039929
0.021914
0.060233
-0.043106
0.005032
-0.203282
0.002223
0.075351
-0.026880
0.144428
0.178221
0.010305
-0.127232
-0.095307
-0.165805
0.078483
0.063478
-0.001287
0.006984
-0.030362
0.022939
-0.119100
-0.031452
-0.080849
-0.012200
-0.034801
0.088408
-0.045375
-0.069710
0.002672
-0.092607
-0.056802
-0.033053
0.094971
0.000016
0.004753
-0.087611
0.048360
-0.036798
-0.008088
-0.135689
-0.049504
-0.049532
-0.000753
-0.060601
-0.050789
-0.001198
-0.005141
-0.156679
-0.105674
-0.078660
0.014868
-0.143902
-0.042341
0.045783
0.056055
0.089334
-0.100481
0.021589
-0.100725
0.147339
0.197583
0.182877
-0.201000
-0.087782
0.121765
-0.049886
0.031363
0.124526
0.057595
0.024911
0.010587
-0.088627
0.114100
0.062119
-0.016038
-0.023707
-0.006397
0.066533
-0.058077
-0.043959
0.076755
-0.009698
-0.049348
0.081502
0.052193
0.079164
0.053356
0.078879
0.058168
-0.040967
0.058984
0.068463
-0.079543
0.032044
0.107734
0.109431
-0.072421
0.002901
0.059330
-0.058073
0.028870
0.079136
-0.049395
0.007939
-0.004132
0.017050
-0.043243
0.048112
-0.086680
0.054896
0.001803
-0.080699
-0.032689
-0.158444
0.109734
0.017427
-0.082756
-0.081319
-0.018758
0.130217
-0.085079
-0.084649
-0.064448
-0.086884
0.050992
-0.052366
-0.131183
-0.141901
0.034586
-0.072920
-0.024775
-0.043145
-0.061850
0.005573
-0.028062
0.045955
0.012567
0.104821
0.001831
0.114752
-0.261676
-0.147449
0.149714
-0.024806
-0.115734
-0.003316
0.179498
-0.081249
-0.023426
-0.120551
0.051253
-0.142938
-0.025777
0.011993
0.058665
0.065286
0.045228
0.001476
-0.114380
-0.025236
-0.152940
-0.004117
-0.031224
-0.025194
-0.097837
0.039990
0.049490
0.145126
0.070790
0.121259
-0.116571
0.024494
0.178860
-0.070234
0.014467
0.093017
-0.026394
-0.054624
-0.003231
-0.000421
0.083183
-0.001206
-0.016059
0.115121
0.107273
-0.006083
-0.016781
-0.147841
0.081356
0.114578
0.049272
0.011959
0.071652
0.094898
-0.043349
-0.060657
0.010357
0.043578
-0.057850
-0.039259
0.111750
0.141843
-0.033844
0.059885
0.075161
-0.129709
-0.054611
0.081571
0.059726
0.002983
0.080644
0.033524
-0.037471
-0.031389
-0.063966
-0.050710
0.053941
0.037154
-0.056038
-0.041469
0.100437
0.097562
-0.067992
-0.119678
-0.003700
-0.037799
-0.059775
0.031938
0.100298
0.100559
-0.024629
0.002393
-0.105109
-0.022348
0.041377
-0.052436
0.015416
0.005227
-0.079869
0.014123
-0.040451
-0.004440
-0.032711
-0.083261
-0.106496
-0.024273
-0.014746
0.001526
-0.277855
0.045150
0.083285
-0.193627
-0.142263
-0.045366
-0.049890
-0.116266
-0.159316
-0.012549
0.067438
0.026952
-0.022304
0.020013
-0.016086
-0.017016
0.086108
0.000790
-0.006824
-0.106409
-0.131993
-0.027528
0.039162
-0.099245
0.013221
0.020212
-0.048193
0.029939
-0.003841
-0.124653
0.048611
0.023689
0.024814
-0.019222
0.091049
0.047672
0.020152
-0.090737
-0.066064
-0.030168
-0.048357
0.061791
-0.010544
-0.051295
-0.063031
-0.065005
-0.155174
0.029778
0.070367
0.020946
0.044051
0.031756
0.065292
0.034091
0.070834
-0.022152
-0.070579
0.095420
0.061581
-0.023498
0.069293
0.108225
0.107116
0.191319
0.081296
-0.017447
-0.000881
0.029858
0.055769
-0.085652
-0.120427
0.032720
0.080411
0.008783
-0.018520
0.108741
0.027292
0.017290
0.058806
-0.034987
0.072870
0.047237
0.097210
-0.050020
-0.040469
-0.028335
0.077483
-0.025666
0.013246
-0.034051
-0.017710
-0.000537
-0.025626
-0.020957
-0.118878
-0.076140
-0.036373
-0.016416
-0.057919
-0.124464
-0.221486
-0.092774
-0.273498
-0.109194
-0.089691
-0.271156
-0.140695
-0.084118
-0.093123
-0.097757
-0.000807
-0.082439
-0.033910
-0.027855
-0.161321
0.016918
0.048840
-0.044156
0.039903
0.028970
0.066382
-0.027911
0.034288
-0.012583
0.066050
0.081996
0.069534
0.092356
0.068331
-0.073557
0.066147
0.033419
-0.108919
0.070817
-0.019773
0.023741
0.054851
-0.046504
-0.046610
0.039104
-0.095622
0.003511
0.085557
-0.082402
-0.027700
0.022827
0.124233
-0.053407
-0.047944
0.078107
-0.147845
0.070337
-0.010691
-0.225222
-0.274768
-0.088579
-0.136291
-0.185132
-0.042686
-0.167097
-0.226355
-0.240498
-0.176469
0.071038
0.039465
-0.079615
-0.013449
0.071418
-0.104392
-0.052112
0.001114
0.010229
0.036517
0.032366
0.031225
0.079578
-0.051155
-0.020999
0.037826
-0.037208
-0.226053
-0.223770
-0.225322
-0.125991
-0.146779
-0.203093
0.038723
-0.066619
-0.142083
-0.152364
-0.028104
-0.083727
-0.048930
-0.079521
-0.023086
-0.077000
-0.077246
-0.132656
0.135654
-0.014983
-0.041036
0.128774
0.015880
0.015552
0.092768
0.086910
-0.018023
-0.223516
-0.112216
-0.141487
-0.346795
-0.096369
-0.020122
-0.332110
-0.024909
0.082297
0.049973
0.093291
0.113941
0.030596
0.008144
0.005498
-0.083960
0.038695
0.119876
-0.006779
0.041379
-0.001605
0.048804
0.101728
0.031853
-0.003642
0.043952
-0.049113
-0.011336
0.085190
-0.092746
0.036031
0.067646
-0.110709
0.069844
0.133421
-0.062746
0.047686
-0.035988
0.044558
-0.062189
0.057135
-0.081492
0.031211
0.081431
-0.040444
-0.011799
0.000733
0.014746
0.065445
-0.029727
-0.144192
0.121472
0.081783
-0.002575
-0.070180
0.064144
-0.018728
-0.018962
0.007914
-0.078724
-0.008142
0.076484
-0.040239
0.052858
0.034078
-0.025099
-0.026984
-0.080890
0.000260
-0.086041
0.004234
-0.072248
0.105095
0.008427
0.116725
0.055214
0.057028
-0.066558
0.088599
0.103370
-0.126015
-0.405367
-0.236737
-0.244906
-0.262840
-0.222038
-0.133436
-0.245158
-0.240875
-0.230170
-0.108853
0.026324
0.067872
-0.061130
0.054801
0.050103
-0.159552
-0.104608
-0.027944
0.004653
0.007763
-0.024400
0.109915
0.065883
-0.128698
0.034712
-0.041162
-0.117040
0.076246
0.095365
0.024858
-0.042354
0.013614
-0.074155
0.000256
0.123417
-0.052629
-0.021648
0.088583
-0.029968
0.061738
0.094605
-0.141913
0.052542
0.080273
-0.060657
0.004387
-0.087488
-0.065117
0.047841
0.069605
-0.202698
0.133905
0.125751
-0.189310
-0.016802
0.100714
0.001259
0.039375
0.029908
0.081170
-0.009247
0.025935
0.056293
-0.078751
-0.199154
-0.115951
-0.120951
-0.140180
-0.176896
-0.219828
-0.077228
0.034750
-0.016441
-0.000102
0.017226
0.071224
-0.021688
0.016920
-0.053375
0.011725
0.080354
-0.032454
0.039719
0.036219
0.056360
0.056220
0.064701
-0.081511
0.064736
0.078855
-0.254310
-0.082895
-0.057555
-0.097830
-0.153358
-0.088694
-0.095989
-0.154226
-0.063959
-0.005603
0.063117
0.118236
0.113241
-0.025378
-0.092909
0.033555
0.184331
0.036078
-0.047980
0.001617
-0.077236
0.064484
0.031264
-0.009436
0.006985
0.049729
-0.137790
-0.031165
0.003146
0.023002
-0.106965
0.025920
-0.074016
-0.048415
0.021162
-0.090449
-0.096142
0.060733
-0.081443
-0.019939
0.022451
-0.054651
0.067133
0.054298
0.114805
-0.025131
-0.100670
-0.026351
0.042173
-0.043542
0.056876
-0.081154
0.095778
0.098380
0.008241
-0.060852
-0.053670
-0.066108
-0.022393
-0.098823
0.147641
0.036267
0.042030
-0.018479
0.122685
0.017653
0.076303
-0.007018
-0.174048
0.179285
0.017543
-0.031518
0.064948
-0.031678
-0.185532
0.049362
0.020187
-0.037081
0.088513
0.053142
-0.009867
-0.074302
-0.030970
-0.079901
-0.026652
-0.004419
0.069625
-0.031729
0.091964
-0.047003
0.118569
0.159825
0.074526
0.038439
0.129022
0.041834
0.133915
0.074894
-0.121219
0.043364
-0.053898
-0.069411
0.038990
-0.032141
-0.028331
0.172715
0.056839
0.049444
-0.070840
-0.084474
-0.016670
-0.091191
-0.055335
-0.038185
-0.118489
-0.010632
0.079500
0.093383
0.184855
0.067886
0.143065
0.037106
0.065761
0.092422
0.114959
-0.070292
-0.052520
-0.007903
0.014937
-0.035947
0.016944
-0.024536
0.062830
-0.004452
-0.117123
-0.065846
-0.073717
0.033200
-0.114833
-0.082148
0.029049
-0.023167
-0.055110
-0.003716
-0.047443
0.059541
0.093501
-0.160646
-0.030996
0.018021
-0.021046
0.033667
-0.041347
0.003710
0.010190
0.025434
-0.083982
-0.121373
-0.027815
-0.001758
0.079290
-0.014832
-0.103546
-0.025118
-0.030988
-0.006578
-0.056385
0.060010
-0.071773
0.031728
0.037568
-0.101268
-0.091088
-0.016253
0.040770
-0.051584
-0.063157
-0.015584
-0.053606
-0.066594
-0.030458
-0.032741
-0.073548
0.014722
-0.061614
-0.075740
0.083730
-0.032419
0.173613
-0.031013
-0.098203
-0.020335
-0.048190
-0.097169
0.006766
-0.039733
0.017505
0.094700
0.097376
0.069126
-0.060672
0.084742
0.148017
-0.156897
0.191546
0.090817
0.012985
-0.048581
0.018515
-0.058586
-0.011247
-0.075282
-0.020935
0.150472
0.051790
0.165225
-0.043347
0.033674
0.011267
-0.082263
-0.017358
-0.039126
-0.004852
0.046410
0.116872
-0.112014
-0.080034
-0.117663
0.019717
-0.096741
-0.025743
-0.005768
0.056104
-0.007901
0.008237
0.052390
-0.043524
-0.027705
0.004891
0.058283
-0.037730
-0.077587
-0.030657
0.101166
-0.010977
0.082046
-0.153622
-0.102252
0.125536
0.040987
-0.044305
0.049365
-0.041563
-0.000931
0.035251
-0.057200
-0.017141
0.059222
0.029708
0.052174
0.027565
0.010168
0.064580
-0.089446
0.013664
0.022534
0.032621
0.035156
0.016006
0.029867
-0.129096
0.009612
0.021334
-0.075557
-0.002675
0.024042
-0.018240
0.046692
-0.008370
-0.127323
-0.039822
0.043447
-0.101141
0.000561
-0.106849
-0.036768
-0.004485
0.004400
0.055771
0.079296
-0.060851
0.041401
0.115717
0.015269
0.137117
0.012439
0.004074
-0.109390
-0.221248
-0.058593
-0.105964
0.055824
-0.038021
0.034097
0.008621
-0.135580
-0.073950
-0.027863
-0.039049
0.064003
0.023881
-0.066780
0.112219
0.027866
0.056294
-0.003660
-0.000534
-0.055980
0.052443
-0.071694
0.089587
-0.000750
-0.070326
-0.052393
0.084203
-0.135980
-0.021632
-0.083406
0.007440
0.047935
-0.021089
0.149891
0.041436
0.060253
-0.065547
0.034660
-0.092119
-0.013811
0.052138
0.057269
0.101895
-0.035886
0.102729
0.077058
-0.000304
0.081124
-0.128697
0.123155
0.065900
0.021526
0.081811
0.166501
0.079053
-0.043899
0.131828
-0.161791
-0.014289
0.047270
0.131537
0.094720
0.018402
0.079543
0.034460
0.023530
-0.008967
0.110804
-0.001226
-0.003730
-0.010269
0.072867
-0.075715
0.048331
0.006713
0.055923
-0.024361
0.022710
0.052249
-0.073306
-0.033605
-0.034251
-0.014669
-0.104030
-0.057930
-0.122376
0.078003
0.061029
-0.097185
0.121817
0.113835
-0.100308
0.007540
-0.097130
0.106566
-0.101839
0.095137
-0.030103
0.089907
-0.047920
0.097643
-0.125015
0.009300
0.011079
-0.002151
0.032219
-0.090512
-0.201642
-0.102752
0.014243
-0.035644
0.001768
0.019574
-0.034849
-0.123501
-0.146165
0.077197
0.067777
0.005414
0.106691
-0.134125
0.122633
-0.051453
-0.016628
0.141003
-0.026870
0.031617
0.043565
-0.002578
0.074354
0.001749
-0.058479
-0.014029
-0.070091
0.071432
-0.034572
-0.016323
-0.155364
-0.044703
-0.062841
-0.073076
0.030475
-0.155681
-0.004750
-0.065958
-0.058125
-0.088055
0.106112
-0.019798
-0.067999
-0.007866
-0.060261
0.007799
-0.053205
0.005212
-0.051762
0.143106
0.018174
0.058027
-0.020483
-0.127982
-0.027174
0.026766
-0.084914
-0.042784
-0.023729
-0.032520
0.022324
0.086911
0.025550
0.061836
-0.106162
-0.065724
-0.039813
0.022065
0.181514
-0.061874
0.128796
-0.040701
0.066801
-0.021002
0.004969
-0.080050
0.085749
0.028530
-0.020611
0.155927
-0.040735
0.044152
0.125830
-0.268513
-0.107144
-0.114877
-0.021852
-0.047602
0.045903
0.102353
0.178303
-0.021398
0.056575
0.076340
-0.037543
0.135545
-0.126866
0.072616
0.076939
0.032636
-0.111868
-0.055208
-0.139961
0.090820
0.062189
-0.035693
0.046705
0.000766
0.043236
-0.051650
-0.004581
0.011137
-0.076201
0.123688
0.014163
0.105191
0.069868
-0.014815
-0.069938
-0.031727
-0.140818
0.069543
0.042177
-0.074530
-0.025356
-0.002972
-0.053363
0.008948
-0.099129
-0.154328
0.108290
-0.119457
0.070978
0.116945
-0.146288
-0.022670
-0.064989
-0.005498
-0.069003
0.048932
0.047028
-0.090687
0.052627
0.093818
-0.007445
-0.149179
-0.107738
-0.149697
0.032063
0.061361
-0.012688
0.039285
-0.130542
-0.027041
0.052748
0.016146
0.016891
-0.069235
-0.059832
0.009146
-0.007140
0.018676
0.033773
0.009937
0.034467
-0.005149
-0.039293
0.115611
-0.077444
0.113609
0.057881
0.027193
0.124526
-0.102414
0.159674
-0.137303
0.062728
0.048665
0.029380
-0.003054
0.060282
0.047265
0.161128
0.067256
0.009771
-0.025154
-0.015759
0.000086
-0.058476
0.100460
0.008039
0.034522
0.033581
-0.009107
0.044345
0.097023
0.012490
-0.112024
0.087834
0.048494
-0.063285
0.076513
-0.068231
-0.044065
-0.046306
-0.029810
-0.126271
-0.027057
-0.021615
-0.029561
0.021081
-0.074593
0.025584
-0.054347
-0.091472
-0.071630
0.011687
-0.034521
0.071129
-0.050445
-0.094338
0.010156
-0.017205
-0.138175
0.056488
0.017172
0.064291
-0.024021
0.079294
0.049983
0.022051
0.078120
0.020595
-0.042050
0.068051
-0.003628
0.004141
-0.000769
-0.002335
-0.059415
-0.055667
-0.159891
0.056114
0.071048
-0.005948
-0.065105
0.104573
0.086559
0.087352
0.059672
-0.103167
0.002964
-0.028993
-0.059592
-0.026349
-0.009819
-0.088965
0.004704
0.082821
-0.103986
-0.082914
0.087424
-0.103581
-0.143157
0.013393
-0.047003
0.066881
-0.150613
-0.033968
0.097772
0.071357
0.041737
0.005116
0.013673
0.024515
0.050151
-0.047787
0.017104
-0.018895
0.022899
-0.031384
0.098507
-0.045917
-0.076535
0.111888
-0.103629
-0.193480
-0.056816
0.079687
0.114521
0.131785
0.088572
0.074851
-0.128458
0.097311
0.004884
-0.091670
0.079201
-0.013817
-0.107616
0.028010
-0.055000
0.052922
-0.060584
-0.103986
-0.045795
0.025424
-0.014957
0.045359
-0.005478
0.040784
-0.009147
0.061808
-0.158403
0.000150
0.020660
0.051063
0.014936
0.069884
-0.004095
-0.014213
-0.076102
-0.071250
0.087390
-0.035887
0.004356
-0.025419
-0.024864
0.055871
0.018136
-0.033716
-0.139949
0.029472
-0.050243
-0.002096
0.090279
0.061507
-0.092947
-0.007070
-0.068128
-0.061650
-0.065857
0.022289
-0.059763
0.060402
0.080160
-0.040744
0.008205
0.107613
-0.051717
-0.107830
-0.046395
0.043409
0.098402
-0.050206
-0.006597
0.040028
-0.129288
-0.065218
0.042938
-0.015451
-0.068988
0.026426
0.084337
-0.062640
0.069409
-0.026340
-0.066706
0.062833
0.090870
0.007811
-0.046385
0.049426
-0.046188
-0.021606
-0.089884
-0.143778
0.017996
-0.000708
0.040260
0.058912
0.000209
-0.047585
0.002118
0.004149
-0.006164
-0.104613
0.002947
-0.056027
0.098177
0.007404
-0.090318
-0.010096
-0.061926
-0.146071
-0.059913
0.086464
-0.003540
0.007613
-0.005901
0.043627
0.026234
0.063791
-0.085727
-0.026050
-0.062549
0.004655
0.031281
0.005892
-0.033506
0.112130
-0.052890
-0.153129
0.000708
0.039388
0.044120
0.067194
0.013290
-0.031252
0.058636
0.013503
-0.142972
0.080507
0.054421
0.065504
-0.045323
0.021665
-0.035199
-0.052365
-0.044366
-0.072113
-0.063413
-0.003243
0.083897
0.084282
-0.036475
0.043459
-0.019902
0.059111
-0.012607
-0.059889
-0.032653
-0.034666
-0.041374
0.023222
0.050881
-0.039130
0.070678
-0.075642
-0.065752
0.025367
0.014544
0.034338
0.040126
0.013416
-0.054956
-0.031801
0.049679
-0.163141
0.079076
-0.075807
0.035353
0.094767
0.074976
0.007317
-0.002937
-0.094423
-0.039805
0.015348
0.037796
0.090431
-0.118574
0.058270
0.153923
0.017915
0.044022
0.113548
-0.115454
-0.038258
-0.183288
-0.177103
0.066332
0.184458
0.035099
0.147421
0.131330
-0.184061
-0.084489
-0.162673
-0.098385
-0.104572
-0.012974
-0.128691
-0.052549
0.021299
-0.132408
-0.088902
-0.151488
-0.042438
0.021889
0.020834
0.067730
0.125689
0.066624
-0.123692
-0.099996
-0.128806
-0.032767
-0.071122
0.105603
0.085575
0.117762
0.140645
-0.189897
-0.041095
-0.153106
-0.202028
-0.141291
-0.050734
-0.065107
0.047291
0.069557
-0.152371
0.106039
0.167640
-0.067410
0.019280
-0.001089
-0.087534
-0.025207
0.207407
-0.213358
0.021678
0.044739
-0.073811
-0.043160
-0.168895
-0.087799
-0.022480
0.116249
-0.162535
-0.070167
-0.220483
-0.154236
0.006565
0.001593
-0.000196
0.015967
0.128673
0.096928
0.130601
0.244237
-0.154783
0.016488
-0.010799
-0.079291
0.051343
0.201705
-0.090908
-0.026927
0.002707
-0.139285
-0.084919
0.036733
-0.056383
-0.031396
0.057590
-0.154488
-0.016765
-0.156637
-0.117487
-0.003562
0.062086
-0.010771
0.018133
0.108274
-0.069687
0.118872
0.125697
-0.189163
0.136084
0.188113
0.118764
0.181551
0.213739
-0.139975
-0.043344
-0.087928
-0.121384
-0.071149
0.019210
0.012491
0.105905
0.073168
-0.079090
-0.096082
-0.095718
-0.178595
0.031467
0.050533
0.009732
0.046484
0.054358
-0.105538
-0.066575
-0.199612
-0.053105
-0.112661
-0.018674
-0.064748
0.012486
-0.019861
-0.029424
-0.037917
-0.131610
-0.033139
0.027059
0.090560
-0.026044
0.063796
0.134318
-0.040372
-0.017477
-0.216341
-0.017898
0.020335
-0.029643
0.093139
0.124254
0.045907
-0.109701
-0.095596
-0.181695
-0.161810
-0.045228
0.074068
-0.024112
0.026335
-0.021175
-0.150701
-0.118342
-0.251527
-0.190814
0.020792
-0.026025
-0.055726
0.103588
0.074448
-0.040382
-0.046922
-0.146023
-0.063860
-0.009166
-0.113810
0.001098
0.013762
0.124821
-0.033065
0.112561
0.335706
-0.235821
0.056967
0.180942
-0.106605
0.052527
0.156557
-0.203519
-0.132974
-0.126626
-0.152637
-0.074100
-0.065723
-0.064974
0.109125
0.066097
-0.165320
-0.144152
-0.101747
-0.092147
0.024754
-0.069316
-0.006023
0.079707
0.142598
-0.117586
-0.084276
-0.048595
-0.144049
-0.103248
-0.028704
-0.057520
0.068055
0.015759
-0.129953
-0.065552
-0.096962
-0.011508
0.035823
-0.053407
0.062566
0.098440
0.078512
-0.076905
-0.205754
-0.242444
-0.063093
-0.020283
-0.085875
-0.061578
-0.004490
-0.006761
-0.088387
-0.166395
-0.037556
-0.178937
0.054299
0.057244
-0.046305
0.076241
0.098176
-0.086000
-0.013134
-0.087379
-0.141824
0.024699
0.208953
0.063217
0.134393
0.174800
-0.141093
0.002053
-0.056593
-0.188569
-0.107359
-0.073438
-0.032877
0.028894
0.027127
-0.163937
-0.149554
-0.184460
-0.104109
-0.075017
-0.015713
-0.087905
0.117935
0.019930
-0.171829
0.072714
0.054933
-0.133843
0.061433
-0.035372
-0.124507
-0.021687
0.103871
0.252532
0.187290
0.002475
0.167817
0.136537
0.076852
-0.034315
-0.019395
0.122175
-0.076083
-0.029102
0.008124
0.154079
0.081016
0.029228
-0.026507
0.032064
0.160689
0.010945
0.026671
-0.115964
0.132200
0.116134
-0.054132
0.070343
0.048824
-0.005564
0.005872
0.100245
-0.151856
0.052895
0.035678
-0.018754
0.084693
0.072978
-0.001706
-0.039966
-0.010754
-0.181459
-0.011498
0.093066
-0.112664
0.094533
0.124308
0.071609
-0.147766
-0.049320
0.051348
0.001138
0.054548
-0.082102
0.118557
-0.003780
0.029504
-0.102362
-0.015535
-0.105050
-0.074946
-0.138916
-0.237808
0.074172
0.097384
-0.073354
-0.113329
-0.019043
-0.072614
-0.045836
-0.097333
-0.182506
0.108414
-0.000646
-0.176586
-0.053399
-0.110846
-0.041749
0.024973
0.107935
-0.034389
0.145118
0.059643
0.053658
-0.225691
-0.130785
-0.155962
-0.192925
-0.197102
-0.318742
-0.093968
0.039760
0.046502
-0.004213
-0.079089
0.005221
0.072056
0.049562
-0.149647
0.066556
0.107260
-0.043871
-0.106249
-0.072043
-0.127970
-0.019003
-0.019800
-0.102557
0.108035
0.063268
0.009687
0.204707
-0.004816
-0.033656
0.227692
0.105162
0.175628
0.052096
0.117051
0.226063
-0.076625
-0.108722
-0.097482
0.102993
-0.013081
0.009869
0.111566
0.104475
0.100149
-0.052970
-0.119545
-0.196482
0.120138
0.079905
-0.094224
0.023184
0.013232
0.142691
-0.180608
-0.097929
-0.245151
-0.069460
-0.059885
-0.279369
-0.018508
0.050215
-0.019052
-0.088257
0.032839
-0.126459
0.088285
0.050067
-0.004626
0.132695
0.119237
0.116087
-0.038648
-0.057021
-0.083271
0.062430
0.070835
-0.097072
0.003656
-0.049136
0.012411
0.041196
-0.082176
-0.060447
0.070722
0.091616
-0.089288
0.160417
0.091444
0.104080
-0.157793
-0.055970
-0.113582
0.017879
-0.052337
-0.248362
-0.039631
-0.096965
-0.135811
-0.189579
-0.131804
-0.195327
0.007961
-0.105929
-0.172821
-0.035824
-0.055504
-0.118074
-0.088048
0.040699
-0.005562
-0.121922
-0.143376
-0.307314
0.117806
0.146286
-0.076075
-0.043619
-0.012862
-0.026180
0.032321
0.035474
-0.080242
0.098055
0.015346
0.019939
-0.111418
-0.044829
-0.228247
0.007527
0.005084
-0.152390
0.072726
0.089848
0.014206
-0.108072
0.017691
-0.164480
-0.014268
0.017568
-0.028207
0.070912
0.051816
0.048781
-0.019636
-0.037624
-0.193286
-0.007695
-0.008601
-0.167733
-0.026395
0.045608
0.076294
-0.186924
-0.161627
-0.222982
-0.071207
-0.081502
-0.224735
-0.075003
0.083618
0.059517
-0.042355
-0.092808
-0.077766
-0.022708
-0.027173
0.017336
0.130186
0.090201
0.152282
-0.033719
0.031780
-0.081078
0.092618
0.049297
-0.000334
0.003978
0.045734
0.054729
-0.090600
-0.119873
-0.116420
0.088612
-0.023282
-0.044354
0.064893
0.083878
0.067514
-0.084983
-0.000283
-0.019991
0.080676
0.027877
-0.058075
0.078669
0.017977
0.086315
-0.025408
0.059354
0.069128
0.003823
-0.128574
-0.209091
0.052571
0.042996
-0.044665
-0.015769
-0.095447
0.405015
-0.122846
0.010245
0.208997
-0.223501
-0.014877
0.000998
0.060595
-0.003728
0.158732
-0.169387
0.091100
0.077975
-0.083111
0.052490
0.040537
0.073181
-0.176915
-0.204444
-0.159562
-0.013521
0.042674
-0.222069
0.049551
0.126265
-0.155829
-0.262382
0.004458
-0.197054
-0.047086
0.078517
-0.202043
0.165222
0.084881
-0.095159
-0.125813
-0.034480
-0.167011
0.131497
0.195836
-0.095582
0.072230
0.085862
0.185016
-0.145839
-0.301779
-0.057868
-0.135810
0.023869
-0.233499
-0.132769
0.058351
0.130084
-0.056632
-0.079761
-0.136143
-0.277786
0.181296
-0.146276
-0.065572
0.081081
0.031725
0.085786
-0.134532
-0.038790
-0.140186
0.076138
-0.261609
0.078799
0.071058
0.022437
-0.285360
-0.045733
-0.168013
0.002935
0.120392
-0.175578
0.109699
0.066811
0.091313
-0.173347
-0.159594
-0.264647
-0.199386
-0.015710
-0.091144
0.043646
0.034932
0.027340
-0.173230
-0.154900
-0.060788
-0.098048
0.281294
-0.310610
0.024158
0.175556
-0.089551
-0.217057
-0.090584
-0.150790
0.030343
0.168156
-0.052650
0.154578
0.130787
-0.049914
0.031667
0.446246
-0.171134
0.168738
0.248162
-0.143194
-0.079414
-0.096753
0.086482
-0.056152
-0.192821
-0.090308
-0.043678
0.045918
-0.196104
0.098431
0.035363
0.032107
-0.139871
-0.039795
-0.200299
-0.060940
0.171519
-0.083056
-0.002719
0.104763
-0.009383
-0.295695
-0.204278
-0.085901
-0.027090
0.022863
-0.039098
0.118090
-0.002829
-0.102218
-0.260200
0.109411
-0.199572
0.101574
0.149403
0.002864
-0.005028
0.125092
0.035174
-0.211670
-0.024326
-0.109038
0.143805
0.165332
-0.020563
0.126199
0.004199
0.093691
-0.076620
-0.096085
-0.201601
-0.047618
0.090429
-0.132243
0.074423
-0.019844
0.018174
-0.258722
-0.145764
-0.220937
0.042306
0.203720
-0.108540
0.191684
0.179609
0.037905
-0.167020
-0.086489
-0.058264
0.042708
0.148855
-0.116745
0.206128
0.091816
0.140283
0.093052
0.072160
-0.103430
-0.112887
0.347967
-0.300005
0.002516
0.171043
0.073226
-0.160483
-0.147049
-0.099933
0.041720
0.208011
-0.302756
0.029244
0.107541
-0.107645
-0.205198
-0.087541
-0.091631
-0.001236
0.164829
-0.111264
0.041245
0.087121
0.017254
-0.147698
-0.131079
-0.177460
0.009276
0.037498
-0.112373
0.140270
0.165656
-0.032298
-0.219611
-0.092581
-0.102580
0.076738
0.070454
-0.090215
0.102143
0.107775
-0.018107
-0.239309
-0.121459
-0.106792
-0.016644
0.022003
0.023700
0.115970
0.001072
0.034520
-0.158634
-0.063613
-0.187369
0.029774
-0.031365
-0.174663
0.077280
0.116916
-0.100736
-0.223476
0.236504
-0.120195
0.248207
0.222216
-0.227845
-0.010600
-0.013974
0.157829
-0.131416
-0.146538
-0.116165
-0.079558
0.015282
-0.209047
-0.001357
0.076505
0.057738
-0.060775
-0.213491
-0.063856
-0.101500
0.052806
-0.209992
0.102992
0.122875
0.101954
-0.049782
-0.025299
0.016558
-0.140183
0.139296
-0.208091
-0.071419
0.190378
0.028381
-0.003760
0.072762
-0.257675
-0.069349
0.111855
-0.001642
-0.191146
-0.100274
0.023108
0.142892
0.075843
-0.210140
-0.012828
0.100867
0.013346
-0.083731
-0.075807
-0.027024
0.068054
0.031857
0.019139
-0.008967
-0.020852
-0.113725
-0.022827
0.048978
0.012320
-0.035273
-0.024294
-0.057200
0.026236
0.009915
0.009878
-0.055369
-0.152769
0.046149
0.028619
-0.026852
-0.043351
-0.067711
-0.061444
-0.034950
-0.039905
-0.058659
-0.027086
-0.026713
-0.042425
0.020126
0.034296
-0.028743
-0.115175
-0.064424
-0.040886
-0.179350
0.071705
-0.094838
0.025027
0.064383
0.083117
0.109735
0.086002
0.227270
-0.036298
-0.013708
0.017920
0.077565
0.044433
0.003186
0.057568
0.101124
0.174064
0.055300
0.066774
-0.074688
0.029100
-0.005299
0.035572
-0.150370
-0.131614
0.006761
-0.059101
-0.101947
-0.072701
0.022426
0.080157
0.038662
0.105075
0.135554
0.142395
-0.021887
0.029596
0.033638
0.075370
-0.015416
-0.043714
-0.006406
0.106880
0.087991
-0.013334
-0.084222
-0.144305
-0.074001
-0.053670
0.042550
-0.126468
-0.073536
-0.026835
0.132574
0.146917
0.066116
-0.214162
0.022180
0.107592
0.222492
-0.304231
-0.155857
-0.004541
0.006586
-0.018684
0.023386
0.071729
0.000166
-0.104063
-0.076825
-0.114056
0.119228
0.025165
0.017266
-0.031753
-0.003222
0.103554
-0.072377
-0.119307
-0.048113
-0.030053
-0.080313
-0.152671
0.149686
0.049222
-0.053856
-0.052157
0.128056
0.060399
0.026077
-0.050299
0.067880
0.027900
-0.025476
0.042063
-0.174151
-0.133625
-0.040400
0.078001
-0.019005
-0.005012
-0.017319
0.095516
0.054872
-0.164203
-0.006507
-0.098172
0.064632
0.088286
0.021898
-0.061872
-0.013258
0.046949
-0.055040
-0.069833
-0.028069
0.003259
-0.001033
-0.081066
0.029082
-0.030460
-0.107746
-0.062844
0.102757
0.044604
0.015487
-0.075651
-0.059600
-0.000264
-0.022517
-0.094984
-0.066837
0.122082
0.001289
0.010906
-0.016276
-0.012057
-0.008204
-0.028548
-0.001327
0.083031
0.210153
0.253408
-0.016456
-0.025005
0.063438
0.063046
0.039224
-0.040004
-0.043437
-0.067727
-0.001420
0.002375
-0.026190
-0.088989
-0.014737
-0.003708
-0.004861
-0.066606
0.034844
-0.040514
0.047946
0.048870
-0.120377
0.078514
0.107436
0.069647
-0.066167
-0.045907
0.028798
-0.016975
-0.059724
-0.056876
-0.039294
0.035109
-0.006361
0.002669
0.023942
-0.027698
0.035488
-0.054765
0.034294
0.085666
0.093867
0.008441
-0.069529
0.052090
-0.060596
0.133661
0.020042
-0.057655
0.073772
0.111406
0.100016
-0.141127
-0.087317
-0.089227
0.133362
0.133055
0.122437
-0.134492
0.074045
0.034960
-0.189038
-0.113285
-0.085290
0.108144
-0.035333
-0.055980
0.022880
-0.007937
0.033878
-0.018484
-0.022275
-0.110633
-0.012738
-0.051760
-0.015272
-0.015948
0.048272
0.069920
-0.084777
-0.047352
-0.146663
-0.074830
-0.062743
-0.065708
0.039785
-0.007784
0.044183
0.009280
0.036571
0.096829
0.006586
-0.064115
-0.105719
-0.088132
-0.131311
-0.131536
-0.051776
0.121251
-0.085399
0.134281
0.064059
0.100221
0.169947
-0.051948
0.056579
0.064803
0.020432
-0.051645
0.062997
0.025129
0.027395
0.092293
-0.037515
0.043917
-0.049881
0.001383
-0.023883
0.077309
-0.066000
-0.044326
0.014681
-0.132675
0.111543
-0.063354
0.099162
0.106908
-0.083620
-0.063947
0.030962
-0.128891
-0.110789
-0.007199
0.001422
0.067369
-0.043009
0.074244
-0.065791
-0.038963
0.144689
-0.042114
-0.062796
0.118817
-0.041033
0.100506
0.101365
-0.023707
-0.145143
0.101850
0.026926
-0.090543
0.099824
-0.020590
0.037331
0.053556
-0.017643
-0.090508
0.064298
-0.103745
-0.085227
-0.050707
0.022563
0.096563
-0.025405
0.012268
-0.050831
0.045285
-0.129802
0.017374
0.013419
0.019595
0.075373
0.148885
0.106198
0.000873
0.037630
0.181970
-0.035940
-0.009240
-0.172333
-0.015909
0.095365
-0.025665
-0.079219
0.046834
-0.078187
0.007822
0.007365
0.062078
0.103788
0.010575
-0.066392
-0.025510
-0.115421
-0.086897
-0.010581
-0.050086
0.068913
0.123592
0.000468
0.002811
0.021547
-0.102395
-0.149397
-0.186821
0.144527
0.065456
-0.221979
0.176699
-0.083901
0.023296
0.157034
-0.099308
-0.044515
0.082292
-0.077957
0.052528
0.095923
0.010085
0.097020
-0.109060
-0.096497
0.082142
-0.034464
-0.059482
-0.049073
0.075593
0.079121
0.009456
-0.150064
-0.003606
0.053745
-0.101798
-0.042127
-0.007571
-0.057122
0.002353
0.044327
-0.026569
-0.033793
-0.025742
-0.052253
-0.023661
0.054438
-0.043180
-0.032011
0.106316
-0.099340
-0.073669
0.005927
-0.067834
0.103320
-0.041752
0.114085
-0.039445
0.006503
0.043367
-0.076397
0.031855
0.013834
0.072287
-0.034622
0.048810
-0.044325
-0.006063
0.035021
-0.039567
0.098812
-0.194623
0.152459
0.169248
0.072117
0.018872
-0.004724
-0.025563
-0.012224
0.137991
-0.056663
-0.006880
0.086375
-0.104360
-0.009181
-0.239528
-0.124868
-0.066842
-0.150639
-0.040952
-0.068910
-0.073697
0.075336
-0.074383
0.038840
0.015231
-0.175114
0.046690
-0.058857
0.066118
0.042233
0.005224
-0.109230
0.054751
0.001138
-0.007171
0.117352
0.022716
-0.011656
0.041330
-0.004511
-0.120528
-0.016037
0.108806
-0.022424
0.111526
-0.005555
-0.018315
-0.030180
0.007488
-0.063815
0.115326
-0.036310
0.060885
0.071951
0.000048
0.011459
0.094356
0.096950
0.089304
0.084719
-0.142409
0.047648
0.101236
0.012672
-0.069693
0.020056
0.141483
0.028608
-0.039383
-0.009314
-0.013738
0.115352
-0.038287
0.009030
0.044886
-0.023819
-0.053023
-0.013867
-0.181470
-0.099035
-0.075699
-0.079172
0.107121
-0.049601
0.043664
-0.103101
-0.030364
0.112905
-0.049404
0.041072
-0.047023
-0.102498
0.057999
0.069734
0.025946
-0.035618
0.016085
-0.180766
-0.023949
-0.093444
0.039646
0.043065
-0.014037
-0.028029
-0.153860
-0.007990
0.068427
-0.125632
0.123899
-0.154525
-0.014540
-0.019836
0.040159
-0.225598
-0.153157
-0.092532
0.005312
0.231407
0.189900
0.158261
0.081122
0.070744
-0.042000
-0.169331
-0.115544
0.054220
0.021406
0.038371
-0.011320
0.082997
0.029163
-0.067275
0.026907
-0.021646
0.018544
-0.037813
0.028932
-0.027664
0.137130
0.049785
-0.176180
-0.138538
-0.066735
-0.037221
0.085503
0.168226
0.067613
0.112238
-0.117425
-0.109279
-0.118848
-0.024432
0.123154
0.063269
0.068040
0.029932
0.005195
0.043100
-0.099183
0.031965
-0.098397
-0.118079
-0.047321
-0.059049
-0.018454
0.046204
0.075482
-0.120020
0.153913
-0.057643
-0.099255
-0.191805
-0.062783
0.290893
0.141368
0.128264
-0.024981
0.182381
-0.027213
-0.152175
-0.158927
-0.052553
0.150463
0.066836
-0.064443
-0.068424
-0.136553
-0.019245
0.073038
0.017374
0.066971
0.001349
0.084930
-0.051647
-0.224343
0.015064
-0.213685
-0.312749
-0.333369
-0.173327
0.047374
0.094205
0.040434
-0.088409
0.093253
-0.070016
-0.052638
-0.048532
0.087620
0.086483
0.055754
-0.035359
-0.146773
-0.124088
-0.083506
0.047478
0.091578
0.073554
0.027479
0.059751
-0.080916
-0.130460
-0.202058
-0.118019
-0.021334
0.192343
0.043558
0.103171
0.048638
0.073890
-0.147634
-0.011390
-0.161866
-0.001204
-0.104705
0.045438
0.036842
0.156513
-0.133377
-0.119021
-0.128572
-0.100156
0.045409
-0.030323
0.040831
0.002655
0.108694
-0.120671
-0.222086
-0.018382
-0.176125
-0.148801
-0.182971
-0.245742
-0.075576
0.097729
-0.015477
-0.064292
-0.165796
-0.026288
0.030573
0.147788
0.165455
0.057236
0.104931
-0.059880
-0.127510
-0.150292
-0.013661
0.014555
0.139420
0.041330
0.124273
0.032515
0.063578
-0.083107
-0.099078
-0.089792
-0.008651
0.030115
-0.000569
-0.019836
0.101574
0.048073
-0.064037
-0.029497
-0.051645
0.157447
-0.137128
0.199701
0.181833
0.141370
0.048907
-0.157228
-0.090391
-0.213850
-0.048632
-0.160273
-0.098177
-0.018245
0.078723
0.157710
-0.035334
0.147634
-0.012690
0.035640
-0.115292
-0.023286
0.218741
0.103220
0.008098
-0.119758
0.019941
-0.135529
0.040763
-0.041959
0.118385
0.192971
0.109613
-0.069970
-0.038600
-0.088443
-0.014894
0.113713
0.053878
0.123961
0.108418
0.112225
-0.028447
-0.138507
-0.081495
-0.154791
-0.079521
-0.120796
-0.000411
0.020504
0.038302
0.014361
-0.050396
-0.165961
-0.022697
0.075293
-0.058218
0.020561
0.121962
0.057231
-0.019445
-0.191574
-0.085746
-0.158778
-0.015538
-0.167376
-0.158217
-0.078157
0.064062
-0.030143
-0.158081
0.004731
-0.165182
-0.064098
0.066632
0.006480
-0.071477
0.107466
-0.001118
-0.080248
-0.272481
-0.136487
0.110289
0.099703
0.216999
0.170200
0.095615
0.082371
-0.125465
-0.091964
-0.127667
0.002599
-0.049828
0.061125
0.002689
0.131019
-0.028570
-0.092513
-0.113425
-0.159977
-0.049894
-0.011884
0.031295
0.030892
0.070471
0.069204
-0.057246
0.190505
0.122978
-0.009855
-0.122809
-0.135657
0.194667
-0.027855
-0.070792
-0.150671
0.000321
-0.063879
-0.170095
0.049112
0.009248
-0.263144
-0.032978
-0.084263
0.101799
-0.029134
-0.000319
-0.077633
0.047469
-0.045477
0.030005
-0.038470
-0.028109
0.033291
-0.019702
-0.069101
0.043399
-0.053118
0.040426
0.063032
-0.021197
-0.091898
-0.023904
-0.119437
0.072093
0.108175
0.097547
0.174734
-0.066959
-0.058936
0.021696
0.088382
-0.053884
0.151495
0.116919
0.029370
0.078025
-0.035293
0.000460
0.027490
-0.001744
0.050133
-0.078438
0.065838
-0.017478
0.117320
0.114258
0.109994
-0.055872
-0.184944
0.095524
-0.028630
-0.046708
0.004660
0.018657
0.056932
-0.021843
-0.004684
-0.032776
0.029630
0.029950
0.075934
-0.076283
0.044995
0.067116
0.002516
0.038123
0.002754
0.007780
0.101085
0.093024
0.091489
0.101313
0.033285
0.042714
-0.052832
-0.143006
-0.058065
-0.149972
-0.407607
-0.151618
-0.303752
-0.257593
0.077125
-0.051487
0.064145
-0.011568
-0.023969
0.053197
0.010954
0.008340
0.080926
-0.069437
-0.038371
0.000201
-0.029785
0.164157
0.067109
0.059552
0.068492
-0.053805
-0.106794
-0.172346
-0.014874
-0.070467
-0.158827
-0.174729
-0.101316
-0.242993
-0.389583
-0.051972
0.023106
-0.061852
-0.034373
-0.120891
0.143779
-0.002799
0.014158
0.039602
-0.077334
-0.010345
0.087152
-0.089002
0.070812
-0.045984
-0.028909
0.059919
0.030751
-0.080692
0.041023
-0.018209
-0.020833
-0.007269
-0.090515
-0.022380
0.011031
-0.176477
0.031667
0.056211
-0.075597
-0.022309
0.086780
0.067395
0.109413
0.124842
-0.104627
-0.020259
-0.037763
0.076893
-0.063511
0.090911
0.074848
0.057259
0.056152
-0.077021
-0.092062
0.007438
-0.053911
0.033988
0.008404
-0.029589
-0.054257
-0.038421
-0.069496
0.014309
0.009281
0.078489
-0.150518
0.094306
0.223152
0.112415
0.116905
0.032916
0.064050
-0.049757
-0.007449
-0.007284
0.147368
0.132010
0.021796
0.093499
-0.034425
-0.027225
0.016057
-0.246293
0.124282
-0.206023
-0.247446
-0.019220
-0.229081
-0.131385
0.035611
-0.078143
0.001460
-0.154173
0.008761
0.107389
0.033710
0.124110
0.106511
0.009650
0.097719
-0.023840
-0.122241
0.078221
0.045448
0.103173
0.099190
-0.068628
0.055354
0.065627
0.017890
-0.022232
0.036679
0.119215
-0.015697
0.080070
-0.030328
-0.084521
0.097467
0.062018
-0.011527
0.114738
0.085317
0.010209
0.122770
0.049601
0.032376
0.021709
0.047677
0.029858
0.079836
-0.065652
0.108638
0.020261
-0.145156
-0.017739
-0.077168
0.080538
-0.035826
0.005281
0.068606
-0.014665
0.126731
0.073506
-0.023868
-0.012842
-0.079661
-0.127508
0.012065
0.013929
0.094125
-0.022187
-0.064274
0.046689
0.023914
0.096052
-0.105797
-0.015879
0.076113
-0.008025
0.036397
0.087966
-0.056269
0.016985
-0.025788
-0.108808
-0.070375
0.003877
-0.005550
0.054244
-0.031152
0.023405
0.116397
-0.065113
0.076313
-0.145758
-0.019771
-0.094004
-0.100553
0.067821
0.216652
0.080274
0.026243
0.372104
-0.112936
-0.113779
0.079046
-0.001856
-0.186596
0.047737
0.127918
0.162498
0.124686
0.009019
-0.028601
0.086161
0.056077
-0.005910
-0.041940
-0.060711
-0.065921
0.050601
-0.007636
-0.025227
0.082549
-0.112370
-0.110856
-0.048525
0.031652
0.060245
0.092729
-0.064628
0.046973
0.018163
-0.211963
0.053805
-0.062678
0.065148
-0.005369
0.015123
-0.105852
0.045944
-0.035819
-0.045632
0.095966
-0.121447
-0.061864
-0.061793
0.033157
0.018524
0.003966
0.168751
0.030460
-0.164491
0.198321
-0.015634
0.027666
0.097379
0.015962
0.065371
0.045346
-0.055464
-0.132311
-0.022726
-0.116853
-0.030192
0.112466
0.028458
-0.111004
0.096631
0.037620
-0.164782
0.039408
0.028270
-0.094345
-0.068827
0.009707
0.090750
0.004927
-0.195178
0.089268
0.361776
0.173336
0.004557
-0.131964
0.043774
0.144874
-0.265533
0.014728
0.086963
-0.027642
-0.063558
-0.030061
0.009854
0.131454
-0.011981
0.135018
-0.079182
-0.043984
0.032705
0.067773
0.032902
-0.004570
0.026311
0.003010
0.026978
-0.135267
0.117276
0.167842
0.060624
0.110299
0.204906
-0.140210
-0.112038
0.028676
-0.080228
-0.168708
-0.070842
0.003154
0.051750
-0.011217
0.001686
0.013426
0.050169
-0.087885
-0.151576
0.030463
-0.078424
0.057815
0.007996
-0.075877
0.051031
0.080323
-0.175957
0.059222
0.149707
0.040859
-0.072690
-0.027717
0.045168
0.136114
0.017663
-0.196214
0.169621
-0.010807
0.014478
-0.021644
0.072970
0.015263
-0.011770
-0.051297
-0.034710
-0.047714
0.054325
-0.108602
-0.036416
0.066459
-0.004936
0.049358
0.004296
-0.153528
0.040295
-0.077407
0.061892
-0.001188
-0.090463
-0.098333
0.001347
0.041697
-0.053160
0.052794
-0.022460
0.099094
-0.045544
0.121057
0.121121
-0.015578
0.078688
-0.172203
0.028034
0.072949
0.042407
0.032573
-0.002193
0.052088
0.046105
0.026418
-0.134541
0.120552
0.196535
0.032631
-0.016635
-0.070239
0.077973
-0.079251
-0.049462
0.010068
-0.219958
-0.062783
-0.036080
0.017111
0.121836
0.028922
-0.064597
0.067686
-0.046143
-0.118800
-0.023256
0.043887
-0.076101
0.129030
-0.111946
-0.065515
-0.052476
-0.147237
0.063493
-0.090960
-0.072721
-0.031960
-0.048618
0.024046
-0.015773
0.122741
-0.166223
-0.058472
-0.040607
0.044232
0.044756
0.073592
-0.029497
0.042697
-0.031149
-0.166609
0.084647
0.124114
0.083846
-0.028796
-0.003767
-0.028633
0.090211
-0.072901
-0.071751
0.050467
-0.042786
-0.006903
0.058141
-0.035344
-0.033907
0.047527
0.109468
-0.131038
-0.000132
0.042577
0.009638
0.015411
0.084190
-0.028631
-0.099234
0.106466
-0.171660
-0.134657
-0.128371
-0.040806
-0.100605
0.076261
0.005506
-0.083712
0.120806
0.011165
-0.126513
-0.073565
0.085580
-0.050809
0.079431
0.067018
-0.025097
0.145466
-0.136066
-0.033697
0.106596
-0.073104
-0.116488
0.077794
0.058429
0.017655
0.069624
0.042776
-0.124570
-0.083191
-0.052748
-0.034674
-0.116681
-0.031063
0.060982
0.130289
-0.066134
-0.102663
-0.078424
-0.012827
0.107132
-0.141522
0.077818
0.097914
-0.099242
0.004530
0.205074
-0.045625
0.090579
0.025514
0.034420
0.042329
0.032406
-0.153629
0.048223
0.028582
-0.063271
0.054861
-0.021664
-0.131135
0.081197
0.038701
-0.035693
-0.103619
0.086200
0.009459
0.051540
-0.072463
-0.092923
0.043925
-0.002747
-0.075494
0.072062
0.001554
0.051234
-0.075269
-0.004730
0.022552
0.006355
0.002357
-0.143353
-0.112151
-0.075838
0.144640
-0.058446
-0.068973
0.124379
0.089903
-0.169201
-0.008854
0.008069
-0.055979
-0.014324
-0.081125
-0.075216
-0.008247
-0.028616
-0.040928
-0.081494
-0.089529
-0.052603
-0.001980
0.004517
-0.119207
-0.064125
0.074547
-0.082386
0.015359
-0.021444
-0.003871
0.155294
0.066849
-0.049379
0.179263
0.138072
-0.027478
0.089582
0.189719
0.113583
0.028518
0.040924
-0.132172
0.053531
-0.034449
-0.147843
-0.026159
-0.012075
0.011772
0.056300
-0.053768
-0.022762
-0.084226
0.084073
-0.053537
0.045075
0.003073
0.049929
-0.161122
0.071134
-0.068478
-0.213028
-0.039539
0.228220
-0.053185
-0.052592
0.176432
-0.022744
0.008686
0.003559
-0.014827
0.025154
0.050095
-0.040014
-0.094475
0.097127
-0.005300
0.038294
-0.146983
-0.001068
0.052446
0.052358
-0.000662
-0.016995
-0.039064
0.157386
0.133015
-0.034495
0.045326
0.118839
-0.091766
-0.039557
0.118046
-0.019400
-0.060899
-0.051458
-0.128557
0.045037
0.023937
0.005586
-0.141387
-0.010971
-0.057044
-0.019822
0.056167
-0.131252
-0.084660
-0.022421
0.028344
-0.025917
-0.019560
-0.053431
0.059694
0.097079
0.030761
-0.023978
0.044598
0.068287
-0.149563
-0.048786
0.109074
0.091353
-0.097866
0.035606
0.014975
0.069928
-0.052353
0.044173
0.029363
-0.096577
0.033869
0.066998
0.019911
0.009765
0.105836
-0.071753
0.016011
0.035774
0.065228
0.107501
-0.189971
-0.039258
0.074448
-0.063199
-0.112922
-0.045076
0.112882
0.017824
-0.018967
0.016412
-0.048900
0.019705
-0.000825
-0.007612
-0.062870
-0.118835
0.004698
0.007929
0.013231
-0.122840
-0.051228
0.101591
-0.071699
-0.029863
0.033387
0.020364
0.083417
0.055703
-0.016606
-0.077282
-0.044781
-0.016169
-0.018356
0.023810
0.087167
0.048489
0.109738
-0.046824
0.005573
-0.027900
-0.049496
-0.076339
-0.044086
-0.009550
0.067569
0.142548
-0.041733
-0.021366
0.109205
0.011705
-0.018410
0.065536
0.020742
-0.017023
-0.006663
-0.105787
-0.077534
0.042786
0.127437
0.007883
-0.035600
0.134011
-0.066013
-0.057170
-0.064236
-0.171099
-0.048545
-0.049786
0.058377
-0.095148
0.028020
0.088031
0.004594
-0.002445
-0.114026
0.017230
0.038519
-0.049797
-0.043863
-0.042669
0.037588
0.004447
0.060224
-0.043038
0.079891
0.006241
-0.136922
-0.069888
0.020235
0.022369
0.006473
-0.045370
0.003493
0.039834
-0.149405
-0.042475
-0.086543
0.024512
-0.098178
-0.210154
-0.161702
-0.015260
-0.158397
-0.138407
-0.059671
-0.241641
-0.212561
0.010781
-0.028378
-0.049109
0.017490
0.016129
-0.017686
-0.010163
-0.103994
0.098648
0.012853
-0.043487
0.040895
-0.013352
-0.015752
0.102245
0.007813
-0.031112
0.006711
-0.064004
-0.082966
0.154147
-0.097518
-0.077215
0.149783
-0.072063
-0.048225
0.107538
-0.045894
-0.042064
0.089361
-0.104575
0.030494
0.063503
-0.084458
0.008099
-0.021193
0.073584
-0.032580
0.070300
-0.074337
-0.021739
0.116523
-0.098708
-0.019857
0.056404
-0.005591
-0.093295
-0.154312
0.043343
-0.107468
-0.139645
-0.036063
-0.005429
-0.224498
-0.045470
-0.124627
0.016007
-0.090917
-0.156370
0.085354
0.032725
-0.077670
-0.008612
-0.127225
0.015155
-0.006122
-0.166541
0.022305
0.040259
0.004871
0.000411
0.135416
-0.033488
-0.008147
-0.046650
0.004524
0.020453
-0.062951
0.126794
0.073945
0.085616
-0.090903
-0.086507
-0.026489
0.007323
-0.073005
0.001298
-0.068063
0.017543
-0.002956
-0.031127
0.004871
0.047708
-0.062190
0.015401
0.096806
-0.034827
-0.048653
0.147118
-0.075606
-0.223176
-0.086547
-0.004495
-0.038590
-0.071033
-0.055411
-0.182134
-0.127781
-0.080893
-0.007871
0.024145
-0.130884
-0.033582
0.154839
-0.103667
-0.055278
0.134069
-0.011050
0.067149
0.063444
-0.042238
0.051833
0.096748
-0.075598
0.004653
0.068958
-0.065793
0.021577
0.094978
-0.097101
0.015890
0.093197
0.004691
0.009652
0.071100
0.027656
0.083035
-0.014240
-0.119177
0.094233
0.106234
-0.071875
0.039433
0.044108
-0.122267
0.050441
0.052050
-0.109694
0.079986
0.065513
0.023483
0.088207
0.017505
-0.074630
-0.057957
0.112909
-0.090478
-0.051861
0.043650
-0.059007
-0.065956
0.130483
-0.147886
0.031395
0.050460
-0.173413
0.026765
0.016887
-0.011002
0.022334
-0.011388
-0.131697
-0.020273
0.131771
-0.125253
0.003771
0.113253
-0.129612
0.036351
0.047259
-0.002266
-0.176910
-0.196812
-0.128568
-0.127670
-0.182997
-0.078836
-0.069385
-0.239856
-0.048035
-0.106445
0.109650
-0.086568
-0.046534
-0.051193
0.005370
-0.055873
-0.036030
-0.008394
0.124744
0.055284
-0.116036
0.106110
0.027198
-0.015099
0.095696
0.086125
-0.102578
0.062727
0.150391
-0.077083
0.089248
0.091927
-0.036292
-0.060462
0.110154
-0.065507
0.094208
0.079814
-0.142581
0.015711
0.157880
0.009661
-0.007010
0.149052
-0.031403
0.059817
0.000872
-0.068537
0.037863
0.079343
-0.008589
-0.014444
0.084502
-0.010536
0.033545
0.082623
-0.169030
0.005675
0.056598
-0.159157
-0.055460
0.121658
-0.052090
-0.112490
-0.191752
-0.012735
-0.037466
-0.076470
-0.110621
-0.193450
-0.153043
0.051485
-0.012369
0.048429
-0.121345
-0.053127
0.052827
-0.113304
-0.073494
0.029908
0.044107
-0.086804
0.153780
0.025107
-0.104005
0.052411
-0.076957
-0.108307
0.113575
0.060165
-0.014572
-0.013616
0.033935
-0.040717
-0.095867
0.049649
-0.072444
-0.043105
-0.216048
-0.020945
-0.207378
0.166616
0.139728
0.166545
0.174976
0.059852
0.213516
-0.033640
-0.034558
-0.174624
0.082078
0.042168
0.008150
0.008853
-0.001176
0.113102
-0.070066
0.087485
-0.092972
-0.011453
-0.030570
-0.020104
0.021657
0.050202
0.039412
-0.161668
-0.133021
-0.115723
-0.068467
-0.017960
-0.000631
0.062751
0.053434
0.071889
0.058180
-0.087560
-0.049291
-0.098824
0.031196
-0.088407
0.030978
0.060210
0.109430
0.040769
0.007650
-0.050753
-0.149367
-0.217777
-0.059604
0.128285
0.025676
0.114116
0.120026
0.234332
0.038538
-0.012055
0.262812
0.009659
0.077593
0.032554
-0.067984
0.133699
0.029729
0.069782
0.020983
0.091917
-0.133399
0.051927
-0.003387
-0.107454
-0.023662
0.019095
-0.074205
-0.118562
-0.108182
-0.038216
-0.005779
0.069876
0.135408
0.283570
0.199936
0.033317
-0.174577
0.019475
-0.110385
-0.164866
-0.064789
-0.116043
0.059966
0.153582
0.003606
-0.038613
-0.130942
-0.092807
0.015025
0.090275
0.064723
0.050971
-0.058916
-0.014693
-0.095700
-0.040621
-0.083281
-0.046351
0.004038
0.053233
-0.155585
0.098979
-0.266985
0.209639
0.164207
0.143506
0.113416
0.113218
0.235968
0.040087
-0.050588
-0.091270
-0.109074
-0.151511
-0.081365
-0.009501
0.075884
0.047246
0.039803
0.024836
-0.137972
-0.109693
-0.015588
-0.129165
0.117174
0.068911
0.046853
0.158141
0.007767
-0.128429
-0.214931
-0.172727
-0.171495
-0.007191
-0.030975
-0.089398
-0.034588
0.051566
-0.145994
0.020350
-0.067456
-0.096665
-0.020232
0.002967
0.007314
0.061004
-0.072850
-0.029066
-0.140240
-0.001199
-0.041934
0.063723
0.102782
-0.033727
-0.071632
0.052559
-0.111197
-0.103925
-0.052796
-0.070970
0.035953
0.119406
0.079225
0.010684
0.029484
0.124715
-0.212882
-0.011390
-0.035156
0.003126
0.042755
0.005059
0.121263
0.034540
0.033550
-0.180975
-0.125566
-0.102797
-0.016033
0.103149
-0.058989
0.327087
0.225015
0.116077
-0.001387
0.284574
0.046130
-0.001278
-0.054958
0.017220
-0.044402
0.004192
0.019440
-0.047965
-0.062112
-0.079194
0.149834
0.118996
0.032113
0.038143
0.006472
-0.029021
-0.151334
-0.120743
-0.047633
-0.040216
0.036757
-0.006727
-0.078146
0.071423
0.033775
-0.166671
-0.123049
-0.068022
-0.025682
0.017140
0.042612
0.089070
0.042173
-0.050377
-0.102891
-0.077258
-0.085992
0.016106
0.081490
0.044339
0.049020
0.108891
-0.134950
-0.154890
-0.157411
-0.163480
-0.004370
0.049682
-0.022334
0.002976
0.074696
-0.125235
-0.104810
-0.053481
-0.022608
0.013581
0.069175
0.093214
-0.047651
-0.025510
-0.228403
0.045849
-0.026143
0.022302
0.071122
0.058245
0.131348
-0.055550
0.086867
-0.038617
-0.133062
-0.024919
-0.033680
-0.022248
0.102107
0.067347
0.037689
-0.064898
-0.087948
-0.141645
-0.147030
-0.118097
0.016639
0.077004
0.132216
0.153039
0.198929
0.005389
-0.020697
0.078828
0.057625
0.139011
0.068438
0.007147
-0.080270
0.025838
0.077798
-0.007432
-0.012576
-0.122086
-0.068297
-0.061924
0.041909
0.066886
-0.040966
-0.073860
-0.006435
-0.082397
0.054932
-0.036106
0.017437
-0.017737
0.035372
-0.050446
0.032199
-0.139604
0.030745
-0.021802
0.063737
0.066919
0.077925
-0.085030
-0.016627
0.078740
0.008209
-0.005095
0.067015
0.113062
0.095448
0.085016
0.029580
0.011455
0.076910
0.063075
0.015674
0.004478
0.035509
-0.058606
-0.038150
0.065672
-0.027551
0.112280
-0.001409
0.007063
0.050543
-0.107628
0.047981
0.052236
-0.089929
-0.073587
0.006307
-0.156107
-0.064087
-0.088909
-0.035553
-0.140686
0.093951
0.031891
-0.088722
0.008220
0.009616
-0.007993
-0.047924
-0.055091
-0.082181
0.021340
-0.010277
0.060796
0.027248
0.078032
-0.046381
-0.027507
0.005423
0.044490
0.030765
-0.094541
-0.121536
-0.144826
-0.053168
-0.128647
-0.046523
-0.149711
-0.158752
-0.106312
-0.050304
-0.029696
0.061628
-0.009847
0.018531
0.030064
-0.061272
0.053878
0.119887
-0.041469
-0.015617
-0.058195
-0.015795
0.008071
0.027152
0.115248
0.045032
0.043834
-0.079505
0.035095
-0.076887
-0.055708
-0.068422
-0.061694
-0.057674
-0.094225
0.028423
0.043398
-0.028160
0.086746
-0.064558
0.061787
0.068753
0.037771
0.039033
-0.048894
0.008315
-0.013238
0.038505
-0.070355
0.018335
0.015379
0.031402
0.094409
-0.044039
-0.077878
-0.043735
-0.072483
0.029896
0.038550
-0.015321
0.032258
-0.034934
-0.068311
-0.035373
0.002483
0.009498
0.052802
-0.018966
0.048966
0.108690
0.001868
-0.075898
0.004428
0.126689
0.043195
0.105013
-0.048591
-0.013906
-0.010003
-0.055491
0.062599
-0.082545
0.015970
0.051883
0.019755
-0.046704
-0.029129
0.073907
0.101124
-0.001979
-0.124325
-0.010470
0.031069
0.003956
0.068016
-0.063441
-0.064542
0.044268
0.051180
0.011730
0.068393
-0.003449
0.091406
0.028272
-0.076355
0.002571
0.067050
0.023389
0.045769
-0.035470
0.021320
-0.106818
0.010734
-0.141828
0.011176
-0.034947
0.010964
-0.151003
0.019858
-0.035686
-0.075845
-0.000577
0.038368
0.014020
0.019258
0.084389
-0.012720
0.073752
0.016491
0.049682
-0.015206
-0.020088
0.081507
0.087657
-0.019652
-0.118739
-0.023928
0.009660
-0.074838
0.055817
0.080276
0.078219
0.063359
0.026567
0.032245
-0.035203
0.022776
0.050933
0.052572
-0.047068
-0.003975
0.035274
-0.037966
0.007276
-0.022269
-0.067262
-0.013816
0.041837
-0.013114
-0.063109
-0.065151
-0.103545
0.039450
0.077765
-0.024869
0.026451
-0.025966
0.017718
0.010812
-0.035141
-0.005474
-0.010519
0.007262
0.052142
-0.053988
-0.032612
0.062301
-0.044952
-0.019604
0.100837
-0.068533
-0.085028
0.056944
-0.118586
-0.036648
-0.006864
0.009945
-0.064466
-0.032494
-0.023132
-0.058178
0.035200
-0.125248
0.093381
0.022112
-0.003366
-0.039158
-0.027274
-0.050668
-0.008566
0.095316
-0.095249
-0.036256
-0.008869
-0.134115
-0.014643
0.029462
-0.137080
-0.012157
0.072337
-0.163827
-0.059538
-0.135099
0.291866
0.128767
0.132660
0.035277
0.059256
0.005283
-0.044766
-0.053228
-0.035053
0.059692
0.083907
0.175243
0.041005
-0.081825
-0.021969
-0.134368
-0.143676
-0.099189
0.040601
0.024345
-0.022750
0.073579
0.026480
0.100173
-0.118781
-0.108159
-0.149481
0.184867
0.145102
-0.025146
-0.022823
-0.047981
0.065793
-0.105797
-0.070190
0.040928
0.011750
-0.045376
-0.078774
0.074413
0.007100
-0.050415
-0.033125
-0.128103
-0.074433
0.042730
0.042032
-0.107510
-0.073139
-0.142237
-0.151423
0.191367
0.096903
0.157639
0.008454
-0.006404
-0.151911
0.038094
-0.146826
-0.109254
0.179285
-0.008306
0.095730
-0.095993
-0.121607
-0.172860
0.000506
0.011225
0.077517
-0.024772
-0.156562
-0.057317
0.026206
0.088091
-0.069583
-0.192563
-0.140266
-0.008308
0.032525
0.041411
0.332534
-0.056663
0.024082
0.059177
-0.031218
-0.093651
0.024313
-0.035643
0.052007
0.124418
0.135535
-0.012412
-0.055146
-0.057845
-0.071693
0.113507
-0.115109
0.001001
0.046245
0.016270
0.065979
0.009408
-0.060659
-0.085974
-0.036384
-0.275363
-0.126701
-0.225085
0.245889
0.267062
0.225505
0.025570
-0.030698
-0.040301
-0.104801
-0.166924
-0.023184
0.064982
0.142769
0.048746
-0.009088
0.000959
0.008397
-0.090701
-0.029715
0.034948
0.004530
0.113496
0.006294
0.025121
-0.033991
0.081788
-0.021887
-0.133731
0.051301
-0.079780
-0.121986
-0.056760
0.001071
0.028453
0.018623
-0.193177
-0.146746
-0.007993
0.099849
0.120379
-0.025742
0.057816
-0.077053
0.105609
-0.049492
-0.096982
-0.095356
0.055417
-0.020295
-0.019637
0.021258
-0.037755
0.035586
-0.048179
-0.048624
-0.023719
0.052088
0.156431
0.007465
0.076378
-0.091794
0.108661
-0.243824
-0.030107
0.108887
0.098631
-0.140323
-0.105398
-0.087110
-0.004145
-0.039356
0.005595
-0.100046
0.116147
-0.045776
-0.157168
-0.001288
-0.122219
-0.096941
-0.007368
0.081256
0.089036
0.291389
0.098081
-0.081753
-0.197399
0.024305
-0.083160
0.051374
-0.043699
-0.013365
0.017124
0.111871
0.027029
0.020918
-0.077740
-0.119452
0.119110
-0.047931
-0.138209
-0.095469
0.122286
-0.049807
-0.127340
0.028243
-0.106224
0.092627
-0.162495
-0.071317
-0.054239
-0.027809
-0.013869
-0.114212
-0.104736
-0.060516
0.042761
-0.159489
-0.126380
0.008459
0.044014
0.011418
-0.071506
-0.058561
-0.041730
-0.019992
-0.051175
-0.092972
0.097862
0.007301
-0.034974
-0.049412
-0.018757
-0.046447
0.056236
-0.017610
-0.024608
0.017804
-0.017204
0.068912
-0.014646
-0.034959
0.080420
0.089010
-0.225443
-0.089386
-0.159578
0.152772
0.147942
0.135982
-0.016727
-0.092244
-0.020959
-0.057401
-0.106748
-0.065732
0.003291
0.058549
0.012839
0.129370
-0.116629
-0.038580
-0.101695
-0.051276
-0.029264
0.083420
0.136462
0.040914
0.003092
-0.151736
-0.083611
0.166156
0.004563
0.118701
0.007088
-0.058693
-0.147944
0.077140
0.066328
-0.086088
0.023563
0.106396
-0.022450
0.147318
0.070849
-0.123462
0.049654
-0.078136
0.061426
0.005107
0.140641
0.118426
-0.075731
0.085237
0.004199
0.084546
0.083120
-0.071310
0.064338
0.015899
0.029199
-0.086868
0.061286
0.079173
-0.009452
0.087671
0.055834
0.034709
0.038076
-0.020839
-0.057132
0.005174
-0.071561
-0.025921
-0.066393
0.011311
0.028295
0.020364
0.062384
-0.086451
0.026206
-0.064783
0.122785
0.080417
-0.041971
0.082386
0.020078
-0.071378
-0.093955
-0.076194
-0.085087
0.026681
0.059602
-0.012620
0.061861
0.003802
-0.029632
-0.017976
0.140621
-0.074781
-0.092646
0.052052
-0.007527
0.071415
0.004153
-0.070569
-0.037423
-0.047836
-0.053563
0.021959
-0.049375
-0.111054
-0.075871
-0.039794
0.059407
-0.091711
-0.070158
0.002360
-0.091766
-0.152228
-0.139792
-0.010266
0.041583
-0.100180
0.077085
0.113568
0.108884
0.058580
0.115003
-0.043386
0.064044
0.061443
-0.079311
0.072374
-0.040725
-0.045927
0.042902
-0.072164
-0.100437
-0.043663
0.043345
-0.092078
-0.078251
0.042610
0.040048
-0.053682
-0.041395
-0.131533
0.021222
0.058117
-0.036528
0.148502
0.185815
0.122653
-0.007544
-0.018429
0.028890
-0.042897
-0.001976
-0.007963
-0.017023
-0.101798
0.067710
0.015349
-0.041573
-0.070152
0.086691
-0.011943
0.042555
-0.033991
0.075301
0.060435
-0.095952
-0.023067
-0.073951
-0.047121
0.059514
-0.045820
0.073753
-0.059342
0.068222
0.074322
-0.066621
-0.019398
0.009789
0.043953
0.027008
-0.083540
-0.075334
-0.038492
-0.029017
0.037113
0.039806
-0.092744
0.037693
0.053475
0.017597
0.046580
0.068748
-0.046244
-0.073345
-0.003759
0.005685
0.068011
-0.068956
-0.059774
0.037746
-0.037400
0.162531
0.123964
-0.065674
0.001567
-0.092256
-0.088425
0.085455
0.033494
-0.084504
0.008115
0.017477
-0.072976
-0.082924
-0.043314
-0.058816
-0.056956
0.024586
-0.045740
-0.136884
0.039422
-0.083300
-0.025941
-0.092584
-0.051949
0.073065
-0.005785
0.092834
0.144625
0.043274
-0.026267
0.040737
0.030033
0.020565
-0.072812
0.000863
-0.041897
-0.017242
0.025295
-0.126599
-0.028922
-0.086767
-0.098161
0.062211
-0.002807
-0.005488
0.061172
-0.012560
-0.008616
-0.012703
-0.007497
0.058386
-0.014658
0.053595
0.078914
0.083831
0.053145
-0.066955
0.074802
0.045814
-0.072219
0.058066
0.053446
0.053209
-0.014846
0.091730
-0.083401
0.075274
0.068665
-0.106018
0.065145
0.056395
0.024851
0.053420
0.012925
-0.082764
0.069509
0.002404
0.029118
0.021013
-0.021549
0.079604
0.163809
0.045073
-0.022912
0.009800
0.019083
0.030656
0.047973
-0.045970
-0.007235
0.096797
-0.070998
-0.062163
-0.002674
-0.057907
0.007074
-0.031387
0.006718
-0.011654
0.054109
-0.019602
-0.038409
0.007547
-0.064728
-0.057878
-0.009618
0.002260
-0.056911
-0.093742
-0.038124
0.004036
0.061698
-0.013469
-0.042250
0.008183
0.002220
0.011626
-0.011372
-0.038230
0.133791
-0.171693
-0.029254
-0.001664
0.070257
0.112283
0.121148
-0.047118
0.053061
0.015108
-0.088996
-0.047470
0.020403
-0.049186
-0.080590
-0.016326
0.061692
0.040998
0.042299
-0.031013
0.023533
0.075256
-0.039253
-0.082942
-0.072875
-0.037148
0.044435
0.043398
-0.200620
-0.049530
0.031685
-0.080110
-0.065854
-0.111113
-0.024881
0.112291
0.021715
-0.061038
-0.026010
-0.060609
-0.082241
0.005410
-0.121708
0.008904
-0.065157
0.049437
-0.050769
-0.028312
0.075599
-0.061978
-0.158247
-0.095893
0.036555
-0.097846
-0.082243
0.084769
0.053401
0.081432
-0.127997
0.037483
0.202724
-0.048683
-0.107773
0.018513
0.053370
-0.058477
-0.055604
-0.176756
-0.072727
0.013007
0.044519
0.050793
-0.009182
-0.105171
-0.062497
0.060589
-0.066458
-0.000932
-0.033520
0.139515
0.029828
-0.077608
0.096684
0.214285
0.178800
0.006097
0.085117
0.280079
0.023298
0.039180
0.016702
-0.032438
0.012333
0.097791
-0.120432
-0.007502
0.049002
0.034891
0.044584
0.045700
-0.074335
0.037328
-0.052960
-0.159241
-0.019270
-0.032709
0.086607
0.062918
0.200445
-0.038445
0.067989
0.032392
0.148452
0.313275
0.203187
0.020745
-0.038735
-0.000803
-0.078161
-0.101456
0.002504
-0.003391
0.000381
-0.137538
-0.048646
0.091777
-0.016826
0.004319
0.031549
0.102749
-0.035021
0.002202
0.012509
0.009673
-0.018457
0.081079
-0.053038
0.083681
0.112749
-0.040311
-0.006401
0.032099
-0.027963
0.055157
0.101062
-0.149480
-0.068306
-0.058437
-0.021545
-0.132331
-0.126118
0.023749
0.026270
0.070786
-0.128516
0.074690
0.103094
-0.105349
-0.028985
-0.100087
-0.035041
-0.033109
0.024368
-0.078875
-0.013357
-0.016339
-0.085070
-0.084790
-0.056819
-0.010590
-0.061434
0.013598
-0.044890
0.034818
-0.016379
-0.093804
-0.060571
0.022511
0.051717
-0.024352
-0.046028
0.024744
0.009913
0.013528
-0.117514
0.042991
-0.053491
0.051815
-0.076726
-0.049762
0.047031
0.093489
0.031612
-0.057625
0.093340
0.296856
-0.100135
0.076547
-0.004144
-0.079602
-0.040018
-0.022381
-0.157584
-0.031796
-0.087800
-0.000505
0.051119
-0.028128
-0.120175
0.019817
0.024613
-0.047019
-0.133178
-0.105203
0.022754
0.105979
-0.047014
0.031743
0.018969
-0.013849
-0.139275
-0.139798
0.021220
-0.073498
0.037425
0.092514
-0.012911
0.003530
0.088106
-0.022415
-0.062632
-0.014000
-0.020770
0.098749
0.033208
-0.049978
0.120788
0.147615
-0.090357
-0.014863
-0.006519
-0.038261
0.030358
-0.017012
-0.013174
-0.071712
0.092021
-0.106146
-0.088987
-0.066619
-0.013246
0.021563
0.025135
-0.075722
-0.109318
-0.014599
-0.042376
0.069565
0.069466
0.018408
-0.068153
0.075349
0.009419
0.050986
0.075481
-0.068671
-0.128075
-0.102017
0.031967
-0.047818
0.074126
-0.133084
-0.016455
-0.036240
-0.104856
-0.012966
-0.117230
0.083054
-0.009613
0.019054
-0.088548
0.111569
0.119070
-0.094165
0.006129
0.169401
0.102477
0.085573
-0.099764
0.048933
-0.293407
-0.024521
-0.081343
-0.074836
0.054621
0.121525
-0.030688
-0.061112
0.002939
-0.057928
0.032287
0.029194
-0.022741
-0.033457
-0.025466
0.104553
0.002144
0.068690
-0.007734
-0.089571
0.037117
-0.046548
0.062660
0.058731
0.030520
-0.103052
0.100644
-0.086188
0.096783
-0.062235
0.035807
0.073899
0.089890
0.017452
-0.136113
0.056620
-0.094237
-0.000277
-0.100021
-0.086029
0.161127
0.026534
0.127999
-0.082044
0.190445
-0.029336
-0.078117
0.100699
-0.139705
0.096421
-0.046651
0.117795
-0.068261
0.171197
0.147308
-0.083870
-0.015219
-0.165089
0.176689
0.035949
0.128815
0.024751
0.087381
0.025276
-0.080290
0.070648
-0.215952
0.207633
0.107585
0.044873
-0.075370
-0.026733
-0.131690
0.082378
-0.002538
-0.046481
0.043467
-0.106061
0.061492
-0.052728
-0.060848
-0.114505
-0.152604
-0.146670
-0.306932
0.024454
-0.051744
0.115890
0.095831
0.183184
0.028146
-0.087201
-0.077522
-0.172167
0.187574
0.095512
0.121599
-0.054057
0.044936
-0.138215
-0.043266
-0.049766
-0.108322
0.078847
0.030405
-0.039855
-0.157586
0.058813
-0.302781
0.068259
-0.122284
-0.144530
0.075033
0.043507
-0.007241
0.069370
0.108396
0.025033
-0.051687
-0.029349
-0.169290
0.059937
-0.027015
0.032317
0.020537
0.014768
-0.177255
-0.068488
-0.059116
-0.038829
-0.024949
-0.022720
0.091682
0.002348
0.072298
-0.076166
-0.055387
-0.136756
-0.198127
0.145052
0.049048
-0.016021
-0.126276
0.091180
-0.188103
0.068328
-0.095763
-0.043711
0.053079
0.053068
0.085502
-0.060799
-0.029136
-0.159519
0.120732
-0.051589
0.035486
0.159499
-0.062878
0.059586
-0.065732
0.036130
-0.052776
0.077063
0.057386
-0.044046
-0.039850
0.106934
0.127349
-0.042747
0.195567
-0.115032
0.058519
-0.140844
-0.000315
0.320990
0.012479
0.037940
-0.106172
0.083696
-0.075826
0.000447
-0.164627
-0.003000
0.131323
-0.122138
0.152476
0.067765
0.067365
0.020329
-0.149466
-0.016245
-0.237327
0.090399
0.029563
0.038630
0.048521
0.140416
-0.074881
-0.066002
-0.015811
0.043066
0.155162
0.043770
0.039814
-0.077678
0.089784
-0.016907
-0.039375
-0.104389
0.037796
0.043924
0.028857
-0.016272
-0.025108
0.088102
-0.057236
-0.036485
-0.009432
-0.036160
0.046626
0.035444
0.074559
-0.005052
-0.025166
-0.053942
0.038440
-0.143656
-0.005034
0.021771
0.093908
0.019206
-0.144958
-0.119613
-0.119775
0.022185
-0.068281
-0.006431
0.072480
0.081189
0.008772
-0.059154
0.024469
-0.045369
-0.066901
-0.062280
-0.169439
0.044520
0.037331
0.102031
-0.188386
0.078822
-0.167630
0.064942
-0.107824
0.042194
0.119813
-0.064074
0.021548
0.067637
0.126699
0.091184
-0.015565
-0.027631
-0.146752
0.064638
0.077021
0.025817
-0.035665
0.152161
-0.124971
-0.037601
0.090418
-0.026485
0.071012
-0.023202
0.010718
-0.034194
0.102527
0.050593
-0.060105
0.069533
-0.222181
0.028511
0.182448
0.096763
0.062426
0.112508
0.190750
0.037436
-0.225600
-0.154039
-0.040351
-0.039470
-0.048233
-0.042350
0.160504
-0.020172
0.006807
-0.048813
-0.010439
0.043781
0.034858
-0.064598
-0.143240
0.003997
0.056818
0.009108
-0.013073
-0.061551
0.076080
-0.054846
0.039579
-0.104466
0.047545
0.106070
-0.025620
-0.038876
0.005173
0.047036
-0.103355
-0.043938
-0.074830
0.031148
0.078150
0.025722
-0.108628
-0.019471
-0.029759
-0.060362
-0.058702
-0.157781
0.111171
0.008706
0.075876
0.069190
-0.090079
0.002473
0.162421
0.018056
-0.026120
0.106719
-0.007987
-0.182844
0.201709
0.028807
-0.035981
0.015043
-0.163315
0.004392
0.132256
0.003503
-0.078700
0.180815
0.127939
0.064059
-0.054189
-0.026884
-0.091337
0.089165
-0.037812
0.026938
-0.086211
-0.060788
0.034092
0.027928
0.041545
0.102244
-0.045746
0.036591
-0.057926
0.163765
0.198558
0.258353
0.081712
-0.181080
-0.036916
0.026672
0.046758
-0.060416
0.080617
0.092781
0.058916
-0.103214
-0.060467
-0.034898
0.017806
0.064266
-0.010603
-0.109480
0.009456
-0.072959
0.089329
0.071578
0.104639
0.204072
0.136794
0.091175
-0.228111
-0.096776
-0.088026
-0.089983
-0.141253
-0.079210
-0.017389
0.005133
-0.022072
0.041721
-0.019300
0.028776
-0.040477
0.017603
-0.133226
0.096457
0.025795
-0.036921
-0.054535
-0.070004
-0.009970
-0.072912
-0.123591
-0.047946
-0.056385
0.099355
-0.000029
-0.003164
0.125123
0.064997
0.007932
-0.105756
0.023396
0.098799
0.115309
0.026538
-0.056309
-0.091724
-0.012892
-0.042673
-0.024697
-0.146069
0.012548
-0.043199
0.061730
-0.095330
0.024264
0.009365
-0.042716
0.019044
-0.028375
0.112115
0.104383
0.004945
-0.122838
0.013437
-0.027460
0.019064
-0.115819
-0.010511
0.081947
0.024951
-0.148293
-0.080297
0.000701
0.047781
-0.036847
-0.160097
-0.065790
-0.073341
-0.072350
-0.106340
0.035425
0.098388
0.032688
0.166579
0.007549
0.033894
0.137134
0.038959
-0.139863
0.168105
0.077238
0.072223
-0.062930
-0.037758
-0.001822
0.114670
0.054933
0.055200
0.002572
-0.042462
0.084850
-0.095211
-0.133134
-0.137998
0.012753
-0.062082
-0.016830
-0.008217
0.033442
0.052979
-0.076971
-0.162459
-0.094797
-0.040360
0.046248
-0.060043
0.066255
-0.007193
-0.060685
-0.035078
-0.067771
-0.044029
0.050296
-0.040442
-0.006358
0.049598
0.023993
0.043428
-0.187550
-0.185675
-0.185406
-0.060411
-0.026807
-0.016391
0.100974
0.028925
-0.005488
-0.048602
-0.102159
-0.137171
-0.041373
0.104789
-0.034476
0.060726
0.029586
-0.021521
0.029813
0.124649
-0.063941
0.213466
0.125830
0.044947
-0.144409
-0.106101
-0.032167
0.028070
-0.005681
-0.158579
-0.005053
-0.051563
0.019247
-0.048042
0.016482
-0.013368
-0.108730
-0.113030
-0.110676
-0.024138
-0.004959
0.091506
-0.075237
-0.011336
0.036179
0.083031
-0.023925
-0.089631
0.142310
0.039477
-0.132530
0.097944
0.048491
0.050026
-0.026920
-0.048374
-0.308330
0.009334
0.142015
0.081704
0.208203
0.297179
0.142427
0.033820
-0.028276
-0.095986
0.026696
-0.119243
-0.004462
0.134266
0.097430
0.093314
-0.011325
0.138354
0.018287
0.057940
-0.115871
-0.126490
-0.116234
0.024861
0.109966
0.034863
0.098822
-0.078651
-0.178902
-0.079581
-0.015014
0.120856
0.102924
0.050629
0.022471
0.090809
0.008853
-0.216958
-0.023058
-0.101687
-0.037844
-0.016295
0.008562
0.009061
0.101819
0.156895
-0.006126
-0.023528
-0.129508
-0.200743
-0.014793
-0.018570
0.146382
0.137865
0.162892
0.188217
0.196272
-0.074496
-0.152618
-0.334904
-0.203229
0.048064
0.172318
0.069347
0.204158
0.178475
-0.099148
-0.161724
-0.113016
-0.151888
0.022776
0.043937
-0.053851
-0.111022
-0.045838
-0.136931
0.049573
0.084920
0.028284
0.134700
-0.002807
0.022428
0.262564
0.068425
-0.202465
-0.221228
-0.418450
-0.141635
0.189961
0.163144
0.093895
0.118768
0.008500
-0.200955
-0.105606
-0.036808
0.076945
0.063666
0.082009
-0.036555
-0.101668
-0.194441
-0.059090
-0.073975
0.061573
0.004285
0.046160
-0.144939
-0.234141
0.029174
0.142561
-0.015945
0.151733
0.163673
0.071492
0.081853
0.079842
0.080724
-0.014151
-0.081892
-0.125588
-0.109485
-0.081837
0.066529
0.030181
0.059462
-0.020811
-0.163956
-0.185014
-0.121652
0.042897
0.065427
0.063401
0.048961
0.087047
0.042046
0.006872
-0.101905
-0.187484
-0.129685
-0.171860
-0.123089
0.050450
-0.002352
-0.081966
-0.148284
-0.040880
-0.126291
0.042762
0.041498
0.051269
0.090121
0.067079
-0.080612
-0.201874
-0.152968
0.023075
-0.000948
0.001403
0.011364
0.089613
0.132716
-0.087065
-0.111642
-0.066927
-0.042296
-0.081436
0.079272
0.107635
0.192230
0.162263
0.087377
-0.020093
-0.083284
-0.037111
-0.141665
0.056095
-0.017031
0.149756
0.048693
0.041541
0.031055
-0.166231
-0.136129
-0.034975
-0.167764
-0.057251
0.260752
0.150500
0.205246
0.312214
0.177734
-0.097796
-0.258557
-0.314565
-0.104744
0.096367
0.083964
-0.037683
-0.066663
-0.073876
-0.083298
-0.032663
0.073693
0.100152
0.134813
0.062853
0.037284
-0.069020
-0.175726
-0.098822
0.064784
-0.036167
0.088726
0.089275
0.142648
0.130697
-0.083329
-0.058388
-0.155209
-0.081372
-0.005220
0.064349
0.014875
0.030264
0.078610
-0.052515
-0.060363
-0.170391
-0.046689
-0.090031
0.124983
0.047849
0.122702
-0.043456
-0.057854
-0.038656
-0.081704
-0.045759
-0.047037
0.086143
0.085458
0.085117
0.076568
0.043953
0.005481
-0.152463
-0.005252
-0.042476
0.072115
0.116998
-0.115962
-0.123526
-0.027998
0.004398
0.101978
0.199820
0.138047
0.027292
0.036647
0.010686
0.089118
-0.042909
-0.127761
-0.144832
-0.118464
-0.077873
-0.037927
0.115711
0.046678
-0.053018
-0.104952
-0.151065
-0.063670
0.043643
0.026323
0.007241
0.036000
0.111247
0.168985
0.201414
0.182250
-0.128028
-0.205548
-0.278543
-0.110076
0.083549
-0.251841
-0.265074
-0.074111
-0.125975
-0.222078
-0.106407
-0.259002
-0.181944
0.066611
0.060188
-0.054669
-0.153856
-0.045451
0.024868
-0.160482
-0.138709
0.159697
-0.010093
-0.048213
0.053765
-0.009058
-0.009529
0.063517
-0.122412
-0.020098
0.033306
-0.033520
0.007746
0.057674
-0.141645
0.090419
0.023697
-0.155427
0.038379
-0.007990
-0.064688
0.067857
0.011779
-0.012340
0.119556
-0.037848
-0.072908
0.150674
0.068837
-0.056591
-0.020969
0.025097
-0.071985
-0.076270
0.099843
-0.129492
0.025058
0.006764
-0.166571
-0.220598
-0.177986
-0.006356
-0.240382
-0.257195
-0.009936
-0.222490
-0.232398
-0.055453
-0.200332
0.180642
0.061142
-0.074150
0.009942
-0.143092
-0.179407
-0.089759
-0.085566
0.091807
0.017723
-0.123981
0.076329
0.028548
-0.038867
-0.019907
0.124925
-0.055670
-0.132560
-0.064394
-0.033236
0.038873
-0.183823
0.014663
0.002790
0.087024
-0.097022
-0.050203
-0.006091
-0.029233
-0.097797
-0.049203
-0.187785
-0.148178
-0.117829
0.001202
0.054466
0.127369
-0.083553
0.110080
-0.030287
0.016522
0.072676
0.011483
0.035354
-0.264157
-0.249011
-0.146187
-0.277244
-0.109447
-0.117128
-0.307202
-0.181717
-0.123655
0.092005
0.075308
-0.070558
-0.025164
0.178141
-0.197527
0.112322
0.065074
-0.057823
0.103177
-0.023541
-0.064481
0.117026
0.024547
-0.148477
0.026564
0.140934
-0.103190
0.157751
0.035480
0.003600
0.093114
-0.065512
-0.064795
0.109324
0.077012
-0.029385
0.094709
0.009423
-0.063054
-0.010058
0.026552
0.006194
0.121838
-0.067762
-0.045015
0.033788
0.111205
0.052284
0.002160
-0.051131
-0.036421
0.085037
0.034125
0.041812
0.044756
0.032332
-0.119815
0.051852
0.090340
-0.103822
0.014381
0.007008
0.012513
-0.052096
0.024728
-0.109951
0.083728
-0.031622
-0.114111
0.072135
-0.017665
-0.088189
0.068169
0.034275
-0.110612
0.122836
0.060721
0.050433
0.181384
0.040566
-0.095659
-0.300468
-0.396793
0.026149
-0.342075
-0.379616
-0.176138
-0.324626
-0.328333
-0.043325
-0.147855
0.100305
-0.004654
-0.102597
0.007498
-0.139367
-0.039666
0.039950
-0.043818
0.055959
0.124495
-0.004231
0.078280
0.043931
-0.048203
0.119114
-0.086400
-0.108148
0.091661
0.030726
-0.046098
-0.006586
0.124637
-0.143595
0.034227
0.113306
0.024695
0.012268
0.043961
-0.061528
0.010861
0.100216
0.043626
0.179147
-0.010317
-0.045425
0.118693
-0.005548
0.063226
0.170747
-0.047493
0.133697
0.183084
-0.035187
-0.107704
-0.050711
0.094031
-0.050851
0.058838
0.058054
-0.086168
0.162056
0.147480
-0.036372
-0.161674
-0.095931
-0.207367
-0.177987
-0.157301
-0.180039
-0.242482
-0.020150
0.013396
-0.025243
-0.005905
-0.101127
0.100601
0.102670
-0.056428
0.012895
0.011572
-0.063587
-0.041536
0.152498
0.015697
0.078193
0.150171
-0.118720
0.031181
0.058156
-0.188988
-0.127900
-0.087305
0.067207
-0.167513
-0.136267
-0.140005
-0.149008
-0.125635
0.085806
0.060913
0.039175
-0.170555
-0.147895
-0.055367
-0.141157
-0.053131
0.094164
-0.035475
0.106899
0.008496
0.006808
0.030187
0.043826
-0.140615
0.003558
0.105043
0.085724
-0.018605
0.024667
0.049865
0.038607
-0.093595
-0.001766
0.037226
0.043020
0.036675
0.029178
-0.088627
-0.112630
0.004218
-0.052849
-0.025481
-0.011508
-0.038284
0.041092
-0.069783
-0.075264
-0.009241
0.009168
-0.067452
-0.042480
-0.075458
0.078925
-0.089505
-0.023457
0.071149
-0.121553
-0.066528
-0.075556
-0.069167
-0.030944
-0.087714
-0.029058
-0.062833
0.079656
0.005521
-0.036422
-0.055252
-0.055793
0.005128
-0.028126
-0.028784
-0.013999
0.051608
-0.133527
-0.102313
-0.020787
-0.006563
0.053750
-0.134430
0.037849
-0.001461
-0.000390
0.002390
0.059794
0.008896
-0.012104
-0.052226
0.074770
-0.032732
-0.020846
0.079931
0.178063
0.084792
0.078711
0.125311
0.278995
-0.082698
0.015188
0.023763
0.073921
-0.101589
0.051850
-0.104666
0.060420
0.085195
-0.076011
0.009239
0.018075
-0.109677
0.028437
0.071753
-0.135593
0.068528
0.025306
-0.081331
0.089210
0.186677
-0.014988
-0.116630
0.041671
0.144318
-0.097699
-0.046717
0.182181
0.031845
0.006805
-0.017206
0.032619
0.126737
-0.043097
-0.122671
0.071646
0.099414
0.094961
-0.033790
-0.083226
0.102316
0.090983
0.000731
0.043191
0.052644
0.061255
0.044278
0.019466
0.003246
0.050489
0.097386
-0.024582
-0.073570
0.119035
-0.039296
0.043116
0.082361
-0.095822
-0.078266
-0.065437
-0.010453
0.042388
-0.019771
0.019818
0.064152
-0.062600
-0.060930
-0.058915
-0.073489
0.010766
0.037803
0.035438
0.048412
0.084250
-0.036210
-0.123991
-0.048157
0.032286
-0.055013
0.020020
0.084620
0.012741
-0.121462
0.026197
0.064479
-0.045964
-0.118093
-0.042555
-0.097567
0.004855
-0.045194
-0.011541
0.026872
0.046599
0.001004
0.103851
-0.029770
0.058691
0.057420
-0.027403
-0.184415
-0.130588
-0.020743
-0.089865
-0.141218
0.018304
0.065871
0.075594
-0.137511
-0.036246
0.051439
0.080783
-0.142120
-0.070092
-0.066077
-0.064294
0.025621
0.053507
0.030976
0.045137
-0.086651
-0.018188
-0.093034
-0.056863
-0.006516
-0.025973
-0.033393
-0.059114
-0.041464
-0.133329
0.004723
-0.027438
-0.136962
-0.031986
-0.038214
0.027386
0.039555
-0.062111
-0.130185
0.063677
-0.003933
-0.051797
0.082318
0.033744
0.027462
0.041329
0.038053
-0.066120
0.059365
0.163278
0.015463
0.002776
0.053864
0.094524
-0.042927
-0.008223
-0.169051
-0.058866
0.121457
0.007040
0.038682
0.114562
0.077432
-0.083360
0.091628
-0.026427
-0.201012
-0.028732
-0.058838
-0.096150
-0.118998
0.054728
-0.034957
-0.047769
-0.108830
-0.046658
0.069023
0.052569
-0.089412
0.081464
-0.021831
0.062135
0.043461
-0.075109
-0.046552
0.036320
-0.011919
0.021551
0.035145
-0.016935
0.003583
-0.042100
0.066265
-0.011762
-0.039475
-0.116415
-0.013958
0.009312
-0.018531
-0.046705
-0.219797
-0.121928
-0.243597
-0.306366
-0.021944
-0.318364
-0.279893
-0.221324
-0.031972
0.003470
0.087057
-0.100401
-0.072787
-0.004746
-0.194344
-0.166415
-0.115669
0.088925
0.053376
0.074552
0.031610
0.050074
0.020280
0.009992
-0.007024
-0.038007
0.011165
0.009194
0.024565
0.047258
-0.037677
-0.060628
0.032080
-0.025802
-0.031857
0.007774
0.048794
-0.062197
0.000263
-0.019172
-0.003108
-0.076068
-0.012656
-0.123848
-0.033179
0.052109
0.094246
0.018019
-0.057053
0.047432
0.009138
0.081147
-0.043610
-0.195683
-0.098426
-0.033451
-0.133483
-0.058397
0.020258
0.042401
0.046557
0.138612
-0.026471
0.080757
0.041471
-0.020151
-0.046412
0.027305
0.099875
0.111565
0.144331
0.055823
-0.030660
0.074811
-0.046367
-0.018968
0.012512
0.008835
-0.079054
-0.016541
-0.299652
-0.184139
-0.129302
-0.110569
-0.144411
0.010459
-0.022697
0.000384
0.102768
-0.017236
-0.049732
0.039331
-0.039195
0.018145
0.085840
0.064464
0.058324
0.120662
-0.052791
0.009637
-0.086490
-0.011526
-0.013250
-0.033118
0.027837
-0.089061
-0.115276
-0.027433
-0.055936
-0.079204
-0.149492
-0.086614
-0.057620
-0.329332
-0.269034
-0.221478
0.030608
0.044375
-0.014331
-0.035270
0.085273
-0.068948
-0.013313
-0.003507
-0.073286
0.040291
0.001931
-0.029886
-0.051331
0.007164
0.111280
-0.044397
-0.039604
-0.001642
-0.037720
-0.000196
-0.052215
0.042156
-0.072771
0.054381
-0.096894
-0.106899
-0.053813
0.071208
0.092820
-0.030769
0.101238
-0.002177
0.042448
0.067319
0.037216
0.023589
0.073561
-0.040324
0.045771
0.090038
-0.015100
0.031748
-0.065341
-0.019843
-0.041421
0.105057
0.042845
0.047599
0.122706
0.049753
0.025834
0.054051
-0.073474
-0.026134
-0.078952
-0.153775
-0.180582
-0.015901
-0.078388
0.019022
-0.066450
0.045834
-0.035023
-0.083319
-0.060733
-0.106072
-0.096627
0.029513
0.041908
0.014102
-0.037327
0.012439
-0.318213
-0.128267
-0.198257
0.009710
-0.027084
-0.012915
-0.018002
0.083185
0.227283
-0.015193
-0.081384
0.030528
0.082234
0.060014
0.011681
0.013211
-0.058262
0.000789
-0.004038
0.034985
-0.087622
0.057157
0.085390
0.045368
0.020047
-0.085514
-0.044403
0.037769
0.018692
0.065338
0.069431
0.101696
0.049749
-0.042413
-0.012130
-0.001968
0.038914
0.024740
-0.043111
-0.067801
0.032723
0.070738
-0.011396
-0.003676
-0.071806
-0.147072
-0.123488
-0.020011
-0.006008
-0.111899
0.090169
-0.149504
0.031713
-0.043228
0.001988
0.062114
0.004520
-0.058542
0.036931
-0.056688
-0.073940
-0.096337
-0.065530
0.009881
-0.073017
0.006105
-0.112904
-0.076350
-0.018769
-0.145871
-0.167142
-0.154522
0.045811
0.094344
0.058914
0.062642
0.086400
-0.061812
-0.008932
0.013783
0.066330
0.114104
-0.063415
-0.024327
0.096891
0.081321
0.071278
0.085564
0.003736
0.043895
-0.137597
-0.051983
-0.010380
0.092241
0.043190
-0.032239
-0.045147
-0.032719
0.042694
0.002402
-0.113716
-0.233372
-0.104583
-0.178160
-0.151775
-0.225731
-0.036793
-0.029733
-0.055108
0.058011
-0.032317
0.081642
0.096833
-0.042623
0.010888
-0.091628
-0.069380
0.046952
-0.004457
-0.014875
0.055026
0.019033
-0.190745
0.128306
-0.137820
-0.085692
0.147148
0.090627
-0.111119
0.111218
-0.194329
0.029688
-0.025361
-0.040182
0.023717
0.142896
-0.118214
-0.108566
0.062724
-0.211623
0.004089
-0.089648
-0.000841
0.095822
0.106753
0.161581
-0.033049
0.174526
0.084538
-0.161606
0.108857
-0.139105
-0.068099
-0.141362
-0.045697
-0.091166
0.075138
0.027588
-0.214153
0.118748
-0.115944
-0.030116
0.077703
0.019036
-0.163706
0.152493
0.122306
-0.068104
0.084864
-0.106919
-0.129806
0.118768
0.004714
-0.084266
0.150677
-0.073384
-0.037382
-0.044983
-0.159033
0.020336
-0.092166
-0.062979
-0.153878
-0.202062
-0.184466
-0.005361
-0.171228
-0.231509
0.024567
-0.048530
0.053454
-0.139312
0.100676
-0.044671
-0.103444
0.078239
-0.238059
-0.126433
0.158458
0.063575
0.016530
0.080643
-0.205117
-0.002261
-0.037811
-0.028407
0.132752
0.019711
-0.126731
-0.237497
-0.084817
-0.279523
-0.104988
-0.278599
-0.012875
-0.079753
0.137547
0.095556
-0.155694
0.167356
0.070209
-0.136776
0.097364
-0.079992
-0.069030
0.014238
-0.104036
-0.106281
0.121321
-0.078165
0.037813
-0.063467
-0.110500
0.097484
0.030474
-0.052554
-0.083174
-0.080165
-0.184616
-0.010565
-0.129183
-0.102071
0.009033
0.140722
-0.125369
-0.102935
0.034686
-0.183035
0.004206
0.019927
-0.109036
0.055344
0.066639
-0.103866
-0.034802
0.040390
-0.201959
0.108475
-0.118018
0.002379
0.063710
0.030915
0.072485
-0.160662
0.029222
-0.033594
-0.008706
0.001577
-0.121086
0.010806
0.193974
0.089915
-0.176164
0.315615
-0.183549
0.159407
-0.070143
-0.173830
0.002512
0.209384
0.076102
-0.159593
0.077155
-0.188457
0.062628
-0.051847
-0.156041
0.143481
-0.113625
-0.011273
-0.118487
-0.060307
-0.104676
-0.041373
-0.048670
-0.197405
-0.091189
0.103674
-0.007318
-0.133345
0.203001
0.051918
-0.021790
0.076890
-0.063213
-0.032281
0.193323
-0.066754
-0.086918
0.062434
-0.301457
0.080588
0.013998
-0.000577
0.118513
0.097750
-0.017636
-0.161651
0.201476
0.005552
-0.069088
0.049185
-0.224079
-0.047629
0.163912
-0.061219
0.009666
0.102786
-0.133934
0.086728
-0.042237
-0.011901
0.087411
-0.008651
-0.108856
0.044803
-0.045628
-0.094471
0.009460
-0.090035
-0.033709
0.066009
0.102812
-0.067070
-0.081966
0.033475
-0.117583
-0.023910
-0.012266
-0.056750
0.066374
0.000029
-0.053449
-0.110283
0.047128
-0.177488
-0.062928
-0.176759
-0.095616
-0.026812
0.048853
0.027413
-0.076763
0.048579
0.017081
-0.210220
0.090107
-0.089482
0.048380
0.075904
0.130083
-0.143526
0.153897
-0.073728
-0.155696
0.013463
-0.144617
0.093049
-0.070640
0.086103
-0.017103
0.192617
0.054303
-0.203091
0.096628
-0.130926
-0.116080
-0.085186
-0.119552
-0.040675
-0.095056
-0.176763
-0.071750
0.058164
-0.118310
-0.100352
-0.058705
-0.064317
-0.017383
-0.023770
-0.076953
0.096952
-0.144683
-0.159653
-0.020835
0.051646
0.011029
-0.049481
0.016875
0.067301
-0.024212
-0.064719
-0.035645
-0.002224
0.064600
-0.008369
0.093801
-0.042719
-0.034901
0.040899
-0.138371
-0.088661
-0.057616
0.030773
0.006494
0.046308
0.019687
0.033710
0.030377
0.003904
-0.024148
-0.003243
0.004768
-0.034292
0.115861
0.017154
-0.069703
-0.107828
-0.002109
-0.048102
-0.024682
-0.089822
-0.171126
-0.033345
0.037405
-0.042645
-0.010838
0.005550
0.127779
0.179524
0.024682
-0.077921
0.026531
0.055243
-0.056878
-0.048659
0.054862
-0.014261
0.052635
0.016471
0.058967
-0.007935
-0.015802
0.027947
-0.033241
-0.016979
-0.073573
-0.018900
-0.091266
-0.200221
-0.004013
-0.022888
0.095815
0.005274
-0.014947
0.041763
0.214958
-0.042384
0.035133
0.020984
-0.007667
-0.070260
0.034824
0.089454
0.057977
0.010294
-0.016325
0.063125
-0.002585
-0.058608
-0.035336
0.027629
-0.032465
-0.095947
-0.083345
-0.022983
-0.080649
-0.094035
-0.184581
-0.103871
0.152871
-0.015331
-0.080729
-0.066666
0.050713
0.071069
0.052350
-0.024275
0.054988
0.072473
-0.142516
-0.091170
0.035224
-0.060463
-0.007725
-0.118761
0.053946
-0.006403
0.061052
-0.124122
0.045222
0.065553
-0.067479
0.029411
-0.191752
-0.015966
-0.023257
-0.075044
-0.072914
-0.029038
0.118144
0.083931
0.083684
-0.034233
0.031741
0.014860
0.022776
-0.087106
-0.099969
-0.010983
-0.065200
-0.035429
-0.027444
0.049430
-0.028828
-0.052224
-0.017823
-0.128692
0.072285
-0.064793
-0.037121
-0.010459
0.000925
0.007185
-0.019039
-0.017681
0.013580
0.037895
-0.051718
0.089245
0.087450
-0.032720
-0.014787
0.011531
0.063631
0.084641
-0.012472
-0.042610
0.076549
0.004936
-0.001308
-0.034700
-0.109955
-0.003520
0.025858
0.039772
-0.156773
-0.219828
0.111825
-0.032381
-0.050687
-0.070785
0.089475
0.115113
0.250862
-0.030542
-0.002301
0.109941
0.040984
-0.007115
0.079510
-0.095989
0.020337
-0.042223
0.018211
0.063560
-0.079226
-0.010171
-0.085622
-0.090059
-0.034928
-0.025204
-0.050241
0.002568
0.016348
-0.016584
-0.045659
0.083272
0.038034
-0.112105
0.016646
0.073855
0.078170
-0.079342
-0.018856
-0.039388
-0.042465
-0.030126
0.030930
0.044622
-0.023221
0.002790
-0.085883
-0.179825
0.079588
-0.016201
-0.043705
-0.092510
0.032402
0.078282
0.055392
-0.028445
-0.052571
0.042546
0.011530
0.061218
-0.139722
-0.077891
0.046096
-0.076599
0.045041
0.034981
-0.100106
-0.005654
0.082430
-0.134357
-0.040091
0.029147
0.022359
0.064217
0.024529
-0.031056
-0.015423
-0.044552
-0.059465
-0.004544
0.009412
-0.048666
0.090318
0.096513
0.042224
0.027044
-0.046936
-0.037388
-0.095710
-0.041857
0.010947
-0.019104
-0.075066
0.020747
-0.044353
-0.096459
0.073604
0.080272
0.147096
0.112739
-0.055796
-0.208617
-0.111213
-0.156483
-0.147104
0.043540
-0.005762
-0.068328
-0.011198
-0.062807
-0.079481
0.097850
-0.020249
-0.029108
0.042461
-0.092908
-0.062013
-0.059713
-0.008620
-0.054361
-0.014383
0.088280
-0.062467
0.028813
-0.029245
0.069930
-0.058908
0.080042
0.002357
-0.010796
0.070757
-0.049085
-0.059789
0.082357
-0.062783
0.013726
-0.056932
0.021690
-0.015492
0.025368
0.019262
0.014041
0.015933
0.065548
0.080271
-0.011605
-0.111218
0.025954
0.018677
0.001218
0.020607
-0.104711
0.027307
-0.008383
-0.092741
-0.146483
-0.066480
-0.041048
-0.160993
0.020640
0.046789
-0.087577
-0.095283
-0.128426
-0.103890
-0.080065
-0.077560
-0.108636
0.015648
0.005804
0.006575
-0.038270
0.013501
-0.037499
0.020080
0.061945
0.067707
0.061703
0.038022
0.120450
-0.000814
0.089236
-0.020046
-0.013990
-0.088269
-0.041794
-0.044045
-0.126722
-0.168087
0.034624
-0.089733
0.046539
0.035757
0.010803
0.064174
-0.013698
0.044014
-0.011358
0.036832
0.043092
-0.034217
0.027124
-0.081001
0.057187
0.000937
-0.003256
-0.036180
-0.053527
-0.116929
-0.075113
-0.125779
-0.197559
-0.076067
-0.034441
-0.085743
-0.002912
0.106100
-0.056432
0.084996
0.060587
-0.072833
-0.003680
-0.053918
0.089188
0.061666
-0.066301
0.061121
0.017944
0.075307
0.067757
-0.045123
-0.041976
0.044378
0.068566
-0.035758
-0.023470
0.018241
-0.040754
-0.079873
-0.025761
-0.025629
0.034341
-0.033363
0.056226
0.015339
0.022742
-0.034218
0.035327
-0.033065
0.016089
-0.040916
0.046367
0.028177
0.032324
0.028502
0.004384
-0.066177
0.098141
-0.033331
0.009239
0.088728
-0.041603
0.013675
0.096448
0.010520
0.011702
0.069180
0.023674
0.114086
-0.002070
-0.057274
0.038704
-0.069400
-0.042152
-0.044015
-0.041121
-0.078982
-0.089452
0.060180
-0.032718
0.021005
0.055084
-0.034168
-0.017346
-0.106706
-0.044669
-0.082554
-0.053608
-0.079076
-0.126049
-0.095694
-0.108672
-0.035886
-0.218427
0.125800
-0.096838
-0.168050
-0.021728
-0.086078
-0.026818
0.040364
-0.020086
-0.041342
0.077882
0.023853
-0.000577
0.052855
0.094406
0.004440
-0.077559
0.009586
0.006668
0.080282
-0.027143
0.079073
0.072868
-0.028293
-0.035577
0.071365
-0.027119
0.052156
0.015441
-0.038550
0.103949
-0.011939
0.070578
-0.044883
0.043584
0.072945
-0.044940
0.071116
-0.054596
0.052300
0.002544
-0.021836
0.020644
0.003497
-0.018417
-0.082487
-0.008497
-0.032448
-0.023718
0.047866
0.007273
0.067407
0.079529
-0.017300
0.033801
0.064886
0.000065
0.098885
-0.058314
-0.061288
-0.042158
0.001125
-0.018715
-0.025623
0.052938
0.057942
-0.030403
0.037180
0.041995
0.055687
0.058960
-0.059390
-0.046930
0.028419
0.053342
0.061346
0.036931
0.018408
0.078757
-0.021616
0.025331
0.073473
0.085211
0.054622
-0.059839
-0.079732
-0.008588
-0.157294
-0.034212
-0.017430
-0.068945
0.086121
0.058599
-0.018316
-0.001365
-0.076078
-0.008988
-0.070961
-0.150556
-0.076517
0.014232
-0.069583
-0.036142
0.001005
0.056054
0.024206
-0.098469
-0.031435
0.013988
-0.023369
-0.211524
-0.087985
-0.028687
-0.022536
0.002006
-0.085285
0.038284
0.082172
-0.078135
0.088531
-0.055330
-0.074733
0.083202
0.016078
-0.030197
0.016113
0.027030
-0.101253
0.013377
-0.055898
-0.007891
0.085838
-0.042726
-0.023286
-0.000954
-0.015741
0.087977
0.052767
0.056133
-0.025363
0.020771
-0.059667
0.001380
-0.067369
-0.040206
0.018582
-0.002816
-0.006407
-0.025641
0.010275
0.027746
-0.032373
-0.027665
-0.121715
0.091604
0.105341
0.063915
-0.069070
-0.016749
0.045332
-0.099689
-0.084135
-0.002605
0.094259
-0.086808
-0.018754
0.086984
-0.004440
0.038650
0.016030
0.023344
0.048887
-0.063845
0.012800
0.065524
-0.053953
0.001451
-0.048085
-0.013781
-0.036672
-0.039197
-0.006569
-0.003456
0.031082
0.044954
-0.010232
0.069042
-0.043476
0.079337
0.052509
0.067655
0.111701
0.063340
-0.076780
-0.034151
0.058584
-0.003776
0.052624
-0.109390
0.074276
-0.099577
-0.091227
-0.053961
-0.156163
-0.198725
-0.070721
-0.220233
-0.098688
0.038995
0.069750
-0.027984
0.012033
0.079528
0.042675
0.011279
0.014259
0.069097
-0.095135
0.038678
-0.045317
-0.062553
-0.016767
0.067796
-0.005337
0.067914
0.103193
0.038788
-0.006347
-0.042130
0.031289
0.111716
-0.029523
0.055271
0.009026
-0.016271
-0.062380
0.043717
0.077084
0.074316
0.004566
0.026831
0.048474
-0.025835
0.026093
0.079583
0.027513
-0.005944
0.061906
-0.019447
-0.036197
0.006325
-0.061086
0.048743
-0.032386
-0.005659
-0.014752
0.054915
0.049938
0.059542
-0.019629
0.035923
0.087477
-0.041299
-0.026898
0.018785
0.068312
-0.085353
0.023019
0.022724
-0.063699
-0.170856
0.075256
-0.057763
-0.073894
-0.003035
0.011892
-0.068013
-0.024081
-0.038638
0.030358
-0.067733
0.031059
0.028575
-0.061394
-0.134676
-0.051462
-0.161241
-0.043856
-0.038327
0.111642
-0.025512
0.044316
0.004640
0.079801
0.056093
-0.009438
0.005746
-0.074032
-0.053247
-0.075484
-0.088423
-0.004073
0.053856
0.026024
-0.060899
-0.053708
-0.111417
-0.055445
0.040802
-0.032297
0.010913
0.026315
0.022165
0.071523
-0.058361
0.089839
-0.004075
0.004203
0.033608
0.011170
0.076967
-0.044003
0.000043
0.016055
-0.017396
-0.062771
0.013279
0.044099
0.114644
0.049383
0.028850
0.004954
-0.022456
-0.038266
0.007242
0.078126
0.060803
0.002161
0.060889
0.052154
-0.050891
0.056004
0.057238
0.017914
-0.022358
0.039077
0.060285
0.085412
0.053147
-0.100005
-0.149662
-0.032344
0.054911
-0.023316
0.089244
0.088167
0.006239
0.103619
-0.014569
-0.001964
0.074308
-0.078793
-0.013096
0.073505
0.007697
0.055161
0.010569
-0.099928
-0.045850
-0.014256
-0.090081
-0.104053
0.075060
-0.037450
-0.001909
0.027682
-0.057787
-0.030756
-0.025884
0.048691
0.031791
-0.043270
0.080974
-0.083266
-0.041360
0.015310
0.043105
0.058535
0.048215
0.023785
-0.068405
0.063429
0.002341
0.078078
-0.040331
-0.043653
-0.073079
-0.083345
-0.176154
-0.055091
-0.000879
0.023992
0.092548
0.069450
0.076138
0.021103
0.088925
-0.044997
-0.101382
0.116925
-0.049140
-0.007710
0.048627
-0.068627
-0.068338
-0.027215
-0.039970
-0.110452
-0.003030
-0.022208
0.025389
-0.012453
0.035349
0.019317
-0.051738
-0.048657
-0.059565
0.012059
-0.113368
0.033221
-0.057104
0.014975
0.025917
0.001047
-0.049664
0.058804
-0.082802
-0.017389
-0.132997
-0.052486
-0.075955
0.064352
0.148750
0.260199
0.136221
0.010330
0.014998
-0.034990
0.020548
0.033657
0.087348
0.060685
0.159462
0.139169
0.058829
0.028925
-0.020056
0.028234
0.046492
0.061163
-0.029415
-0.119802
-0.043974
-0.014092
-0.145007
-0.284689
-0.017797
-0.176884
0.000357
-0.029845
0.142178
0.146616
-0.033421
-0.061241
-0.060698
-0.005919
-0.041559
-0.003190
0.070601
0.122168
0.074461
0.055456
-0.042235
0.079441
0.068254
0.075215
0.056308
-0.049573
-0.067515
-0.068408
0.040640
0.023642
0.041655
-0.104009
-0.057476
0.068179
-0.030148
-0.011365
-0.079776
-0.083187
-0.053652
0.014866
0.055183
0.051256
0.026315
-0.019143
-0.126425
-0.034121
-0.019085
0.059091
0.061071
0.001358
0.054996
0.047882
-0.034054
-0.047663
-0.071435
0.046574
-0.083528
-0.176336
-0.104344
-0.027296
-0.021054
-0.036248
0.037520
0.091239
-0.024749
-0.015698
0.083294
-0.058786
0.104559
0.011325
-0.014797
-0.126505
-0.059267
-0.020754
0.068283
-0.004622
0.038751
0.023642
0.116349
-0.108120
-0.141695
-0.150232
-0.018781
-0.041036
0.016157
-0.017216
0.077009
-0.017430
-0.101305
-0.035749
-0.145576
-0.030769
0.070444
-0.060917
0.143373
0.115611
0.129825
0.027089
0.037382
0.045011
-0.043216
-0.105129
-0.149236
0.050286
0.070143
-0.039385
-0.025886
-0.100402
0.040423
-0.012113
-0.099534
-0.110319
-0.053755
0.035297
0.025292
0.140819
0.288909
0.304095
-0.015520
0.116731
0.020889
0.073249
0.117500
0.044320
0.057298
0.017085
0.041987
-0.000788
-0.020183
0.006626
-0.053107
0.048601
0.070761
0.014839
-0.141563
-0.066482
-0.068863
-0.060335
0.044532
-0.057132
0.108210
0.089229
0.022022
0.026553
-0.039704
0.028453
-0.021631
0.012089
0.067836
0.084752
0.109978
-0.113903
-0.043552
0.015017
-0.041703
-0.107264
-0.069038
0.019569
-0.026191
0.066987
-0.133692
0.025510
-0.075586
-0.008509
-0.038165
0.038959
-0.047043
0.031890
0.052548
-0.087707
-0.103818
-0.039881
0.058297
0.053491
0.130984
0.031525
0.084148
0.094703
-0.113064
-0.123375
-0.065462
-0.078280
0.022299
-0.048043
0.064211
0.060736
0.094009
0.067104
0.020427
-0.082514
0.010890
0.083083
0.028880
0.075033
-0.030884
-0.006026
0.080597
-0.054924
-0.098269
-0.132698
-0.131266
0.003802
-0.059137
0.028564
0.098331
0.167274
0.050096
0.209828
0.083863
0.001550
-0.131748
0.013208
-0.018885
-0.003388
0.114881
0.002187
-0.185702
0.076499
-0.011634
-0.057545
0.012070
0.070970
-0.068097
-0.041846
0.042144
-0.153769
-0.060524
0.001185
0.009421
-0.055478
-0.002041
-0.027741
-0.049519
-0.048960
0.007490
0.045035
0.061837
-0.039178
0.068634
0.016058
0.011124
0.106108
-0.016995
-0.137442
0.059101
-0.107380
0.041522
-0.090532
-0.055732
0.070020
0.060551
-0.088088
-0.083064
0.012040
0.027581
-0.127017
-0.034733
0.008007
-0.049226
0.042876
0.026667
-0.024690
0.072377
0.046399
0.039712
-0.015224
0.007277
-0.040880
0.053257
0.048927
0.106171
0.024255
0.029372
-0.065004
-0.092755
-0.006893
-0.113031
-0.038824
0.104097
0.082334
0.057753
-0.095067
-0.088453
-0.018961
0.040577
-0.025347
-0.032257
-0.016486
-0.071299
0.086965
-0.072248
0.006287
0.144451
0.064289
-0.053163
0.047629
0.107287
0.099473
0.080818
-0.046148
-0.136012
-0.085420
-0.114363
-0.008634
0.046961
0.043096
0.110830
-0.006334
-0.061309
0.015488
-0.004513
-0.061497
0.001615
0.076135
0.014907
0.053670
-0.075758
0.045504
-0.029252
-0.093022
-0.022226
-0.037127
0.027115
-0.201141
-0.080224
0.062364
0.039107
-0.084899
-0.045754
0.069332
-0.017452
0.088788
-0.048851
-0.000062
-0.021566
0.015194
0.034496
-0.007090
-0.025008
0.044215
0.061571
-0.034655
-0.047171
0.156295
-0.112383
0.020913
0.102351
-0.006479
0.013287
0.071120
-0.034554
-0.006180
0.073226
0.024836
0.042668
-0.034403
0.025381
0.071608
-0.024992
-0.085639
-0.040707
-0.027641
-0.082681
-0.080555
-0.057099
-0.075450
0.070612
-0.022199
-0.047016
-0.066185
-0.087800
-0.072976
-0.032546
-0.089366
0.023302
-0.094394
-0.096882
-0.107781
-0.131330
0.135318
0.033522
-0.067433
-0.034415
0.074953
0.056993
0.163075
0.113762
0.143149
0.026383
0.036049
0.078051
0.095332
-0.021870
-0.052615
0.115409
0.048596
0.054526
0.146470
0.040231
-0.060756
-0.007493
-0.067763
-0.092936
-0.004220
0.166722
0.060135
0.023815
-0.048612
-0.112130
-0.075208
-0.026197
0.049117
0.085871
0.028003
0.020542
0.046314
-0.105461
0.057612
-0.071307
-0.028012
-0.037712
0.066181
0.043294
-0.025420
-0.045460
0.039905
-0.096962
-0.055938
-0.038024
0.018855
0.038888
-0.082029
0.029240
0.023943
-0.078878
0.016336
-0.001613
-0.090371
-0.011087
-0.032388
-0.019149
0.017346
0.159861
0.012687
0.021873
0.148579
-0.076824
-0.059410
0.059802
0.055084
-0.010079
-0.044656
-0.050171
0.053716
0.049819
0.011169
-0.064699
-0.020846
-0.098005
-0.030872
0.038423
-0.013557
0.070459
-0.175249
0.130216
0.008635
0.149634
0.004614
-0.106797
-0.002127
-0.047133
0.012309
0.001314
-0.008790
-0.016493
-0.041690
0.031879
-0.079331
0.073791
-0.025027
-0.014796
0.020721
0.077240
-0.097487
0.042197
-0.102234
-0.018163
0.009079
0.084069
-0.079078
-0.059447
-0.101985
0.022256
-0.066182
0.129434
0.012529
-0.100035
0.114271
0.188545
0.238782
0.130482
0.086721
0.086036
-0.097749
-0.075052
-0.034035
0.010556
-0.139952
0.107732
0.002687
0.059632
0.088928
0.030119
-0.090111
0.003634
0.007516
-0.036623
0.038658
0.024434
0.032885
-0.007820
-0.054877
0.105157
-0.103273
-0.098583
-0.085143
0.017466
-0.059646
-0.025459
0.081921
-0.030441
0.045708
-0.041368
-0.066336
0.026451
-0.039292
-0.009306
-0.082820
0.090976
-0.052799
-0.016361
0.115206
-0.040528
0.016703
-0.054036
-0.093462
-0.096191
-0.028118
-0.055213
0.043573
0.132777
0.112442
0.190999
0.042771
-0.117128
-0.178342
0.035497
-0.073490
-0.022882
0.031679
0.038669
-0.040077
-0.100648
-0.066159
-0.135635
-0.067916
-0.013577
-0.113067
-0.010119
0.042777
-0.045526
0.054987
-0.074952
-0.013773
0.017662
0.001038
0.094667
0.121325
0.213043
0.184304
-0.063819
-0.016271
-0.236064
-0.040925
-0.074729
-0.046120
0.082971
0.028221
0.109485
0.038982
0.031088
-0.060504
-0.042254
0.047217
-0.066328
-0.140105
0.053307
-0.107276
0.039970
0.032406
-0.096700
-0.054009
0.079368
0.018757
0.096830
0.182231
0.008448
0.056554
0.123538
-0.009329
-0.081954
-0.045522
-0.137294
-0.012659
-0.028596
0.027285
-0.087409
0.037919
-0.049961
-0.012055
0.038902
-0.049616
-0.074964
0.005535
-0.011365
-0.052468
-0.069113
0.077691
0.023223
0.057838
0.038059
-0.001053
-0.048350
0.070196
-0.104484
-0.112094
-0.177067
0.051951
0.115508
-0.022800
0.015468
-0.021154
-0.120792
-0.039522
0.062280
0.073715
0.030181
0.033163
0.065357
-0.049820
0.055096
-0.112798
-0.072905
-0.063014
-0.013290
-0.033136
0.037346
-0.052653
-0.070343
0.061653
-0.000694
0.068914
0.046930
-0.033937
0.019907
0.067223
-0.008069
0.000640
0.060768
0.032853
0.025066
-0.082549
-0.163465
0.117638
-0.043192
0.059013
-0.073414
-0.026158
-0.071228
-0.118771
-0.090717
-0.102490
-0.012881
0.034430
0.028598
0.154909
0.233842
0.249828
0.011591
-0.119673
-0.322056
0.045079
-0.111348
-0.118434
-0.027783
0.012131
-0.035371
-0.014204
0.039314
-0.029536
0.064928
-0.037401
0.010082
-0.094658
-0.004904
0.005602
-0.060430
0.012717
-0.004684
0.009674
-0.059575
0.053536
-0.060505
-0.060018
-0.017849
-0.034316
-0.063836
-0.005283
0.063786
-0.026215
0.087824
0.048659
0.050145
-0.004221
-0.025869
0.046814
-0.068836
0.029076
0.019898
0.078553
0.013837
-0.072482
-0.124353
-0.056728
-0.075794
-0.148234
0.062768
-0.018188
-0.048812
-0.005787
0.019109
-0.080811
-0.071440
0.014192
0.075767
-0.063083
0.047901
0.072897
-0.011713
-0.031999
-0.055822
0.075158
0.067703
0.029758
0.033551
-0.031743
0.002239
-0.034826
0.038110
0.038049
-0.047182
0.012985
-0.042050
-0.021997
0.082715
0.020009
-0.043855
0.006417
0.044561
0.037516
-0.026024
-0.080592
0.052050
0.043954
0.020645
0.095018
0.067435
0.006871
-0.100560
-0.060353
-0.056586
0.034671
-0.021087
-0.053430
0.071435
0.096612
0.196797
0.021572
-0.014932
0.031390
0.080546
0.013494
-0.067611
0.006028
0.135216
0.128136
-0.216435
-0.028194
0.069383
-0.122525
-0.100943
0.118276
0.051965
0.098458
0.021109
0.024391
0.043865
0.098304
-0.097138
-0.059646
-0.003245
-0.058688
0.072749
-0.026744
-0.021674
-0.030335
-0.033168
0.016999
-0.056188
-0.058676
0.032868
0.013236
-0.084715
-0.092387
0.056041
-0.052736
-0.129996
-0.085163
-0.004137
-0.066506
0.028915
-0.023339
-0.042034
-0.042748
-0.013766
-0.097507
-0.089509
0.012013
-0.001017
-0.030876
0.008172
0.132421
0.113701
-0.087255
-0.023225
0.023600
0.026408
-0.015267
-0.018212
-0.088019
0.057837
0.012649
-0.087916
-0.110707
-0.033159
-0.003051
-0.012008
-0.004947
-0.001497
-0.022855
0.100806
-0.011739
-0.140537
-0.080167
0.042791
0.202229
0.157001
0.101881
0.117707
0.097140
0.090640
0.092901
0.042338
0.168600
0.056424
0.083580
0.015028
0.083606
0.043116
-0.096621
0.003126
0.070065
0.094567
-0.032555
-0.103526
-0.104682
-0.077051
0.079847
-0.074809
-0.068326
-0.048312
-0.071563
-0.045670
0.174534
0.289804
-0.076408
0.003540
0.218034
0.101269
-0.096555
0.151994
0.026779
0.015728
0.050709
-0.148531
0.023054
0.114015
-0.172791
-0.041109
0.071866
0.042370
0.139668
-0.034085
-0.050325
-0.023572
0.044615
-0.103799
0.031771
0.101205
0.130009
0.046408
-0.045366
0.134569
0.157656
0.013538
0.028939
0.081350
0.011736
-0.074800
0.084686
-0.058605
-0.023146
-0.025098
-0.108865
-0.088675
-0.014802
0.003796
-0.019768
0.070279
-0.052571
-0.088320
-0.045215
-0.050990
-0.082929
0.007930
-0.086085
-0.016578
-0.023713
0.079887
-0.015687
0.097377
-0.000960
-0.041582
-0.059825
0.063517
-0.032417
-0.068945
-0.030709
0.035383
-0.014451
-0.122900
-0.038886
0.100335
0.017299
-0.018717
-0.074295
-0.112392
-0.037078
0.077621
-0.028293
0.041571
0.030756
-0.018396
0.102662
-0.061388
0.176230
0.096036
0.071583
-0.070745
0.104385
0.039567
0.022814
0.011375
-0.059402
0.003172
-0.060193
-0.100656
-0.100818
-0.127183
-0.005913
0.033677
0.072011
-0.027894
-0.053606
0.060651
-0.055463
-0.010464
-0.079349
0.011006
-0.095684
0.060052
0.096183
0.034029
0.009338
0.093373
0.050739
-0.154710
0.007315
0.026911
-0.001544
-0.003684
-0.131926
0.013593
-0.034045
-0.066615
-0.035048
0.009787
-0.070221
0.107574
0.093994
0.033407
0.009603
0.014248
0.106601
-0.026045
0.035434
0.039662
0.066070
0.099253
0.047483
-0.072981
-0.010664
0.058103
-0.130202
-0.009381
-0.006488
-0.032476
0.110889
0.215619
-0.034754
-0.031723
0.001657
-0.031624
-0.054483
-0.037860
0.000669
-0.067267
-0.027232
-0.026927
0.072507
0.019870
-0.019725
0.013850
-0.070333
-0.033439
0.036184
-0.021320
-0.012089
0.022507
-0.042297
-0.163007
-0.142528
-0.050226
-0.064233
-0.012824
-0.036424
0.038042
-0.002297
-0.021846
-0.092679
-0.037048
0.113755
-0.014271
0.023302
-0.047691
-0.034125
0.011008
-0.002256
-0.080541
0.110840
0.043977
-0.086441
-0.145189
-0.012187
-0.219634
-0.026259
-0.156272
-0.083207
0.063234
0.028235
0.041847
0.053208
0.046416
-0.105684
-0.103047
0.029120
-0.069983
0.080847
0.066925
-0.023558
0.022403
-0.024947
-0.065693
-0.132948
0.022161
-0.053159
0.021458
0.037002
-0.009088
0.090369
0.099102
-0.010709
0.043977
0.110089
-0.046725
0.014315
0.105401
-0.135804
0.044087
-0.018709
-0.128621
-0.050077
-0.060318
-0.166656
-0.028248
-0.053966
0.117133
0.094349
0.045923
0.060578
0.024714
-0.032361
-0.015902
-0.098208
-0.003892
-0.024064
0.100246
0.027688
0.034112
-0.062707
-0.028639
-0.011855
-0.113887
0.014819
-0.072220
-0.039706
0.103012
-0.129501
-0.110667
0.091071
0.020742
0.036147
0.019551
0.209400
0.112525
0.175763
0.087554
-0.063217
0.013587
-0.109038
-0.237505
-0.063591
0.081423
0.160524
0.015408
0.036171
-0.038063
0.054337
-0.032040
0.035667
0.054311
-0.083080
0.023834
-0.069746
-0.124538
0.028744
-0.034117
0.017801
0.003320
0.023173
-0.130326
-0.060049
-0.123289
-0.002557
-0.093213
-0.072862
0.043114
0.141797
0.035623
-0.103283
-0.000434
0.071794
-0.130752
-0.113093
-0.065575
-0.014625
-0.006281
-0.041070
-0.066878
-0.036314
0.058527
