0.016291
-0.042598
-0.057886
-0.017420
0.075826
0.008324
-0.046861
-0.010389
-0.045793
-0.149233
0.044158
0.043922
0.073684
0.026581
0.005943
-0.004826
0.122425
-0.133385
0.072999
0.105797
-0.009809
0.009858
0.064447
0.100118
-0.021226
0.002804
0.019806
-0.007627
0.124569
0.004766
0.013817
0.088407
0.092794
-0.012391
-0.098401
-0.047323
-0.025363
-0.017004
0.074769
-0.034192
0.045915
0.012378
-0.009878
0.046273
0.023141
0.007414
0.054956
0.020082
-0.036825
-0.094831
0.065129
-0.011085
-0.073510
-0.013999
0.057761
-0.027844
0.005188
0.009826
0.108122
0.145614
0.004474
-0.013755
0.014453
-0.084865
0.005182
0.027656
-0.026696
-0.044971
0.053862
0.039254
0.127704
0.063214
-0.066398
-0.016040
0.046893
-0.038989
-0.068066
0.040448
-0.030118
0.033063
0.076123
0.105172
-0.040855
-0.093458
-0.066585
-0.004129
0.001257
0.085134
-0.005564
0.086470
0.090066
-0.027089
0.011054
0.074612
0.066692
-0.003570
0.016804
0.049848
-0.072245
0.026272
0.086699
-0.055622
0.105938
-0.046041
0.033327
-0.081942
0.043245
-0.041515
-0.047844
-0.000499
0.013128
0.019945
-0.072473
0.011550
0.047921
-0.022478
0.072057
-0.046429
-0.016559
0.005484
-0.015230
0.053878
-0.050775
0.039656
0.056186
0.006501
0.029919
-0.032548
-0.017556
0.053280
-0.023638
0.010083
-0.117339
0.109208
0.017292
-0.074632
0.077773
-0.107744
0.017304
-0.069857
-0.048533
-0.036900
0.041989
-0.049499
0.103253
-0.116251
-0.021327
0.065986
-0.068972
0.035830
0.103945
-0.058548
0.055746
-0.076016
-0.047221
-0.000850
0.028559
-0.024508
0.030533
0.004606
0.095715
0.008898
0.082698
-0.074869
0.015605
-0.044318
0.115986
-0.109807
0.168700
-0.010325
-0.032141
0.008351
0.029494
-0.049657
0.021147
0.036771
0.010717
0.000292
-0.049995
0.008598
0.070376
0.037185
0.076128
0.022649
-0.015582
-0.000199
-0.042512
-0.017596
0.082484
-0.020561
-0.004757
0.024300
0.124228
-0.026898
0.100380
-0.001539
-0.032539
0.067363
-0.127636
-0.045345
-0.044092
-0.008756
-0.012438
0.024416
0.024212
0.016787
-0.007059
0.017303
0.084088
-0.016983
-0.036094
-0.031785
0.083233
-0.035953
-0.074618
0.122046
-0.056807
0.057929
0.056888
0.039060
0.010581
-0.129380
-0.001705
0.031671
-0.069174
0.068742
-0.001503
-0.015921
-0.073072
-0.081865
0.037788
0.003041
0.044924
0.040328
-0.006081
-0.019294
0.028187
-0.201609
-0.060352
-0.137564
-0.013424
-0.025007
0.051738
-0.059493
-0.133454
0.023318
0.003218
-0.060949
0.066173
-0.013509
-0.119446
-0.172380
0.143320
0.006661
-0.139608
-0.255800
-0.102736
-0.014484
-0.221508
-0.196377
-0.197319
-0.181397
0.071891
0.165413
-0.011123
-0.251008
-0.057791
-0.007760
-0.096798
-0.185612
-0.029307
0.023577
-0.052414
-0.034488
-0.158053
0.081404
0.017686
0.163159
-0.079011
0.005498
0.060466
0.049163
-0.090388
-0.219687
-0.080623
0.033230
0.011969
-0.008896
-0.016130
0.098357
-0.049070
-0.078451
-0.084535
-0.159245
-0.028428
0.084785
0.092611
-0.042776
-0.002531
-0.193667
-0.156267
0.017635
0.056350
0.135025
-0.138459
-0.089291
-0.018007
0.021438
-0.075977
-0.100024
0.010539
0.063611
-0.076049
0.060634
-0.169190
-0.060554
-0.076647
0.094978
-0.083181
-0.159534
-0.018519
0.023841
0.085778
-0.025922
-0.054865
0.131228
0.023151
0.022814
-0.139424
0.042679
0.080474
-0.181451
-0.106700
-0.069913
-0.064582
0.096650
0.057136
0.021562
-0.036555
-0.068905
-0.105954
-0.147243
-0.176177
-0.090752
0.059861
0.152695
0.144159
-0.071517
-0.023534
-0.062613
-0.094766
0.102274
0.145232
0.031239
0.001311
0.093375
-0.145035
0.080701
0.039237
-0.003451
-0.157819
0.116395
0.109836
0.014638
-0.003644
0.044739
-0.203475
0.119922
-0.180092
0.063841
-0.043835
-0.096413
0.154673
0.059073
0.026632
0.051014
-0.105114
-0.113280
-0.065395
0.100919
0.073078
-0.149085
-0.067467
0.017413
-0.175495
0.034971
-0.002604
0.043567
-0.056445
0.007068
-0.057632
0.026385
-0.036607
0.057613
0.023588
0.060860
-0.123221
-0.016053
0.037563
-0.028393
-0.026573
0.050091
-0.095578
-0.077043
0.063566
0.084263
-0.061251
-0.083272
-0.046410
0.082808
-0.060216
-0.058837
0.026149
-0.066419
0.054854
0.103304
-0.120770
0.050674
-0.064156
0.089534
-0.213932
-0.148742
-0.082812
0.065187
-0.001027
-0.024994
-0.116820
-0.064459
-0.025493
0.036436
-0.027363
0.061534
0.013706
-0.021470
0.033118
-0.107613
-0.105690
0.093801
0.013957
-0.140146
-0.006975
-0.080636
0.060251
-0.134525
0.137160
-0.082332
0.034224
0.039057
-0.042137
-0.112849
0.001318
0.024754
-0.053402
-0.016379
0.079160
-0.085319
0.065887
-0.074440
0.083374
0.060801
-0.067032
0.037122
-0.037108
-0.000361
-0.112331
0.046779
0.023640
-0.092156
0.058291
0.035182
-0.109457
-0.019948
0.027941
0.070016
-0.024910
0.063181
-0.004759
-0.141144
-0.067564
-0.005219
0.042945
0.103313
0.046045
-0.029063
-0.053836
0.008797
0.006282
-0.076811
-0.020930
-0.099305
-0.071815
0.052483
0.084807
0.028992
-0.039154
-0.110340
0.044577
0.005807
0.001091
-0.106011
0.047502
0.022351
0.019790
-0.054717
0.114743
-0.021233
-0.037112
0.076308
-0.024020
-0.100252
-0.094197
0.083527
-0.065994
-0.007850
-0.014678
-0.045643
-0.083467
0.023324
0.019855
-0.002279
0.048975
0.039000
0.095732
0.021936
-0.054078
-0.052326
-0.040663
-0.054509
-0.026655
-0.011978
-0.070572
-0.056493
-0.104463
-0.031049
0.014166
-0.020525
-0.042051
-0.019760
-0.010303
0.073413
0.098860
0.026735
-0.073999
0.016480
-0.005268
-0.027263
0.013251
-0.052672
0.017614
0.088907
0.043945
0.017697
0.031646
-0.047448
0.032678
-0.099715
-0.069908
-0.050468
-0.087615
0.023634
-0.032739
-0.077121
-0.070398
-0.101095
-0.004444
0.085056
-0.009579
0.080602
0.028191
-0.077449
-0.014626
0.002334
-0.011333
-0.030632
-0.013056
-0.079260
-0.058355
0.091348
0.046516
0.036449
-0.016855
0.093443
-0.079089
0.062262
-0.078048
-0.011193
-0.103517
-0.012109
0.066647
0.053357
0.059661
-0.015420
-0.028968
0.084456
-0.018295
-0.081396
-0.052260
0.091024
0.041241
-0.070251
-0.065074
-0.109064
0.122345
-0.028678
0.075896
-0.090184
0.006183
-0.035315
-0.026512
0.040891
-0.008995
-0.047752
-0.078962
-0.181736
0.025524
0.083576
0.028390
-0.050396
0.087148
0.054902
-0.022305
-0.057963
0.036511
-0.011404
0.028528
0.048561
0.125467
-0.124233
0.000081
0.003765
-0.039685
-0.068969
0.019741
0.056804
-0.130529
-0.035831
0.042354
-0.075392
-0.005510
-0.050084
-0.015479
-0.014660
-0.039690
0.007635
-0.050102
0.003173
0.019475
-0.000602
0.003962
-0.027401
-0.038401
0.034773
-0.001918
0.016527
-0.038014
0.083650
-0.002236
-0.045132
0.001422
-0.040106
-0.049752
-0.000355
0.005634
0.013541
0.089105
-0.017141
-0.000941
-0.156959
-0.058578
0.051995
0.046124
-0.093922
0.023765
-0.025604
0.057570
-0.000908
0.081816
-0.049541
-0.037574
-0.075602
-0.039627
-0.006916
0.018516
0.049611
-0.026022
0.039522
0.103807
-0.008802
0.045257
-0.082670
-0.069807
-0.023575
0.045531
0.000299
0.008492
0.018269
-0.030594
-0.059513
0.047243
-0.000761
0.012620
-0.026827
0.042870
0.002476
0.019981
0.037821
-0.143231
-0.079964
0.011096
0.065171
0.117566
0.012171
-0.061863
0.116246
0.001533
0.075501
-0.047419
-0.089122
-0.139209
0.024299
0.075161
0.006299
0.123396
-0.007202
-0.092026
0.040993
0.018508
-0.117682
-0.043904
-0.102849
0.008899
0.106886
0.000551
0.010574
-0.037528
-0.045542
0.068106
-0.076399
0.015084
-0.145711
-0.071212
-0.052055
0.173739
-0.095068
-0.101027
-0.005723
-0.053022
-0.065349
0.000276
-0.015631
-0.056581
-0.012529
-0.020699
0.004621
0.000440
-0.052283
-0.027027
-0.019256
0.011564
-0.009842
-0.091651
0.035904
-0.018121
-0.003954
0.159830
-0.041828
0.053381
0.091363
0.019085
-0.118805
-0.070041
0.164795
-0.058481
0.067429
0.190246
-0.005241
0.081116
0.038612
-0.046351
-0.204673
-0.017408
0.007211
0.032094
0.004787
0.136916
0.021542
-0.043767
-0.040779
-0.085402
-0.058184
0.129504
-0.088281
0.043516
0.037302
-0.062755
0.001775
0.073657
-0.106771
0.036996
0.026291
0.011463
-0.028514
-0.054659
-0.066726
-0.001384
-0.079775
-0.022532
-0.021935
-0.036340
0.045507
0.060035
-0.032813
-0.021499
-0.146094
0.074565
-0.011232
0.012008
0.043976
0.015842
0.071996
-0.030397
0.138403
-0.040741
-0.048946
0.033573
0.003745
0.027147
0.050302
0.003122
0.045999
-0.024761
0.075934
0.048413
0.097396
0.132569
-0.067585
-0.025465
0.096549
-0.018119
-0.054964
-0.016711
-0.052868
-0.025494
0.063258
0.009206
0.023692
-0.117505
-0.045166
-0.009061
-0.031513
0.154849
0.011596
-0.105884
-0.077239
0.078482
-0.087643
0.050549
0.027539
-0.052102
0.007863
0.040574
-0.157494
-0.048458
-0.141069
0.003291
0.031091
0.066826
0.045277
-0.000305
0.045234
-0.045855
0.059899
-0.055439
-0.060297
-0.038505
0.104324
-0.031218
0.013051
-0.020823
-0.032381
0.035941
0.090088
-0.084252
0.005433
0.079031
0.005912
-0.140698
0.040126
-0.009464
0.047806
0.084348
0.066006
-0.168422
0.002665
0.064217
-0.025623
0.004980
0.050412
-0.047493
0.143159
0.082003
-0.059511
0.010113
0.008011
-0.042580
-0.009234
0.048452
-0.014561
-0.055139
0.038971
0.056189
-0.072120
-0.011862
-0.033759
0.097506
-0.109960
0.090509
-0.013623
0.003005
0.118952
-0.045338
0.062775
0.012910
-0.061672
-0.009497
0.018875
0.091573
-0.013660
0.009639
-0.077895
-0.025569
0.136971
-0.031422
0.031410
-0.065321
0.006740
0.009382
-0.033064
-0.128541
0.075646
0.080692
0.033653
0.070999
-0.084036
0.074740
0.020490
-0.018812
0.029098
-0.057256
0.143463
0.083839
-0.013011
0.130068
-0.004981
0.078276
0.000127
0.054513
-0.063856
0.056755
-0.086956
0.148140
0.148444
0.016454
-0.093136
-0.025005
0.025193
-0.046549
-0.079315
-0.031190
-0.153283
-0.084001
0.064081
0.096590
-0.087681
-0.088492
-0.066363
0.107637
0.027635
-0.050566
0.012984
-0.030960
-0.040652
0.069834
-0.022891
0.021862
0.101885
-0.013253
0.019544
0.002310
0.009786
-0.038528
0.105021
-0.023331
0.023953
0.019354
0.002154
0.072630
0.024512
-0.020463
0.071338
-0.083334
-0.036030
-0.062655
-0.005922
-0.018996
0.014843
0.020609
0.006430
0.006074
-0.067482
-0.042433
-0.025236
-0.100123
0.005693
0.044731
-0.009676
0.000412
-0.049724
0.023460
0.057823
-0.081047
-0.022905
-0.021596
0.025682
0.038135
0.020493
-0.053053
0.036859
0.021068
0.049459
-0.015375
-0.071013
-0.141820
0.046036
-0.018767
0.049518
-0.052858
0.031606
0.037694
0.057733
-0.080480
-0.047110
-0.000317
-0.120725
0.021342
0.017230
0.007327
-0.054832
0.034337
0.016915
0.107892
-0.000402
-0.063999
-0.058650
0.032384
-0.071668
0.038845
-0.001344
0.048170
0.063787
0.042450
-0.073933
-0.173944
-0.084584
-0.019881
-0.001359
0.003914
-0.008758
-0.092854
-0.046234
0.055072
0.040396
-0.060024
0.056335
0.039338
-0.055748
0.001909
0.009176
-0.081010
0.068583
-0.070011
-0.015372
-0.120392
0.004490
0.030268
0.012057
0.047398
0.024206
0.054979
-0.022552
0.033741
-0.017749
-0.032252
-0.102244
-0.052868
0.087786
0.073480
0.045743
-0.064594
-0.177617
0.024909
-0.084626
0.048905
-0.011983
0.034611
0.002217
0.010037
-0.095165
-0.039540
-0.050713
-0.068325
0.052252
0.015763
-0.070294
0.026389
-0.054461
0.052143
0.056882
0.015863
-0.129562
-0.031711
-0.039508
0.180659
-0.084112
-0.070602
0.011158
-0.029198
-0.066664
0.078891
-0.019165
-0.074853
-0.040636
0.220143
-0.063097
0.038546
-0.024146
0.012708
-0.134742
-0.032546
-0.029455
0.090400
-0.115698
0.004051
-0.067412
-0.060929
-0.090967
0.026333
-0.000024
0.001046
-0.065337
-0.038903
0.013771
0.052016
-0.037251
0.084209
-0.034466
-0.021639
-0.057554
-0.011441
-0.060826
-0.042248
0.069271
0.040923
-0.110118
-0.034976
-0.024963
0.002113
0.027735
0.066544
-0.080379
0.048635
0.093314
-0.036037
-0.006283
0.007055
-0.092020
-0.133442
0.090428
-0.024126
0.078333
-0.008502
-0.032916
0.026017
-0.090012
-0.041596
-0.032446
-0.081411
0.003007
-0.109907
0.154944
0.063576
0.031192
-0.045554
-0.086049
0.056418
-0.081993
0.027874
0.089241
-0.086984
-0.164053
-0.007930
0.077761
0.018547
0.038358
-0.030055
0.034026
0.034758
-0.039354
0.022139
-0.060415
-0.125410
0.112924
-0.008694
0.105887
0.006442
0.082840
-0.088425
-0.016092
-0.079483
0.009870
-0.028917
0.049326
-0.097500
0.079190
-0.019778
0.097337
0.042957
-0.044313
0.053286
0.019291
-0.010603
-0.071708
-0.066950
0.122133
-0.110473
0.009954
0.004224
-0.069110
-0.023591
0.015362
0.032932
-0.076023
0.073702
0.050413
-0.068403
0.184878
-0.107480
-0.236229
-0.072271
-0.133646
-0.055461
0.009333
0.045151
-0.026549
0.007596
0.031912
0.040380
-0.014949
0.049454
0.035371
0.112983
-0.076862
-0.017835
-0.035443
0.052284
-0.065981
0.019270
-0.022653
0.014780
0.004293
-0.056260
0.107143
0.042342
0.009290
0.041288
-0.047554
-0.046542
0.035651
-0.082231
0.046606
-0.063346
-0.036708
-0.034560
-0.038091
0.103873
0.045610
0.004910
-0.044226
-0.120200
-0.079074
-0.039136
0.056723
-0.189459
-0.161146
0.079862
0.068987
-0.030031
0.029417
0.003050
-0.113907
0.004337
0.084081
-0.001825
-0.092274
-0.167233
0.013690
0.031214
-0.115453
0.083141
0.061938
0.077317
0.107644
0.002960
0.039675
-0.004591
-0.036392
0.035330
-0.071196
0.021025
-0.029478
0.053975
-0.039508
-0.023902
-0.036988
0.007416
-0.040918
0.079866
-0.167768
-0.024688
0.080527
-0.106680
-0.187632
0.048776
0.012870
0.028703
-0.093166
0.020779
-0.045980
0.039075
0.075652
-0.081994
0.073583
0.047462
0.018876
0.040623
-0.031642
-0.088004
0.039639
0.089862
-0.262043
-0.013743
-0.031624
0.066449
-0.092296
0.036066
-0.058842
0.020765
-0.049937
0.043651
0.015209
-0.000354
-0.040078
-0.033075
0.046746
0.184138
-0.031469
0.003925
0.043154
-0.154642
0.001284
-0.047697
0.050069
0.036127
0.128373
-0.110843
-0.088023
0.041631
0.099344
-0.122768
0.006763
0.112201
-0.037205
0.060724
-0.007996
0.126886
-0.129085
0.010979
0.089281
0.006788
-0.087244
0.028749
-0.031119
0.062274
-0.097852
-0.151392
-0.175577
-0.077736
0.042510
0.098426
-0.036646
0.009200
-0.083222
0.039322
-0.010674
-0.008026
0.027473
-0.117272
-0.077123
0.083128
0.043440
-0.014677
-0.077550
0.008158
-0.016451
-0.039076
-0.019963
0.031431
-0.034633
0.079835
-0.110820
0.087120
0.060137
0.016244
-0.067580
0.005684
-0.032958
0.014390
-0.050579
0.044440
0.064355
-0.006366
-0.041956
0.012977
0.045260
-0.028306
0.053955
0.035308
-0.108888
-0.030007
0.015823
0.063353
0.008875
0.024052
-0.131859
0.034734
-0.086416
0.051022
0.058180
0.024714
-0.110520
-0.023308
-0.053939
0.007751
-0.092524
0.119476
-0.136095
0.042421
0.037618
0.118804
0.023346
-0.037088
0.005654
-0.067114
-0.139782
0.148949
-0.022513
0.043351
0.048304
-0.024156
0.123774
-0.028341
-0.076272
-0.052910
-0.007557
-0.018380
-0.059371
-0.112844
0.060760
0.061861
0.116443
-0.014179
-0.055525
-0.028647
0.033774
-0.069141
0.030928
-0.059457
0.003691
0.051565
-0.070820
0.023114
-0.173012
-0.089758
0.002787
-0.053390
0.131395
0.082584
-0.218063
-0.020367
0.020618
-0.208617
-0.000670
0.116743
-0.059462
-0.018356
-0.018959
0.051614
-0.017159
0.056014
-0.248569
-0.148142
-0.056288
0.010876
0.070521
0.100374
-0.128114
-0.016125
-0.079404
0.122289
-0.353727
-0.170811
0.029278
0.025117
-0.060948
0.042532
0.121920
0.106472
-0.065974
-0.019454
-0.060499
-0.090740
0.022601
-0.085783
-0.063036
-0.009912
-0.017350
-0.031155
-0.020321
-0.045304
-0.084027
0.023929
-0.034955
-0.015272
0.016529
-0.002660
0.012144
0.092536
-0.013219
0.007147
-0.136360
-0.083745
0.027236
-0.024678
0.017124
0.043024
0.036984
-0.098286
0.077143
-0.063458
-0.050379
-0.055137
0.055121
0.034969
0.078866
-0.079777
-0.026265
-0.099528
0.035499
0.051416
0.079662
0.067374
-0.092579
0.087275
-0.182126
0.088262
0.031593
-0.068191
0.147235
0.016341
-0.119636
-0.036698
0.065351
-0.002254
-0.057663
-0.163295
0.125195
-0.015103
-0.084326
-0.088523
0.130706
-0.041855
0.000445
-0.091593
0.022641
0.039606
0.069775
-0.009858
-0.001922
0.045155
0.064744
-0.045712
-0.039119
0.023995
0.113687
-0.157244
0.036302
-0.080741
0.076856
-0.015494
-0.013257
0.101476
0.001590
0.017734
-0.042280
-0.008149
-0.026294
-0.035540
-0.003096
-0.080350
-0.053271
0.037233
0.037494
-0.104373
-0.030328
0.038091
-0.017156
-0.000018
0.018776
0.062708
0.020571
0.078702
0.067096
-0.085034
0.040656
-0.072863
0.018770
-0.009126
-0.102201
0.004073
0.010240
0.047920
-0.090802
-0.000577
-0.000230
-0.021515
-0.010703
-0.076974
-0.048189
0.078810
0.011598
-0.074068
0.043961
0.011344
-0.002577
0.025549
0.037168
0.083913
0.050648
0.046637
-0.073344
0.093580
0.047063
-0.009189
0.071251
-0.062447
-0.050752
-0.041524
-0.015046
-0.050635
0.071459
0.000138
0.020081
0.055334
0.004959
0.144654
0.055731
0.063375
-0.013974
0.055977
0.143868
-0.079531
0.118124
-0.009955
-0.084265
0.015834
0.000501
0.021146
-0.040433
0.037490
0.013002
0.065139
-0.060756
-0.016480
0.029484
-0.019327
-0.026668
-0.009472
0.064712
0.024876
0.067690
-0.046494
0.014819
0.068123
0.042026
0.065169
0.053353
0.109133
-0.119354
-0.039371
0.121463
0.008343
0.026009
-0.040441
-0.114573
-0.016405
-0.078754
-0.028555
-0.004522
0.069974
0.025596
-0.045181
0.074435
0.027459
-0.019818
0.095212
-0.023018
-0.055401
0.029724
-0.047749
0.052593
-0.072200
0.033719
-0.017889
-0.023946
0.083644
0.065357
0.014458
-0.067899
-0.084234
0.015381
0.024784
-0.051435
0.006812
-0.006656
-0.057639
-0.071360
0.076628
0.048589
-0.037751
0.021494
-0.003374
-0.013925
-0.063123
-0.088080
-0.112685
0.024430
0.020508
-0.080511
0.043149
0.018828
-0.084068
-0.058786
0.066695
0.007735
-0.086794
0.029987
-0.136315
0.023349
0.001162
-0.026456
0.089316
0.052151
-0.021142
-0.110796
-0.040575
0.010279
-0.096926
0.021201
-0.018404
0.026656
0.138534
0.069194
-0.041974
-0.021702
-0.038307
0.052444
-0.002354
-0.038571
0.061575
0.051334
-0.051230
0.121627
-0.130191
-0.121692
0.163035
0.040392
-0.040212
0.052518
0.085921
-0.096974
0.064369
-0.049829
0.063145
0.008270
0.001374
-0.026995
-0.024760
0.048954
0.006358
0.008874
0.123921
-0.076538
0.099996
-0.015239
0.036328
-0.032193
-0.076695
-0.093661
0.036370
0.062197
0.048399
-0.029255
-0.031107
-0.038091
-0.056342
0.001152
0.031882
0.024547
-0.111656
0.030608
0.013380
0.164846
-0.044454
-0.164940
0.022843
0.171516
0.112684
0.082453
-0.116820
-0.144684
-0.060316
0.002047
-0.137012
-0.182119
0.130496
0.108508
0.140674
0.187966
-0.050676
-0.227159
0.023976
0.068950
0.112147
0.025317
-0.034107
-0.042427
-0.087886
-0.064311
0.018157
-0.129010
0.019161
0.028091
0.121068
0.068798
-0.001170
-0.094661
-0.089599
0.237714
-0.029465
-0.302472
-0.080596
0.080286
0.002243
0.059408
-0.155162
-0.054682
0.091226
0.075638
-0.125065
-0.092000
-0.060595
0.025586
-0.002068
0.031427
-0.086988
-0.076018
0.046262
-0.052092
0.005988
0.051991
-0.079992
-0.025533
0.043435
-0.065383
-0.038498
0.040901
-0.095803
-0.046018
-0.166529
-0.122274
-0.070706
-0.047226
0.150081
-0.021946
-0.036256
0.073462
-0.047582
0.031306
0.115596
-0.112707
-0.249847
-0.016800
0.040417
-0.077117
0.079027
-0.001321
-0.120791
0.128318
0.024803
-0.036004
-0.051949
0.116977
0.032844
-0.019565
0.029586
0.013646
-0.053259
0.051539
0.044900
0.018122
0.034697
0.037241
0.117704
-0.107132
0.094866
-0.176992
-0.096722
-0.017361
-0.075626
0.051695
0.066022
0.083697
0.190777
-0.238247
0.017723
-0.110183
-0.055375
0.096169
-0.227145
-0.113847
-0.176247
0.069448
-0.010419
0.100438
-0.045628
0.087837
-0.151100
0.108179
-0.013678
-0.016556
-0.231617
0.061155
-0.086064
0.290088
0.006530
0.184265
-0.231488
-0.062924
-0.179916
0.108454
-0.014257
0.091111
-0.071318
0.186287
-0.068421
0.014234
-0.107158
-0.136355
-0.122489
0.063697
-0.016164
-0.143470
-0.040362
-0.030049
-0.079985
0.073628
0.019404
0.018424
-0.019124
-0.061068
0.104468
-0.073835
0.145429
-0.051511
0.096260
0.028158
-0.045946
-0.263147
-0.096204
-0.081458
0.015771
0.019187
-0.019791
0.070717
0.087098
-0.069626
-0.158837
0.039268
0.070990
-0.041443
-0.021103
0.018389
0.044644
0.064875
-0.063301
-0.021092
-0.142868
0.058306
0.024630
0.040350
0.005630
-0.122804
-0.004549
0.080324
-0.016062
-0.033205
-0.100179
0.030283
0.023861
0.132733
0.053920
-0.029082
0.042929
0.002919
-0.014617
-0.017206
-0.082560
0.052609
0.020468
0.098813
0.096405
-0.012355
0.070495
0.028898
-0.042667
-0.062575
-0.036510
0.064201
-0.005119
-0.023206
0.006442
0.063239
-0.040654
-0.056462
0.086225
-0.054004
-0.116112
0.073485
-0.029535
-0.051893
0.038175
0.104715
0.098632
-0.012954
-0.052057
-0.105898
-0.016647
0.094540
-0.035330
0.001011
0.010790
0.047843
0.133474
-0.025508
-0.111909
0.009250
-0.073218
0.163785
-0.071937
-0.044007
0.047712
0.048936
0.073156
-0.039276
-0.017748
0.046230
0.194635
0.105926
-0.137175
0.030246
-0.006998
-0.120295
-0.060845
-0.016225
-0.086075
0.001796
0.126649
-0.024628
0.088240
0.020140
-0.099999
-0.098758
0.174914
0.026226
0.036939
-0.016892
-0.090913
0.102775
0.083396
-0.321283
0.089911
-0.136629
0.094886
-0.055868
-0.039464
-0.009397
-0.129615
0.117531
0.051018
-0.079077
-0.206069
0.069744
0.031977
-0.021584
-0.001628
0.224103
0.057726
-0.032093
-0.059719
-0.078297
-0.184022
0.035607
-0.004336
0.094220
-0.124629
0.048475
0.121560
0.129381
-0.011571
-0.105849
-0.065314
-0.044751
0.078505
0.032429
0.098706
0.072554
0.064429
0.009654
-0.199209
-0.098715
-0.138440
0.039647
0.052674
0.124999
-0.000811
0.069920
-0.155176
0.023461
-0.070042
-0.119697
-0.075613
0.107783
-0.015472
0.073321
0.022225
0.023086
-0.053300
0.052462
-0.186522
0.113373
0.016765
-0.050592
0.023189
-0.019712
0.045872
0.050263
-0.026464
-0.132381
-0.252072
0.012375
0.071790
0.020981
0.064982
0.099669
-0.031005
0.139749
0.030670
0.025167
-0.115080
-0.179253
-0.312463
0.008998
0.074100
0.033340
0.029921
0.045890
0.039273
0.022006
0.062321
-0.151972
-0.160796
0.018903
-0.130789
0.171596
-0.029655
0.007174
-0.149277
0.078232
-0.157190
0.096080
0.068187
0.031854
-0.093902
0.067215
-0.117045
-0.021159
0.013406
-0.060851
-0.146133
0.013922
0.052923
0.069449
0.112853
-0.107601
-0.089838
0.047355
-0.056435
-0.116500
-0.124220
0.133343
0.114713
0.061399
0.164547
0.061200
-0.094908
0.019388
-0.068406
-0.086857
-0.112419
-0.122686
-0.091313
0.055060
0.253864
-0.121166
-0.030333
-0.105240
-0.019130
-0.152703
-0.072463
0.068361
-0.007256
-0.051190
0.012331
-0.004718
-0.018222
-0.030289
-0.047174
0.060313
0.067006
-0.001143
0.008907
-0.139629
-0.008471
-0.020089
-0.022952
-0.043673
0.013277
-0.042924
0.010038
0.034322
0.021046
-0.045958
-0.058906
-0.031541
0.040532
0.010476
0.008093
-0.135439
0.078354
-0.012397
-0.041445
0.094159
-0.104721
-0.201869
0.133702
0.027800
0.067682
-0.156891
0.062072
0.026769
0.084094
0.028897
-0.262038
-0.189581
0.259530
0.048624
0.061398
-0.145624
0.058639
-0.170554
0.034318
-0.030530
-0.075491
-0.018663
0.035268
0.012018
0.009871
-0.004766
-0.049294
0.041436
0.025577
-0.043365
-0.018817
0.016118
0.096024
-0.071461
0.078199
0.005659
-0.025814
0.066408
0.013270
0.124725
0.046217
-0.054396
-0.022153
0.083504
0.115072
-0.037669
-0.054940
0.082419
-0.010759
0.184434
-0.009784
-0.283581
0.180501
-0.069567
0.203353
-0.174593
-0.127544
-0.103030
-0.083154
0.011199
-0.070277
-0.223608
0.153395
0.103245
0.008001
-0.038941
0.001563
-0.182373
0.068301
-0.028773
0.061744
0.007148
-0.030274
-0.007899
-0.000090
-0.158115
0.000125
-0.022173
0.042648
0.093532
-0.005944
0.183026
0.026513
-0.067125
0.035596
0.037871
-0.107769
-0.093314
-0.005355
0.094077
-0.054579
0.342526
-0.300834
-0.094688
0.116245
0.067433
-0.167430
-0.163546
-0.054037
0.193417
0.018667
-0.086182
-0.027456
-0.200808
0.143450
0.029931
0.047215
0.032955
0.002624
0.062987
0.273938
-0.196349
0.009745
-0.235023
-0.097078
-0.271585
0.075146
0.153873
-0.035974
0.025863
0.093631
-0.005495
-0.026165
0.068933
0.029961
0.004469
0.006289
-0.089234
0.004300
-0.103796
0.133782
-0.048683
-0.010987
-0.078182
-0.062559
0.108274
0.066888
-0.243845
-0.037191
0.070514
0.043924
0.079351
-0.185760
-0.036127
0.029985
0.091878
-0.031741
-0.127496
0.113997
-0.033192
0.169384
-0.150467
-0.201571
0.007937
-0.192452
0.198114
0.014609
0.071334
-0.091867
-0.084374
0.059119
-0.020631
-0.070472
-0.153506
0.039031
-0.020577
-0.226660
0.160377
-0.102343
0.046144
-0.026847
0.114215
0.013122
0.075443
-0.124174
0.070363
0.023145
0.037432
-0.200348
-0.047647
0.072818
-0.018908
0.020977
0.129033
-0.244470
-0.055466
-0.072726
0.148971
-0.112118
0.020486
0.086344
0.056824
0.018872
0.139013
-0.168678
0.050950
-0.204501
-0.033235
-0.064466
-0.055709
-0.248851
0.137973
-0.000492
0.079554
-0.071720
0.165817
-0.030807
0.002882
0.088156
-0.238758
-0.296796
0.199951
-0.033777
0.080995
0.035721
0.086472
-0.059628
0.154941
0.033583
0.082145
0.104543
0.059093
-0.047425
-0.049404
0.069251
0.039249
0.003097
-0.052155
-0.199351
-0.000382
0.028087
0.087195
0.046341
0.026048
-0.068242
0.102362
-0.104836
-0.086612
-0.049571
0.027318
-0.030043
0.040955
-0.076406
-0.106397
-0.105851
0.056919
0.021729
-0.024331
0.069727
-0.129204
0.017925
0.005208
-0.052984
0.049602
0.005488
-0.034945
0.048101
0.004748
0.022944
-0.148459
0.114422
0.005194
0.009553
-0.007604
0.101983
-0.041315
0.097827
-0.082628
-0.027126
-0.011115
0.022367
0.063391
-0.002509
0.027354
-0.029472
0.087748
-0.013497
-0.063005
0.069918
0.086561
0.079467
0.079236
0.014547
-0.040716
-0.136573
0.181339
0.092514
-0.012917
-0.007148
-0.025226
0.025926
0.014756
-0.190970
-0.048087
-0.088220
0.137019
0.022889
0.003566
0.022299
-0.020624
0.069418
-0.036385
-0.020650
0.010032
0.013863
0.100017
0.076595
-0.033026
0.044297
-0.085904
0.000277
-0.109097
-0.135257
0.091442
0.029679
-0.088763
0.034325
0.039875
-0.050002
-0.065287
-0.034131
-0.040190
0.121965
-0.047203
-0.035462
-0.003901
0.025623
0.006674
-0.122683
0.009831
-0.145110
0.005315
0.009898
0.014173
-0.161184
-0.000829
-0.058473
0.124523
-0.094276
-0.011339
0.028635
-0.074762
0.030369
0.047066
0.034428
0.002957
-0.009999
0.055979
-0.022659
-0.119010
-0.024001
0.014692
-0.025574
0.026477
0.095794
0.004416
0.050645
-0.038854
0.025395
-0.061812
-0.125461
0.034892
-0.058726
0.039942
-0.003944
-0.011789
0.001879
0.012539
-0.000714
-0.021691
0.008439
-0.037759
0.069047
-0.130220
0.015561
-0.072581
0.038544
-0.057524
-0.058390
-0.102263
-0.102396
-0.048522
0.058302
0.006575
0.027330
-0.027558
0.009180
0.115532
-0.070163
-0.027553
0.062950
0.062675
0.112956
0.112500
-0.051917
-0.031431
-0.011154
0.041154
0.020249
-0.115895
-0.061467
0.105280
0.070223
0.057388
0.085977
0.043159
-0.046928
0.017354
0.019137
0.027584
0.029241
0.013824
0.098606
-0.054725
0.079834
0.046530
0.044868
-0.106416
0.045523
0.068429
0.071721
-0.011437
0.079519
0.012065
0.103796
-0.172743
0.161914
-0.126563
0.022972
-0.020030
0.011040
0.040299
-0.077636
0.036805
-0.001723
-0.105379
0.054585
-0.035072
0.104811
-0.004840
0.031606
0.052258
-0.109793
0.059799
-0.011150
-0.053515
-0.018070
-0.034925
0.072082
-0.013909
0.119528
-0.099979
0.070304
-0.022710
0.012995
-0.048319
-0.049730
-0.049876
-0.027007
0.070028
0.130130
-0.091841
-0.014058
0.037319
-0.087875
-0.034132
-0.104675
0.032859
0.040881
-0.125571
0.041906
-0.003943
-0.076707
-0.020674
0.062136
-0.094844
0.060937
-0.026896
-0.018949
0.026508
-0.009127
-0.080568
-0.101484
0.015719
0.049575
-0.115978
0.102864
0.011899
-0.010141
0.060848
-0.022818
-0.048369
-0.022244
0.036286
0.060372
-0.060309
-0.004799
-0.061635
0.052837
0.090337
-0.153301
-0.031324
0.074827
0.006115
0.102689
-0.161465
-0.055300
-0.070034
-0.120124
-0.014253
-0.126903
-0.046939
0.079295
0.105474
-0.040810
-0.020232
-0.051563
-0.247060
-0.009094
-0.072333
-0.008661
-0.035911
-0.026482
0.005516
0.085214
0.045025
-0.062134
0.128997
-0.009363
-0.154117
0.064993
-0.102384
0.096290
0.047383
0.009301
-0.083512
-0.020772
-0.046847
0.104455
0.027915
-0.000330
-0.056580
0.095121
-0.107731
-0.046844
-0.053850
0.018674
-0.014646
-0.101740
-0.068217
0.065476
0.015687
0.135898
-0.176245
0.079195
0.072664
0.083933
-0.104209
-0.013317
-0.038254
-0.030631
0.069605
0.140267
-0.071101
-0.061162
0.139392
0.105249
-0.144025
0.058742
-0.046616
-0.014306
0.000821
-0.024058
0.027928
0.030759
-0.058388
-0.042782
-0.029628
0.046880
0.000317
-0.083894
0.049525
-0.098212
-0.065510
0.060171
-0.078426
0.035705
0.010726
-0.038982
0.009542
-0.005238
-0.130041
-0.063358
-0.070903
-0.045858
0.014363
0.074838
0.029032
0.117959
-0.091701
0.107263
-0.108608
0.045590
-0.041235
-0.007242
0.026053
0.017500
-0.079999
0.190643
0.037491
0.113737
-0.138272
-0.051737
-0.165263
-0.116806
0.111083
0.033280
0.030802
0.044986
-0.084047
-0.071010
-0.057606
0.042329
-0.042378
0.069024
-0.046387
0.013314
-0.039782
0.024764
0.049673
0.104802
0.051545
-0.167337
-0.095038
0.042224
-0.087614
0.059388
-0.165567
0.041046
0.082397
-0.051551
-0.159850
0.090163
-0.084957
-0.070722
-0.008573
-0.018092
-0.062733
0.008173
0.111637
0.015057
-0.025724
-0.176856
0.028492
-0.083660
-0.138648
-0.087994
-0.049362
0.088798
-0.047298
-0.093446
0.174163
0.015736
-0.028760
0.067560
0.008023
-0.019233
-0.000725
-0.068004
0.045227
0.066718
0.015980
0.018071
-0.006546
0.046112
-0.065748
0.098252
-0.010364
-0.070332
0.032641
-0.000483
-0.114827
-0.062880
-0.065403
0.043492
0.003821
-0.024191
0.038327
-0.005803
-0.077750
-0.130785
0.043711
0.074633
-0.029211
-0.082257
0.039500
-0.009129
0.059897
-0.071152
0.014565
-0.113456
0.070350
-0.018399
0.063818
-0.086903
-0.084669
0.037902
0.092370
0.092403
-0.125849
-0.067222
0.057785
-0.072762
0.172131
0.084315
-0.182827
0.170037
0.003044
0.076242
-0.039710
0.034464
0.017117
-0.011554
0.018492
-0.056758
-0.059518
0.112639
0.025313
0.041505
0.054507
-0.058705
-0.011680
-0.020815
-0.027676
-0.106740
0.052849
0.088348
0.079924
-0.043272
0.074046
-0.009664
0.038874
-0.146872
-0.008256
0.059269
-0.106903
0.029249
0.046507
-0.031180
-0.137172
-0.000231
0.049976
-0.047503
0.071815
0.010711
-0.003438
-0.030074
0.105492
-0.030457
-0.039343
-0.190716
-0.029653
0.032657
0.229654
-0.156004
0.035050
-0.025516
0.035036
0.098037
-0.018565
0.020886
0.011626
0.055642
-0.091239
-0.009066
-0.080568
0.141477
0.002070
0.105904
-0.051185
0.034691
0.086274
0.106662
-0.088606
0.112682
-0.115535
0.017694
0.164961
0.088801
0.013328
-0.059979
-0.074773
0.059216
-0.031798
0.105603
0.058722
-0.050870
-0.004560
-0.185388
-0.038704
-0.121255
0.087431
0.049400
-0.006411
0.165495
-0.003541
-0.055126
-0.032810
-0.256520
0.000853
-0.157317
0.018176
0.098642
0.227292
0.139318
0.045959
-0.022957
-0.048671
0.133748
0.039703
0.126461
-0.038002
-0.004522
-0.060090
-0.004275
-0.023015
0.035730
-0.082959
0.150460
0.094897
0.105979
0.080769
-0.086546
-0.088359
-0.054681
0.012674
-0.179192
-0.166899
-0.092211
0.022251
0.095386
-0.035182
0.072967
-0.078612
-0.023852
-0.067396
-0.064822
-0.018063
-0.046594
-0.128954
0.100094
0.064655
-0.004497
-0.165832
0.129734
-0.065280
0.142040
0.023558
-0.081036
0.014994
0.182433
0.043113
0.047064
-0.052612
-0.070144
0.110517
0.110516
-0.111453
-0.064041
0.078156
0.057294
-0.128136
-0.031900
-0.077609
0.005682
0.238405
0.103591
-0.176890
0.064529
0.082504
0.102702
-0.068900
-0.180579
-0.092925
0.109027
0.218646
-0.066138
-0.064935
0.013176
0.102202
-0.055788
-0.074006
-0.065753
0.003630
-0.023813
0.089828
-0.005220
0.029614
0.041829
0.006959
0.128748
-0.035676
0.116729
-0.029805
-0.147966
-0.017852
-0.101203
0.091826
-0.016825
0.012648
0.101686
-0.060572
0.148281
-0.087157
0.029247
0.146020
-0.031890
-0.075827
-0.258951
0.102265
-0.115622
-0.010207
0.105343
0.054864
-0.084865
0.091169
0.037437
-0.057272
-0.011820
0.031980
-0.059935
0.047526
-0.065993
-0.011038
-0.257723
0.113042
-0.151518
-0.034465
0.056329
0.065969
0.045131
0.089881
-0.208505
0.005853
-0.066495
-0.253594
0.001520
0.033153
0.041624
-0.143947
0.080162
0.061770
-0.142873
0.051083
0.028810
-0.025091
-0.109582
-0.024009
0.244711
-0.189359
0.041638
0.016438
-0.143916
-0.023397
-0.036402
-0.003718
-0.001620
-0.046088
-0.099633
-0.042487
-0.015103
0.067671
0.015359
-0.022822
0.058218
0.021992
0.010213
0.095207
-0.019009
-0.015986
0.022452
-0.092800
-0.081891
-0.045144
0.028887
-0.019758
0.086813
0.071651
0.040305
0.113485
0.020380
-0.078544
0.021279
0.013571
0.066709
-0.027225
0.052348
0.017807
-0.084072
0.019974
-0.110383
0.009047
0.136531
-0.029083
-0.004187
0.033460
-0.022379
-0.092389
-0.116314
0.048629
-0.177166
-0.013086
0.045252
0.039451
0.026752
0.036955
-0.084630
-0.148961
0.059275
-0.048276
-0.151180
-0.067426
-0.065542
-0.089137
0.034211
-0.084391
0.015747
-0.015439
0.068902
0.043564
-0.047499
-0.009160
0.057107
0.032670
-0.075749
-0.105304
0.008313
0.069771
0.040608
-0.005404
-0.065475
0.128439
0.031059
-0.093607
0.021043
-0.079562
-0.087058
-0.001531
-0.079554
-0.003890
-0.080814
0.097659
0.060425
-0.165124
-0.026206
0.018566
0.026091
0.072100
0.095099
0.029625
0.089228
0.116089
0.008514
-0.252531
0.023465
0.041754
0.024285
-0.145789
0.030971
-0.073527
-0.020035
-0.080211
0.000282
0.015736
0.003150
-0.106156
0.059687
0.073650
0.048179
-0.038166
0.033978
-0.113711
0.047102
-0.053552
0.051732
0.026433
-0.087012
-0.019483
0.012860
0.096257
-0.052422
0.046342
-0.105127
-0.069197
0.005905
-0.015090
0.049595
0.000746
0.100498
-0.037889
0.071108
-0.002522
0.113972
-0.086607
-0.159330
0.089201
-0.039520
-0.007129
0.062158
0.017163
0.039348
-0.121514
-0.029720
-0.321233
-0.012085
-0.046481
0.010740
0.101612
0.149827
-0.125359
0.086864
-0.087455
0.001326
-0.001607
-0.028959
-0.128079
0.087232
-0.032846
-0.038361
0.036372
0.164794
-0.082212
-0.010296
-0.086426
0.094914
-0.063152
0.079194
-0.106271
0.025879
-0.004480
0.091272
-0.079633
-0.071568
0.042402
0.034711
0.008082
-0.013627
0.007054
0.052681
-0.048156
0.052228
0.012558
-0.016686
0.009264
0.010841
0.032385
-0.028166
-0.028247
-0.016213
0.031637
-0.036481
-0.048707
-0.053127
-0.065179
0.058247
0.060122
-0.076476
0.021091
0.002224
-0.124083
0.132895
0.014582
0.080471
-0.015738
0.064135
0.052075
-0.036769
0.065502
0.025951
0.113436
0.075671
-0.083328
0.008713
0.011146
0.065667
0.039573
-0.011709
-0.020478
-0.147488
-0.022140
-0.039302
0.024567
0.102263
0.036082
-0.044561
0.090131
-0.107877
-0.010952
0.037931
-0.050513
-0.026386
0.036619
-0.018906
0.067891
-0.024744
-0.050730
0.019948
-0.018950
-0.057595
-0.141869
-0.246161
0.075940
-0.107507
-0.008976
0.010574
-0.067905
-0.006041
-0.030895
-0.007330
-0.019106
-0.032901
0.059403
-0.048571
-0.022567
0.042763
0.083703
-0.002761
-0.004518
-0.110880
-0.040400
0.007222
-0.113017
0.036579
0.003191
0.088116
0.029938
0.024454
-0.069548
-0.077990
0.010060
0.076604
-0.112435
0.203378
0.032438
0.094813
-0.087311
-0.092421
0.057791
0.049742
0.190426
0.148999
-0.041771
0.106792
-0.166335
-0.004464
-0.109224
-0.054661
-0.032726
-0.067091
-0.055585
-0.094865
0.013807
0.056573
0.052521
-0.010574
0.029941
-0.006239
-0.181818
-0.004254
0.061424
-0.102650
0.047039
0.034273
0.081206
0.046333
0.088999
0.087713
-0.008987
0.086622
-0.031408
-0.030332
-0.069678
-0.019995
0.073480
0.076720
-0.096053
0.042995
0.088083
-0.025894
-0.029871
-0.029055
-0.172857
0.187717
0.036750
-0.094015
0.083291
0.043080
0.060333
-0.003866
-0.147079
0.054494
-0.037272
0.018489
-0.205585
-0.106537
0.047188
0.064842
0.031458
-0.041565
-0.105625
0.110609
-0.020739
-0.005820
-0.082126
-0.077627
-0.010493
-0.012070
-0.024979
-0.043026
-0.042888
-0.052490
-0.057978
-0.083707
0.009825
0.037909
-0.007913
0.071318
0.027706
0.041651
0.013801
0.035195
-0.098746
-0.059894
-0.004677
0.032079
-0.135655
0.031031
-0.005233
0.106049
-0.033053
-0.049726
-0.133206
0.094681
0.039120
-0.101325
-0.087470
-0.002878
-0.008514
0.067562
-0.033290
-0.017925
0.086069
-0.098329
0.059605
0.046282
-0.087809
0.022363
-0.027884
0.044219
-0.147111
-0.087452
0.036478
0.008861
-0.142415
0.089801
-0.183479
0.157586
0.126566
0.038072
-0.061299
0.008172
-0.071305
-0.035651
-0.017146
-0.063178
-0.109013
-0.028513
0.021181
0.077471
-0.033294
0.042510
-0.133654
-0.040555
-0.067533
-0.000037
-0.040090
0.294245
0.020372
0.055244
0.034229
0.036473
-0.181910
0.048640
-0.020076
-0.144678
0.043746
0.024588
0.036797
0.189511
-0.067760
0.006627
0.028540
-0.156268
-0.025346
0.046789
-0.110136
0.111591
-0.027707
0.095056
-0.073697
0.031505
0.085386
-0.087113
-0.018346
0.077730
0.061627
-0.002856
-0.070379
-0.033783
0.038378
-0.013855
0.063133
0.036924
-0.024257
0.003862
-0.121230
-0.085287
-0.068513
0.042500
-0.090339
-0.058060
-0.072204
-0.023342
-0.043911
0.040010
0.104369
0.081508
0.113898
-0.094670
-0.090702
-0.187353
-0.050981
0.017710
-0.088972
-0.012425
0.098678
-0.066773
0.077809
0.048267
-0.086605
0.039182
-0.015106
-0.032806
0.015515
-0.008205
-0.143783
0.148342
-0.029383
0.025936
0.016633
0.081575
0.044133
-0.067295
-0.059388
0.078284
-0.050944
0.074269
-0.210541
-0.027068
-0.013889
-0.069231
0.021187
0.035838
-0.075432
-0.052197
-0.035981
-0.027165
0.051116
-0.125556
-0.047928
-0.014617
0.019927
0.032391
-0.025270
0.068340
0.079838
-0.063145
-0.093454
0.016993
0.014642
0.052841
0.101818
-0.043121
-0.153563
0.037789
0.077745
0.062704
-0.078034
0.027086
-0.117539
-0.003577
-0.036971
-0.093512
-0.071774
-0.091686
-0.056697
0.084574
-0.116555
0.018045
-0.088140
0.007709
0.075986
0.007845
-0.058492
-0.043613
-0.049908
0.121950
-0.050707
0.046606
0.036882
-0.038521
-0.107735
0.032918
0.036024
0.039686
-0.047084
0.028633
-0.030558
-0.009252
0.050261
-0.025774
-0.110224
0.139306
0.008077
0.011876
0.005200
-0.017164
-0.001607
-0.039036
0.070308
0.033530
-0.046505
-0.066979
0.031912
-0.111142
0.021482
0.118171
0.063656
0.113210
-0.059423
0.175058
-0.135727
-0.032035
-0.026314
-0.085374
0.013922
0.043713
0.056952
0.102739
-0.072315
0.089613
-0.096975
-0.071949
-0.142334
0.036395
-0.099725
0.016246
0.072357
0.021894
-0.069515
0.012813
0.003327
0.033478
0.048311
0.021648
0.016549
-0.023795
0.034113
0.038359
0.042225
-0.052297
-0.055416
0.024906
0.021670
0.029213
-0.114962
-0.003163
0.091379
-0.109345
0.071932
0.032571
0.028798
0.004440
-0.101628
-0.117804
-0.027755
0.091593
-0.140121
0.162001
-0.031071
-0.154400
0.006289
-0.003949
0.017024
0.013927
-0.025769
0.049612
0.074194
0.000912
-0.104320
-0.041123
0.014989
0.045168
-0.068583
0.047627
0.025027
-0.019721
-0.024526
0.029051
-0.067285
0.048940
0.012391
0.042390
-0.103773
0.000240
-0.039813
0.008342
-0.046100
-0.051754
-0.082691
-0.011440
0.011496
-0.123246
-0.044393
0.017514
0.024475
0.092886
0.093483
0.081694
0.097335
-0.123861
0.069730
-0.039594
-0.089144
0.028432
0.046886
0.109409
-0.049540
-0.007037
0.078496
-0.085078
0.050057
0.006483
0.019726
0.072019
-0.136606
0.005810
-0.043915
0.043207
-0.134309
-0.115329
-0.065927
-0.046595
0.073772
-0.048150
-0.039547
0.044976
0.006001
0.027742
-0.014072
0.013086
0.038324
-0.036216
0.040125
0.001570
-0.071774
0.033375
-0.007506
0.089801
-0.058513
-0.004577
-0.058267
-0.103186
-0.019188
0.071315
-0.188032
0.134304
-0.069036
0.063909
-0.085220
-0.014747
-0.032807
-0.024662
-0.045430
0.103049
0.018419
-0.002061
0.025421
-0.125273
-0.045288
0.033190
0.012790
0.020366
-0.040580
-0.128513
-0.084994
-0.035248
-0.036358
-0.110554
0.085662
0.066300
-0.060179
0.071156
0.008969
-0.039289
-0.122296
0.029007
0.120642
-0.039894
-0.051015
-0.066633
-0.043658
-0.024794
0.100020
0.146135
0.009939
0.069407
-0.009549
-0.023184
0.053511
0.085939
-0.089038
-0.059441
-0.008450
0.023983
-0.026186
-0.033338
-0.119485
0.032022
0.092548
-0.104047
-0.012256
0.189149
0.056000
-0.035142
-0.006002
-0.124897
-0.132930
0.052273
0.079728
-0.116184
-0.056138
0.107110
0.005495
0.092185
-0.299684
0.024884
-0.132362
-0.050352
-0.005838
-0.104160
-0.158141
0.106322
0.019830
-0.040055
-0.045129
0.078452
-0.251265
0.026887
0.006683
-0.064365
-0.053570
0.025182
0.118314
0.025152
-0.091829
0.040969
0.086929
-0.011446
-0.121305
-0.083529
-0.072228
-0.058759
-0.019319
0.030463
-0.061501
0.048528
-0.110078
-0.063679
-0.003694
0.039912
-0.047075
0.070886
-0.009701
0.058540
0.029578
-0.049984
-0.022288
0.019385
0.112537
0.042666
-0.012826
0.114280
-0.111320
-0.112907
-0.085668
-0.080474
-0.008202
0.059870
0.157612
0.121207
-0.040901
0.101063
-0.152067
-0.169497
-0.110885
0.078975
-0.150861
-0.032130
-0.058779
-0.032324
-0.088354
0.052151
-0.065367
0.102371
-0.106053
0.016200
0.004804
-0.045656
0.015097
-0.104612
-0.053125
0.019689
0.115684
0.019513
-0.029627
0.047484
-0.002695
0.013520
0.032834
-0.037887
0.017013
-0.121534
0.032137
-0.019912
0.047536
-0.040325
0.072861
0.041273
0.125155
0.083515
-0.147858
0.189290
-0.008380
-0.039196
0.184715
-0.022021
-0.099395
0.132754
0.028722
0.046871
-0.274199
0.066142
-0.208268
-0.125335
0.025910
-0.020199
-0.017821
0.055309
-0.118006
0.010390
-0.012186
-0.015591
-0.025625
0.003575
-0.019592
0.130177
0.053010
0.033859
-0.020970
-0.064095
0.044362
-0.132413
-0.004842
0.059799
-0.017438
0.026982
-0.122516
-0.050754
0.152399
-0.015992
-0.025084
-0.069877
-0.029243
-0.050704
0.049176
0.005888
-0.005008
0.010810
-0.010738
0.005241
-0.068011
0.012337
0.020987
0.003025
0.113392
-0.128292
0.010324
0.126081
-0.032435
-0.176936
-0.008142
0.161718
0.070488
-0.030948
0.093108
-0.029972
-0.007858
0.048971
0.005060
0.028653
-0.021200
-0.007638
0.002674
-0.012631
-0.057064
0.020346
0.024436
0.086884
-0.039316
0.063734
-0.033676
-0.003832
-0.082184
0.113133
-0.045531
0.057255
-0.081107
-0.064801
0.143871
-0.052621
-0.104165
0.085466
-0.142903
-0.027034
0.087717
-0.076884
0.054005
-0.211109
0.025777
-0.042496
-0.105966
0.080051
0.018916
-0.096406
0.118278
-0.109091
0.185610
-0.118284
0.085284
-0.062683
0.004390
-0.052638
0.025343
-0.157154
-0.094862
-0.024862
0.143311
0.058469
0.017615
0.004190
-0.089022
-0.086448
0.009911
-0.060834
-0.017813
0.079724
0.058026
0.047567
-0.058839
0.077300
0.041142
-0.028704
-0.068677
-0.179559
0.042749
-0.026178
0.066437
0.002143
-0.007609
0.046407
0.019159
-0.057387
-0.035991
-0.013092
-0.049111
0.062638
0.065703
-0.026744
-0.131184
-0.132056
-0.017106
0.015063
0.100038
-0.055779
0.080566
-0.011814
-0.008979
-0.123498
0.022079
-0.146148
-0.016178
0.049652
0.010902
0.001608
0.008542
0.007619
0.079080
0.017879
0.066983
0.102641
-0.029797
0.094731
-0.015419
-0.034937
-0.039464
-0.034546
-0.044768
-0.033680
-0.097600
0.022521
0.051635
-0.136669
0.001081
0.019991
-0.002194
-0.022665
-0.010626
0.033131
0.006484
0.071607
0.015820
-0.132966
-0.037949
-0.022283
0.023128
-0.026423
0.060588
-0.113549
-0.042266
-0.138342
0.007369
-0.106074
0.109560
0.035937
-0.001398
-0.068927
-0.019233
-0.147760
-0.130327
-0.091169
-0.069323
-0.108754
0.144412
0.029470
0.030148
0.095292
-0.062021
0.044478
-0.087613
0.230141
0.077685
-0.025260
0.039108
-0.136974
0.018126
0.046445
-0.240997
-0.024555
-0.065814
0.153623
0.024032
-0.102656
-0.078681
-0.089587
0.149035
0.000889
-0.148441
-0.044952
0.045185
0.134754
0.036344
-0.080535
0.006279
0.051977
-0.038821
-0.068359
-0.042750
-0.021698
-0.057358
0.089690
0.100338
-0.080478
-0.023475
0.212682
-0.086325
0.047937
-0.046308
-0.216947
-0.135544
0.008504
-0.010871
0.027281
0.050462
0.032618
0.038011
0.056289
-0.115611
-0.179487
0.029978
0.045804
0.089448
-0.008119
0.029087
-0.148573
-0.025600
0.035251
-0.085044
-0.153487
0.068453
-0.008147
-0.001098
-0.033643
0.092217
-0.149752
0.069501
-0.165740
-0.021389
-0.036928
0.016754
-0.048280
-0.060315
0.070451
0.004764
-0.086539
0.053092
-0.188530
0.116431
0.031485
-0.005557
-0.043305
0.114446
0.018937
-0.043222
-0.027848
-0.057411
-0.113344
-0.029379
-0.011941
0.065342
0.098100
-0.044560
0.146119
-0.025724
-0.076650
0.129509
-0.001380
-0.271279
-0.161707
0.166149
-0.133390
0.053247
-0.075017
-0.017514
-0.100640
0.002708
-0.151607
0.143917
-0.040362
0.048923
-0.051376
0.007791
-0.076885
0.117952
-0.208304
-0.010332
-0.203014
0.181152
-0.002785
-0.028231
-0.023469
-0.019237
-0.181671
0.113219
0.126682
-0.176104
-0.052705
0.105201
0.142887
-0.062383
0.009933
0.032765
-0.186621
-0.083996
0.078643
-0.176368
0.026345
-0.140447
0.072209
-0.023240
0.182986
-0.158185
0.173538
-0.055553
0.132413
-0.048881
-0.208683
-0.088972
0.008648
-0.173806
0.043986
-0.070290
-0.057083
0.026899
0.072295
-0.019436
-0.002676
-0.017520
0.010169
0.045287
0.040508
0.011399
-0.142216
0.050117
-0.040862
0.009938
-0.047228
0.055164
-0.075331
0.004909
0.040497
0.061403
-0.067702
-0.046172
0.013829
-0.034067
0.016208
0.056171
-0.017018
0.068708
0.027922
-0.012659
0.002231
-0.018555
-0.036055
-0.023292
-0.082605
-0.108272
0.039160
0.017735
-0.205687
-0.013241
0.099283
0.048671
-0.023467
-0.000474
-0.032914
-0.069874
0.092574
-0.004627
0.000356
0.019502
-0.030098
-0.050563
0.036154
0.019521
0.032958
-0.005143
0.002599
-0.159191
0.056538
-0.040141
-0.029530
-0.087755
0.090457
0.036964
0.047917
0.015134
-0.034102
-0.007744
0.097191
0.032455
-0.045863
0.054590
0.046450
0.026964
0.051202
0.075595
-0.055927
0.079436
-0.041515
-0.009630
0.081708
-0.039757
-0.014052
0.059270
-0.007500
-0.121007
-0.027224
-0.014336
-0.080641
0.035155
0.065119
-0.072652
-0.044965
0.042705
0.015365
0.171971
0.049183
0.001400
-0.123073
-0.082828
0.035877
-0.018947
-0.017927
-0.057024
0.023657
0.081674
0.003361
0.026967
-0.018176
-0.050103
-0.007892
-0.016088
0.053041
0.021061
-0.040642
0.035672
0.046616
0.081001
-0.044539
0.119780
0.033066
-0.030958
0.040832
-0.008771
-0.064168
0.024507
0.000687
0.025859
0.064801
-0.104840
0.111690
-0.033267
0.011540
-0.021568
-0.050824
-0.030195
0.033102
-0.087352
0.029332
-0.131504
0.081879
-0.157072
-0.032859
0.035194
0.047374
0.001908
0.028304
-0.081338
-0.006853
-0.076867
0.084714
0.023632
-0.031639
-0.096654
0.068574
-0.036262
0.098996
-0.003514
0.094070
0.015295
0.059420
-0.065034
-0.065870
0.078319
0.018734
-0.045569
-0.102842
0.051548
0.049022
-0.054133
-0.045565
0.030161
0.056642
0.072739
0.042386
-0.010624
0.039067
-0.069889
0.027133
0.071711
0.067568
0.015524
0.002379
0.052101
-0.059691
0.063973
0.026729
-0.075014
0.040486
0.016427
0.102117
0.056219
-0.000162
0.012378
-0.035787
-0.041079
0.123321
-0.061710
0.079500
0.022734
-0.045849
-0.016397
-0.083750
-0.057380
0.077258
-0.046981
0.038405
-0.023770
0.055623
0.033202
0.048250
0.070935
0.097550
-0.084310
0.000405
0.011173
0.013918
-0.039457
-0.102143
0.016780
-0.135664
-0.024317
0.040404
-0.033710
-0.032710
-0.020216
0.023027
0.022064
-0.003848
0.034877
-0.050964
0.064435
-0.072853
-0.005211
-0.010282
-0.061587
0.015106
-0.002594
0.051425
0.055961
-0.101338
0.069711
-0.004888
-0.031553
0.003418
-0.031020
0.052384
0.141639
0.083363
0.012203
-0.002934
-0.057674
-0.005731
-0.055679
0.016615
-0.038103
-0.096577
-0.006455
-0.037465
0.098522
0.004206
0.005146
-0.015357
0.020777
0.074442
-0.156409
-0.003891
-0.154374
-0.007067
-0.007941
0.033625
-0.003335
-0.111440
0.052695
-0.039488
-0.035669
-0.011171
-0.099841
0.015987
0.041673
0.005963
-0.047859
-0.074205
-0.006139
-0.029981
0.071458
-0.178945
0.089111
-0.110647
-0.034211
-0.009798
0.125911
-0.011199
0.038338
0.051005
0.124090
0.001010
-0.009739
-0.072298
0.024892
-0.035308
0.036677
-0.071471
0.019925
-0.015907
-0.066394
0.019812
-0.083949
0.047674
0.126892
-0.000923
-0.092718
-0.052778
0.048377
-0.068133
-0.136898
0.014437
-0.022725
0.099765
-0.040860
-0.081460
-0.013002
-0.093678
0.110385
-0.071301
-0.099822
-0.023672
0.176618
-0.083494
0.038137
-0.069019
0.055340
0.147943
0.152221
-0.094063
-0.159917
-0.159564
-0.010542
-0.111461
-0.046786
0.056926
0.115248
0.186647
0.076779
-0.177414
-0.226264
-0.192566
-0.137155
0.015327
0.045287
-0.041405
0.097383
-0.016995
0.110852
0.006264
-0.116982
-0.077709
-0.011714
0.044334
0.153960
0.002082
0.067259
-0.096129
0.030778
-0.115950
0.005069
-0.165307
0.025610
0.020025
-0.076475
-0.046341
0.005654
0.031614
0.027365
-0.049560
-0.034067
-0.014367
0.020430
0.138622
-0.199594
0.031917
0.033266
0.084989
-0.050111
-0.150953
0.044819
0.024589
-0.062924
-0.040747
-0.074680
-0.069192
0.000380
0.057421
0.208297
0.049214
-0.102738
-0.029434
0.023728
-0.033713
0.118114
0.033509
-0.014393
-0.065362
-0.003195
-0.066119
-0.046044
-0.056075
0.093082
-0.027605
0.088610
-0.126081
0.069753
-0.094931
0.042718
-0.083267
0.059674
-0.026305
0.125631
-0.143007
-0.094831
-0.000597
-0.062805
-0.058380
0.133928
-0.208985
0.169223
0.008311
-0.049533
0.078570
-0.143367
0.043368
-0.069716
0.015304
-0.057848
-0.200141
0.091246
0.048733
0.081239
0.112329
-0.208487
0.029047
-0.083889
-0.147591
0.140717
-0.206007
-0.086131
-0.110828
-0.009720
-0.041621
0.000978
-0.022739
0.034695
-0.066356
0.052722
0.136733
-0.025360
0.130410
0.012742
0.026379
0.080918
-0.033857
-0.015163
-0.007865
-0.008728
-0.029363
-0.104629
0.029558
0.013870
-0.138999
-0.048273
-0.076515
0.012263
-0.069768
-0.099633
-0.103558
0.049212
0.036618
-0.075914
0.048934
-0.025501
-0.048629
-0.008823
0.095315
-0.146791
-0.042810
0.046377
0.054321
-0.088273
0.307412
-0.044994
0.006991
-0.015826
-0.111405
-0.331057
-0.154608
0.042367
-0.126328
0.048440
0.010294
-0.049509
-0.041213
-0.007425
-0.018168
-0.020140
-0.081783
-0.063858
-0.041885
0.008749
0.130680
-0.066543
0.000494
0.095249
0.001597
0.037369
-0.073330
-0.060760
0.041262
0.065628
0.007741
-0.007611
0.031449
0.011343
-0.067635
0.083497
-0.030540
0.084245
-0.015441
0.057544
-0.056757
0.074399
-0.011552
0.038881
-0.029368
-0.136612
0.036005
0.022795
0.018027
-0.037204
-0.041189
-0.008358
-0.023876
-0.044888
-0.015402
-0.073797
0.086191
-0.044540
0.064777
0.035222
-0.048527
0.052957
0.031592
0.026106
-0.052070
0.053110
0.061043
-0.014034
-0.036060
-0.034071
-0.007881
0.066220
0.011338
-0.001343
-0.016291
0.047229
0.093213
0.032172
0.028782
0.136189
-0.070245
0.035330
-0.062932
0.050173
-0.073620
-0.091019
-0.012972
0.056311
0.071195
0.023362
-0.028148
0.007309
-0.034157
-0.026855
-0.095437
-0.074600
-0.061735
0.022628
0.043078
0.005097
-0.049327
0.000556
0.025737
-0.000436
-0.062027
0.029912
0.024151
0.023716
0.066000
-0.015001
-0.027283
0.030336
0.050116
0.037695
-0.000615
0.030875
0.026404
-0.026054
-0.015048
0.011355
-0.005572
0.000358
0.027165
0.021169
0.073073
-0.119960
0.108435
0.097294
0.029769
-0.015130
-0.042755
-0.008030
0.040467
-0.036144
-0.017912
-0.031084
0.018759
0.022392
-0.040521
0.034559
0.008379
0.008065
-0.068945
-0.035179
0.096189
0.008133
0.065315
0.082263
0.038640
-0.011803
-0.083456
0.040700
-0.044408
-0.112747
0.113202
-0.101459
0.025768
-0.034783
0.055385
-0.021731
-0.010675
-0.016870
0.083770
-0.068676
0.170527
-0.084012
-0.022300
-0.021162
0.095820
-0.053501
-0.023479
-0.071240
0.031462
-0.074757
0.051475
-0.063613
0.021236
0.003974
-0.047547
-0.027142
0.025550
-0.051258
0.085633
-0.049693
0.036603
-0.075719
-0.010349
-0.003214
-0.080025
-0.122529
0.013511
0.008862
0.011287
0.101046
-0.004337
-0.090187
0.009623
0.029420
-0.004531
-0.025982
-0.053613
0.050009
0.033670
0.003722
0.036732
0.063655
-0.070294
-0.046981
0.084322
-0.052015
0.086686
0.050805
-0.000355
-0.051806
-0.033091
0.039810
0.002276
-0.101155
0.038651
-0.053012
0.046940
-0.059433
-0.073907
0.032887
0.032788
-0.072437
0.007526
-0.068507
0.003436
-0.019340
-0.022658
0.018434
-0.141310
-0.025592
0.020794
0.066908
0.048936
0.011251
-0.020206
0.032945
0.143306
-0.025488
0.007774
-0.043237
0.008060
-0.029418
0.040560
-0.035512
-0.038025
0.017402
0.018985
-0.042497
-0.036559
0.020335
0.073087
0.011854
0.006993
-0.038857
-0.044590
0.067642
-0.016451
-0.130667
-0.066437
-0.126107
0.174138
0.047063
0.039609
-0.133321
-0.140396
0.003277
0.062266
0.146934
0.048810
-0.043458
-0.076197
0.006013
-0.008859
-0.176238
-0.159278
-0.077561
0.104996
0.101151
-0.035226
-0.025435
0.057198
0.089143
0.037278
-0.072783
-0.019088
-0.058564
0.081525
0.084527
-0.094420
0.011971
0.078266
0.008896
-0.112340
-0.008165
-0.069795
0.080625
0.052935
-0.056869
-0.045805
-0.014184
0.048962
0.080544
0.129211
-0.137704
-0.046041
-0.009203
-0.011724
0.048024
0.033566
-0.043253
-0.041852
-0.054248
0.016680
-0.047435
0.010224
0.000168
0.075540
0.085977
-0.043117
0.019812
-0.188275
0.061193
-0.040295
0.047090
-0.057511
-0.080114
-0.019633
0.007212
-0.028914
0.042643
-0.032124
0.057021
0.002786
0.015508
0.018537
-0.051673
-0.001349
-0.038555
-0.097532
0.112842
-0.028615
0.046189
-0.036826
0.036573
0.026287
0.021041
0.003191
-0.192218
-0.091228
-0.032300
-0.025755
-0.011329
0.018600
0.110950
-0.080615
-0.000199
-0.032251
0.050687
0.056892
0.016119
-0.072269
0.056492
0.044218
0.042024
-0.007523
-0.120311
-0.117718
0.011385
0.027235
0.060384
-0.147476
0.020645
0.075251
0.008428
-0.034626
-0.062796
-0.066198
-0.068544
0.067390
0.002458
0.019443
0.005520
0.087358
0.125358
0.049247
-0.009623
0.016592
0.063645
0.000339
0.050414
-0.054325
0.044530
0.000376
-0.012146
0.019537
-0.032791
-0.101653
-0.048661
0.032823
0.145048
-0.060671
0.032419
0.052185
0.015809
0.034036
-0.049135
-0.120859
-0.073539
0.119761
0.064487
0.011980
-0.040627
-0.039550
0.082492
-0.037681
-0.052947
-0.110180
0.171890
-0.031094
0.031022
-0.048170
-0.053578
-0.004255
-0.013312
-0.116169
-0.057409
-0.092140
0.024059
-0.011296
-0.031031
-0.053062
-0.132461
-0.057887
0.019402
-0.011895
0.022556
-0.080778
0.045675
0.041338
-0.012833
-0.076745
0.016865
0.051837
0.024823
0.062591
0.007637
0.120905
-0.063533
0.048463
-0.035554
0.038131
0.015417
-0.007198
-0.113748
-0.022341
-0.008335
0.016993
0.017611
-0.096283
0.056014
-0.027605
-0.173476
0.044827
-0.008165
0.055255
-0.082489
-0.004495
-0.024067
-0.037282
0.093228
0.077076
-0.127043
-0.023866
-0.086748
-0.085379
-0.068869
-0.032693
-0.074835
-0.063767
-0.097752
0.122714
-0.104175
0.042653
-0.057433
-0.048123
0.061569
0.043692
-0.033175
0.026975
-0.070207
0.056546
0.043029
0.026904
-0.017510
-0.027896
0.011999
0.065478
-0.103396
0.052962
-0.100016
-0.050712
0.016152
-0.112180
0.041018
0.087732
-0.070063
-0.038397
-0.105240
-0.063625
0.112434
-0.026911
0.018078
0.030734
0.091640
-0.094315
0.068544
0.101669
-0.002225
0.090814
-0.173814
0.059369
-0.015748
0.038930
-0.040830
-0.026849
-0.001023
0.056957
-0.123253
0.076873
0.136418
0.118305
-0.413723
0.101932
-0.016692
-0.029062
0.163794
-0.149397
-0.165664
0.217483
0.054609
0.024554
-0.254307
-0.008711
-0.197574
-0.152375
0.141299
-0.089972
0.049639
0.027775
0.096413
0.025029
0.194924
-0.065384
-0.175552
0.053734
0.111627
0.135181
0.054970
-0.072456
-0.174405
-0.023568
-0.081902
0.005962
-0.095087
0.017409
-0.168622
-0.058448
0.116378
-0.030228
-0.100358
0.022723
-0.290519
-0.085888
0.154638
0.064504
-0.086483
0.030487
-0.000039
-0.005230
-0.088115
0.042758
0.019082
-0.017118
0.062842
-0.036147
-0.131973
-0.004146
-0.015704
-0.008451
-0.061299
0.073380
0.014531
-0.012408
-0.010110
-0.131459
0.039881
-0.065074
0.037108
0.189854
0.020990
0.009570
-0.022473
0.049158
-0.039641
-0.058978
0.109291
-0.001208
0.215264
-0.144685
-0.145324
-0.175862
0.073058
-0.111917
-0.187431
0.120635
0.011438
0.035312
0.182822
-0.044340
-0.002434
0.048511
0.081440
-0.108142
-0.143660
0.112071
-0.028515
-0.089884
0.070528
-0.049620
0.020615
-0.000595
0.092044
-0.185827
0.028170
-0.030472
-0.022854
0.059654
0.014093
-0.016375
-0.088774
0.016133
-0.014419
0.051648
0.023752
0.040002
-0.079328
0.020882
0.134085
0.042972
-0.193662
-0.163850
-0.036147
0.106019
0.025796
-0.101555
-0.026384
-0.003128
0.032679
0.008747
0.102727
-0.192645
0.138346
-0.042159
0.004352
0.003623
0.015112
-0.028824
-0.055893
-0.037778
0.061565
-0.053115
0.252888
0.155329
-0.119005
0.063258
-0.018835
0.102154
-0.115988
-0.072369
-0.030001
-0.020331
-0.031614
0.075310
-0.025096
0.026566
0.054357
0.087906
-0.081184
0.069831
-0.015339
0.059439
-0.069466
0.035463
0.063657
0.005939
-0.062631
0.022581
0.055134
-0.092226
-0.111468
0.025710
0.034666
0.027320
0.038769
0.038430
0.136483
-0.021606
-0.062870
0.079486
-0.122076
-0.011636
0.002589
-0.028377
-0.048734
-0.096314
-0.053574
-0.016948
-0.009416
-0.030680
0.039174
-0.133096
0.038572
-0.072608
0.058561
0.002117
-0.064381
0.051016
0.011485
0.113709
-0.046872
-0.167197
-0.025287
-0.061284
0.013009
-0.042539
-0.018538
0.019920
-0.017361
0.005736
-0.003569
0.129559
-0.064162
0.037586
0.024150
0.134126
-0.013737
-0.016101
0.042539
0.042881
0.018148
-0.018616
0.063205
0.055137
-0.094481
0.030652
0.129511
-0.019577
0.054714
0.074359
-0.036220
0.012766
0.015795
-0.067078
-0.108698
0.004272
-0.033121
-0.007169
0.045089
0.079666
0.057069
-0.057726
0.005021
0.014024
-0.011826
-0.033457
-0.044873
-0.117323
0.047467
-0.054646
-0.015473
-0.016841
0.066570
0.069528
0.010643
-0.062326
-0.042351
0.017034
-0.016005
-0.022032
-0.050373
-0.003068
0.011609
0.044458
0.106412
0.079238
0.015668
0.023803
0.035150
-0.076302
0.054848
-0.014505
0.103779
0.008185
-0.008900
0.054979
0.021787
-0.005767
-0.026529
0.024293
-0.141274
0.012840
0.103780
0.051550
-0.027697
0.030353
-0.049739
0.015484
0.029457
0.025283
-0.064084
-0.083994
0.127895
0.024558
0.017686
-0.038171
-0.030844
-0.030032
0.028535
-0.108349
0.031434
-0.093069
0.007206
0.036941
0.003583
-0.064326
-0.087971
-0.073885
0.021323
-0.051626
0.036869
-0.116948
0.136992
0.052286
-0.022281
0.050125
-0.027540
-0.032536
-0.129358
-0.024444
0.043103
-0.060802
-0.020458
0.078113
-0.102256
-0.022950
0.009144
0.014955
0.147287
-0.026396
0.050100
-0.068028
0.040895
0.051313
-0.074803
-0.062366
-0.032938
-0.020951
-0.074480
-0.082540
-0.029268
-0.005363
0.002513
-0.151691
0.023900
-0.091679
0.006924
0.117163
0.013476
0.030300
0.050546
0.093237
0.095521
-0.092460
0.045955
0.017056
-0.061741
0.019095
0.078064
-0.062166
0.056126
0.089206
0.053974
-0.193519
0.050945
-0.017313
-0.072840
-0.006489
-0.096111
0.043448
-0.007493
0.227158
0.013596
-0.073064
-0.101888
-0.212581
0.066764
-0.123828
0.089951
-0.102496
0.081067
0.018841
-0.007556
-0.067890
-0.057267
0.008676
-0.062813
-0.106118
0.029743
-0.018095
0.011682
0.081249
-0.008177
-0.016035
-0.001824
-0.029841
-0.031325
0.029770
-0.059999
0.066574
0.019809
-0.024428
-0.084905
-0.060319
0.056178
0.061540
-0.252988
-0.033976
-0.048810
0.044640
0.035567
0.047029
0.082118
-0.114065
-0.030917
-0.046022
-0.044813
0.038252
-0.024093
0.090871
0.064455
0.039698
0.165115
-0.177275
-0.197741
0.028601
0.027758
-0.001190
0.065109
-0.012668
0.041825
-0.038741
-0.139385
-0.063120
0.036385
-0.003665
0.147245
-0.061127
0.023940
0.032550
0.011220
-0.092393
-0.027394
-0.022544
0.137715
-0.003881
0.173454
-0.070321
-0.058867
0.024792
0.034161
0.020963
0.075535
-0.058261
0.107490
0.013487
0.035020
-0.075680
0.044201
0.047196
-0.044980
0.045007
-0.041261
0.049363
-0.021384
-0.095253
0.081079
0.212641
-0.143400
0.015558
-0.111294
-0.058304
-0.065562
-0.074713
-0.081961
0.031292
0.069380
0.015553
-0.016335
0.020494
-0.079305
-0.145513
-0.051274
0.099909
0.017280
-0.051285
-0.043670
0.064592
0.070859
-0.045801
-0.063638
-0.063695
0.054989
-0.003009
0.058301
-0.033210
-0.123790
-0.009127
0.145809
-0.049109
0.079378
-0.032952
0.066949
0.037195
0.111746
-0.001447
0.004388
-0.182505
0.012273
-0.048634
0.121327
-0.123758
-0.038998
-0.047251
0.172559
-0.067457
-0.055407
-0.185620
-0.135795
-0.051983
0.234626
-0.107247
0.095306
0.085551
-0.016473
0.022857
-0.081862
0.154774
0.116735
0.067743
-0.212028
-0.086836
-0.003400
-0.140054
-0.111878
-0.017019
-0.138295
0.025408
0.137847
-0.058615
-0.060130
0.046866
-0.042096
-0.100038
0.105931
-0.095961
-0.043854
0.002774
0.083141
-0.148866
0.056781
0.049501
0.103578
0.029855
-0.108877
-0.168384
-0.123729
-0.023954
0.023154
-0.117345
0.120696
0.037312
0.037327
0.053635
0.037481
-0.247790
-0.067219
-0.236796
-0.031858
0.101836
0.222815
0.081028
-0.096676
0.015750
0.017692
-0.160403
-0.070884
0.159033
0.108295
-0.229663
-0.145952
-0.163101
0.078049
-0.082781
-0.111088
0.039098
0.084649
0.144633
0.070228
-0.144509
-0.095970
-0.024772
0.098579
-0.179592
-0.060684
-0.041336
-0.095999
0.059667
0.114477
0.028018
0.019199
-0.048680
0.094223
-0.191655
0.037192
-0.073741
-0.122235
-0.029071
0.061114
-0.088637
0.089794
0.160738
-0.097783
0.109439
-0.033796
-0.160670
-0.135338
0.044755
0.145769
0.059898
-0.034058
-0.075269
-0.016609
0.131602
-0.019598
-0.180845
0.059713
-0.031604
-0.009862
-0.013599
0.181483
-0.261530
0.140825
-0.037736
0.045539
-0.030377
0.085016
-0.089959
0.029707
0.150516
0.058455
-0.170057
0.111143
-0.043815
-0.048751
0.020203
-0.050299
-0.025489
-0.008116
-0.031366
0.125794
-0.046088
-0.021816
-0.085321
-0.025700
-0.176395
-0.011765
-0.101606
0.119623
0.032053
-0.101381
-0.056293
-0.015617
0.094802
0.047940
0.107700
-0.041135
0.132371
-0.094171
0.158765
-0.189959
-0.096736
0.110357
0.122470
-0.052564
-0.025424
0.042437
0.014560
-0.017020
0.046982
0.128161
-0.040392
0.120580
-0.200938
-0.039711
-0.115050
0.109543
-0.009161
0.063895
0.028696
0.035584
-0.284502
0.056354
-0.078245
-0.072127
0.048733
-0.015303
0.095045
-0.007165
-0.033048
0.007958
-0.110268
0.007100
-0.111267
0.137992
0.079276
-0.092893
-0.078209
-0.021014
0.019492
-0.045047
0.055834
0.050469
-0.016653
-0.063319
0.151298
-0.085181
-0.020166
-0.000201
-0.098148
-0.019488
0.028391
0.045917
-0.063177
-0.115832
-0.008022
-0.008057
-0.025727
0.002001
0.087443
0.058250
0.057702
-0.042444
-0.000532
0.102635
-0.019336
0.030521
0.016008
-0.044958
0.030454
0.095345
0.112646
0.033893
-0.064986
-0.024619
-0.058722
0.073615
-0.152347
-0.153540
0.072184
0.087046
0.033466
0.026979
-0.085256
-0.133332
-0.050505
0.082625
0.018156
-0.143615
0.116302
0.144005
0.097209
-0.208335
-0.034542
-0.224475
-0.009069
0.039549
-0.125390
-0.195545
0.129459
-0.022084
0.020705
-0.012793
0.071645
-0.173278
0.091891
-0.117596
0.013142
-0.058347
0.037333
0.079228
0.022144
-0.070748
0.065481
-0.078973
-0.001778
-0.052685
-0.053262
-0.119546
-0.057376
0.117477
0.076255
0.035601
0.041223
0.020472
-0.073779
0.031263
-0.026320
-0.201986
0.002961
0.126692
0.057453
0.064093
-0.003566
-0.067591
0.059749
0.100197
0.125425
-0.070613
0.170790
-0.007260
-0.117733
0.016650
-0.068543
-0.146449
0.084356
0.181573
-0.048250
-0.075632
0.220471
-0.181673
-0.146782
-0.021370
0.080854
-0.031174
0.032169
-0.113779
-0.132728
-0.031571
-0.059442
-0.018577
0.046622
0.021961
0.035495
0.024928
-0.002997
-0.060520
-0.068377
-0.110627
0.068693
0.030123
0.115809
-0.052336
-0.048401
0.145720
0.018933
0.084429
-0.117251
-0.077453
-0.058887
0.162422
0.017717
0.050370
0.083448
-0.076866
0.022351
0.104021
0.043297
-0.295409
-0.035464
0.052821
-0.131208
0.183936
-0.175787
-0.085154
0.106831
0.069045
0.063802
-0.140810
0.178702
-0.201683
-0.133843
0.164685
-0.167551
-0.015586
0.051813
-0.197589
-0.001606
-0.037016
0.081196
-0.116486
0.091719
-0.038669
0.074916
-0.025387
0.062860
-0.033461
0.045125
-0.108441
-0.016978
0.022344
0.094157
-0.088237
-0.019498
-0.004883
0.009851
0.136943
0.048950
-0.043931
0.029069
-0.039609
0.153266
-0.085177
0.027507
-0.038320
-0.013303
0.116217
0.161775
-0.042990
0.106890
-0.046812
-0.034961
0.072158
-0.172298
0.064635
0.018441
-0.124107
-0.027660
-0.064340
0.117211
-0.067876
-0.122564
0.081693
-0.049910
0.009880
0.039546
0.035788
0.048503
0.006426
-0.107348
-0.074955
0.047722
-0.020806
0.049303
-0.122721
0.028814
0.053677
0.065050
-0.072049
-0.082195
-0.078456
0.001333
-0.047630
0.061541
-0.029858
-0.167708
0.170355
-0.064694
-0.238386
0.050690
-0.136250
-0.041056
0.077480
-0.019686
0.017180
-0.210890
-0.014538
-0.133582
-0.015627
0.081488
-0.027022
-0.130110
0.114498
-0.040549
0.077189
-0.094871
-0.003499
-0.073731
-0.030765
0.152753
0.026036
-0.208822
-0.088872
-0.047100
0.049347
0.048609
0.089773
-0.037959
0.029263
-0.015417
0.122197
-0.137013
0.067166
-0.034081
-0.056215
-0.091682
0.017358
-0.014875
0.059830
0.000985
0.010970
-0.040404
0.060231
0.032473
-0.036033
0.064045
0.059908
0.032492
-0.040419
-0.037135
-0.077195
0.044409
-0.005536
-0.062553
0.033179
0.064365
0.047731
-0.009866
-0.035701
-0.082244
-0.013219
-0.056286
-0.114622
-0.019596
-0.046535
0.039674
-0.032835
-0.002546
-0.021124
-0.069431
0.029267
0.028061
-0.072083
0.012332
-0.052434
-0.067233
0.034158
-0.066512
-0.015266
0.023128
-0.038775
-0.006634
0.094033
0.010952
0.018929
-0.070347
-0.069820
0.016009
-0.155806
0.085528
-0.032943
0.043994
-0.000448
-0.000465
0.029254
-0.086778
-0.164528
0.013364
-0.059333
-0.020830
0.052649
-0.101105
-0.029508
-0.029808
0.010256
-0.072839
0.160818
0.019280
-0.022930
-0.012224
-0.034382
0.055615
0.021497
0.012686
-0.041526
0.137634
-0.035207
0.014857
-0.046089
0.025681
-0.071555
0.008998
-0.075325
0.020138
0.050096
0.015580
0.059321
-0.008894
-0.124052
0.044545
-0.055028
0.058576
-0.125654
0.098551
0.104523
0.052598
-0.204619
-0.124251
-0.141102
-0.001555
-0.008587
0.051192
0.049075
0.125655
0.079030
-0.095115
-0.109307
-0.017657
-0.068627
0.051241
0.028439
0.014450
-0.009871
0.135692
-0.048382
-0.063877
0.037924
-0.080490
0.075886
0.027265
0.059165
0.030337
-0.022137
-0.024743
-0.015265
0.043588
-0.050950
-0.031038
0.005049
0.035466
0.019290
0.000451
0.085071
-0.048989
0.068766
-0.025894
0.007450
0.077738
0.022648
-0.097630
0.072112
0.093531
0.002800
0.095209
0.088101
0.076118
0.017948
-0.017134
-0.120635
-0.009132
-0.009752
-0.082263
-0.004737
0.031246
-0.004687
0.092882
0.006767
-0.014628
0.005692
-0.047002
0.051963
0.016312
-0.056986
0.076899
-0.029933
-0.061209
-0.020291
0.035217
0.077787
-0.096633
0.063999
0.003231
-0.010658
0.011518
-0.013061
0.108893
-0.005575
-0.049326
0.048398
-0.092385
-0.041022
0.026024
0.018639
0.018490
-0.024695
0.089710
0.040269
-0.039714
0.088877
0.022991
0.100446
-0.007990
-0.010444
0.015648
-0.016187
0.054672
-0.066886
0.124448
0.073343
-0.074655
-0.030597
0.043398
-0.089686
-0.026523
-0.085810
0.094004
0.054320
-0.017628
-0.060812
-0.010011
0.024853
0.026205
-0.061174
0.034031
-0.057149
-0.064729
-0.019162
-0.036840
0.070456
0.056846
-0.009740
0.016168
-0.032172
0.027730
-0.004162
-0.000683
0.041148
-0.070063
0.049910
0.057062
-0.030447
0.005780
-0.017009
-0.036733
0.086146
-0.128492
0.034480
0.074950
0.023654
-0.048617
-0.141727
0.020581
0.123267
0.065847
-0.070495
-0.064604
-0.054244
-0.081088
0.045498
-0.059455
-0.008583
-0.049046
0.008605
-0.003025
-0.063432
0.033807
-0.056147
0.121830
0.028679
-0.112555
-0.038521
-0.062756
-0.002686
0.009499
0.004095
0.028907
0.002645
-0.026962
0.090743
-0.050962
0.034454
-0.009586
-0.004836
-0.128280
0.101967
-0.018600
0.082852
-0.150361
0.075433
-0.013890
0.037809
0.046964
0.001239
0.039007
-0.000711
-0.014494
-0.020556
-0.009256
-0.024037
0.002702
-0.089445
-0.078099
0.127808
0.083966
-0.064760
-0.040909
-0.067357
0.043446
0.069289
0.007675
0.026976
-0.020327
0.106314
-0.043967
0.033104
0.101873
-0.076995
-0.023585
0.006250
-0.016161
0.079529
0.027085
0.035153
-0.037061
-0.067480
-0.020101
0.112603
-0.053377
0.109038
-0.237961
0.014565
0.063582
0.134115
-0.084232
0.001042
-0.058128
-0.073990
-0.057563
0.048424
-0.029457
0.152973
-0.053977
0.073519
-0.006397
-0.046774
-0.118915
0.083213
-0.030369
0.002802
-0.047094
0.069339
-0.115502
-0.046756
-0.001308
0.077461
-0.037213
-0.083353
0.013653
-0.070455
0.015235
0.018713
-0.094085
0.044242
-0.066810
0.044769
-0.064142
-0.036460
0.018134
-0.057934
0.064109
0.001237
0.042678
0.139970
-0.000072
-0.083389
-0.108478
0.022278
-0.026690
0.043172
-0.019863
0.073505
0.044810
-0.020526
-0.040686
0.076009
-0.032757
-0.042401
-0.046579
-0.054732
-0.035364
0.017502
-0.065906
0.011069
-0.107357
0.023034
0.053626
-0.013751
-0.043561
-0.017997
-0.008997
-0.026758
-0.166552
-0.018654
-0.038033
-0.046804
-0.041815
0.035790
0.103358
-0.045595
0.034778
-0.040743
-0.058990
-0.080163
0.013719
0.004469
-0.042872
0.066069
-0.004449
-0.041946
0.066183
0.028220
0.012216
0.074753
0.033067
-0.029080
0.010260
0.056485
0.009548
0.009593
0.049696
-0.029976
0.045858
0.062782
-0.125604
0.034831
0.076349
-0.046565
-0.032452
0.008820
0.036833
0.007269
-0.042188
0.104050
-0.148649
0.081209
0.035169
0.015273
0.031048
-0.035482
0.025141
-0.081003
-0.045876
-0.211407
0.071520
-0.017830
-0.069947
-0.102946
0.001901
0.063123
0.058513
0.007548
-0.020005
-0.201418
-0.016431
-0.040856
-0.046387
0.166948
0.009462
-0.115116
0.057963
0.005469
-0.015855
-0.046156
-0.064186
-0.034290
0.098615
0.036879
0.029262
0.055740
0.012178
0.005838
0.065394
-0.099564
-0.039903
-0.028765
-0.037157
-0.033664
0.034113
0.042366
-0.059931
0.000546
-0.023531
-0.129701
-0.040738
-0.023213
0.093109
-0.050976
-0.011150
-0.085742
-0.004533
-0.113822
-0.133506
0.005995
0.111332
0.031497
-0.105035
0.066832
-0.054736
-0.025874
-0.008182
-0.010475
0.137283
-0.021942
0.090822
-0.021682
-0.169453
0.096987
-0.069587
-0.119345
0.031513
0.024348
0.141972
-0.000453
-0.118917
-0.045770
-0.056044
0.194050
-0.281988
0.059263
0.254884
-0.028902
0.069589
-0.004474
-0.020689
-0.161193
-0.089069
0.112605
-0.040236
-0.019841
0.142258
0.113631
-0.001577
0.009712
-0.045227
-0.075325
0.008307
-0.068115
0.051924
0.054099
0.000550
-0.017171
0.007432
-0.053490
0.081378
0.039674
-0.093127
-0.156251
0.013703
-0.053037
0.021830
-0.049187
0.155738
-0.212861
-0.047690
0.137788
-0.070638
0.021654
0.004753
-0.147239
0.144494
0.043217
0.091399
-0.094297
-0.019192
-0.023846
-0.139740
-0.017755
-0.048137
0.033964
0.179216
-0.155314
0.081725
-0.005360
-0.019707
0.040158
-0.164746
0.043732
0.008513
0.115639
0.074964
-0.051549
-0.048767
0.081740
0.014658
-0.040839
-0.113430
0.055017
0.114955
-0.052658
-0.074231
-0.060564
-0.040806
-0.172169
0.036915
0.083431
0.019316
-0.039688
-0.061814
0.203401
-0.023652
-0.261168
0.115314
-0.032701
-0.124360
-0.058501
0.117191
-0.060264
-0.062910
0.044800
0.132931
-0.020102
0.019007
0.178322
-0.041098
-0.137418
0.105227
0.025428
0.087923
-0.040323
0.005429
-0.124568
-0.065024
-0.022773
0.063219
0.069374
-0.034288
-0.006745
-0.048725
0.032805
0.062098
-0.165600
-0.144593
0.017748
0.044868
0.019823
-0.086094
0.044063
0.054305
-0.038558
-0.050694
-0.121834
-0.112891
0.144311
0.060742
0.035452
0.019114
0.089236
-0.004505
-0.121257
-0.086230
-0.081387
-0.016269
0.197054
0.000189
-0.123991
0.144210
0.218192
-0.048415
-0.114262
-0.219541
-0.024965
0.030934
0.226550
-0.005400
-0.286922
-0.027684
0.095305
0.049757
-0.011939
-0.117644
0.042662
-0.107952
-0.108674
-0.066087
-0.088240
0.073627
0.019499
0.005896
0.000317
0.044581
-0.044322
0.008331
-0.036685
0.019249
0.089106
-0.034037
0.020493
0.065878
-0.041570
0.066230
-0.125672
-0.104355
0.137027
-0.107016
0.066645
-0.068329
0.122036
0.020195
-0.100486
-0.001721
0.060803
-0.123812
0.026286
-0.083667
-0.147597
-0.017831
0.010156
-0.131495
-0.223443
0.076522
0.030125
-0.100162
0.158178
-0.095613
0.175887
-0.000088
-0.162739
-0.078332
0.030302
0.070687
-0.036706
-0.030140
-0.023557
-0.001315
0.094459
0.030820
-0.144318
-0.042030
0.086575
-0.091238
0.117019
0.065034
-0.017046
-0.049975
0.073777
-0.079924
-0.038824
-0.031440
-0.057211
-0.010934
0.062126
-0.115495
0.062936
0.132245
0.034800
-0.116630
-0.056653
0.062392
0.060289
0.065748
-0.040477
0.016909
0.060374
-0.104497
-0.070179
0.093880
-0.078145
0.045801
0.040434
-0.054401
-0.084316
0.088478
0.002199
0.070876
0.028818
-0.068728
-0.069581
-0.097804
0.036559
-0.129267
0.041465
-0.075721
-0.033354
-0.045259
0.050742
-0.081792
-0.068391
-0.064291
-0.045086
-0.027721
-0.030184
0.046601
-0.086839
0.015530
0.024448
-0.071861
0.013721
0.070791
0.031093
0.023742
0.047169
-0.026528
0.073950
0.071360
-0.023494
-0.058139
-0.027743
0.013020
0.041375
-0.011488
-0.070452
-0.057296
0.076784
0.066879
0.113029
0.039636
0.013465
0.049117
-0.007154
-0.116736
0.035353
-0.026509
0.136695
0.060745
0.048543
0.005712
-0.040323
0.008939
0.023906
-0.041142
-0.032388
-0.060316
0.023972
0.015964
0.031084
0.043318
-0.008999
-0.122451
-0.021922
0.039007
-0.002725
0.071375
-0.032238
0.035432
-0.035153
0.049857
-0.005976
-0.112625
-0.001246
0.023452
0.064144
-0.078605
-0.020277
0.104061
-0.024669
-0.132531
-0.127039
-0.051274
-0.025667
0.115079
0.048789
-0.041006
-0.119379
0.099579
0.113950
0.041969
0.022465
-0.048664
0.119455
0.070177
0.035114
-0.028655
0.037823
-0.052305
-0.005192
-0.036608
-0.017942
-0.103549
-0.022950
-0.060866
0.029230
-0.056225
-0.064416
0.016029
-0.041461
0.003852
0.038366
-0.032022
0.136907
-0.017470
-0.034671
0.041948
0.071412
0.052223
-0.016299
0.010742
-0.001730
-0.040445
0.000417
-0.037377
-0.049921
0.017612
-0.023653
0.005131
-0.056297
-0.023858
-0.150956
-0.056153
0.045297
0.010320
0.094142
-0.093447
-0.049828
0.089362
0.185002
0.029887
0.022106
-0.018567
-0.005157
0.052650
-0.009381
0.032543
-0.077632
-0.026125
0.001068
-0.031663
0.013781
0.097652
0.045401
0.088371
-0.072099
0.018979
-0.107005
-0.090358
-0.039961
-0.103476
-0.078530
0.008692
0.028237
-0.054503
0.069116
0.023670
-0.080991
-0.035267
0.017976
-0.007847
-0.053171
-0.061837
0.005273
0.006803
-0.009003
-0.010757
-0.023475
0.066689
0.018615
0.156393
-0.077390
-0.009067
0.040425
-0.116600
-0.038976
0.021040
-0.040957
0.071129
-0.052932
0.046410
0.015442
0.056646
-0.004367
-0.055117
-0.000832
0.040537
0.004200
-0.024269
-0.119220
0.014847
-0.050351
0.127860
-0.082410
-0.033728
0.065518
0.107352
-0.117791
-0.056896
-0.071866
-0.078001
0.024956
0.099091
0.005383
0.093048
0.033559
0.019762
-0.028975
0.059239
-0.054957
0.052281
-0.055623
0.020271
0.030039
-0.030280
0.143253
-0.006644
-0.133321
0.030061
-0.008618
0.038200
-0.052218
0.043167
-0.045232
-0.061682
0.070791
0.007155
0.014937
0.002300
0.090769
0.030975
-0.018861
0.014671
0.018516
-0.103520
0.039001
-0.022325
-0.006349
0.061590
0.062985
-0.014600
0.050347
0.040188
0.060539
-0.078066
0.032996
0.106907
0.014066
0.018533
0.079387
-0.003234
-0.043217
0.108349
-0.022957
-0.011032
-0.017583
0.008824
0.009625
-0.013286
-0.005125
-0.068786
-0.005602
-0.072652
-0.004981
0.019028
0.042427
-0.048533
-0.013929
0.129559
-0.037205
-0.000988
-0.002484
0.002438
-0.079452
-0.004205
-0.003752
-0.010775
0.023692
-0.078465
-0.112699
0.051622
0.015250
-0.015688
-0.035391
-0.061544
-0.017540
-0.047678
-0.056011
-0.049562
-0.112402
0.002517
0.015113
-0.027879
0.096417
-0.020947
0.028908
-0.038144
0.103572
-0.103725
0.014380
0.056556
0.019128
-0.005684
-0.006485
0.034327
-0.008190
-0.060415
0.062499
0.034305
0.081113
0.040476
-0.069684
0.073162
-0.113287
0.053454
-0.005053
0.035930
0.019052
0.005740
-0.022449
-0.002425
-0.009417
-0.056391
-0.049791
0.047570
-0.017986
0.026088
0.010506
0.045297
-0.015449
-0.011102
0.101188
0.024340
0.046138
-0.028537
0.034619
-0.043194
-0.056198
0.056173
0.106186
-0.113267
-0.029826
-0.030982
-0.091470
0.034284
0.060599
-0.020547
-0.046753
0.067569
0.113396
0.035976
-0.055164
0.035155
0.058717
0.002871
-0.027699
0.027536
0.010362
0.044600
0.109581
0.004553
-0.110057
0.027441
-0.036541
0.015926
-0.030996
0.074548
0.042920
-0.059676
-0.049643
-0.058218
0.027406
0.012575
-0.050072
0.063277
-0.008537
0.113390
-0.046599
-0.057482
-0.027963
-0.010451
0.079391
0.024183
-0.059783
0.140561
-0.031290
0.092689
-0.013831
-0.008912
0.003355
0.051958
0.041519
0.132904
-0.010273
0.058174
0.067805
0.004626
0.039161
-0.073830
-0.109311
-0.080878
-0.053480
-0.036232
0.014926
-0.058111
0.003605
0.062711
0.010577
0.045156
-0.057917
0.033437
0.067433
0.026125
0.065852
-0.003704
-0.099743
-0.042213
-0.089530
-0.059765
0.008655
0.130790
0.096434
-0.028393
0.034366
-0.032169
0.095024
0.085885
0.012891
0.018490
-0.028039
0.017679
0.030708
0.036256
-0.008120
-0.168411
0.027730
0.035457
0.043824
0.021160
-0.090654
0.103106
0.027106
-0.038677
0.077377
-0.159103
0.049911
0.097810
-0.020651
-0.019631
-0.067886
0.001491
0.076631
0.033010
0.030030
0.007127
0.025622
0.000411
-0.076842
0.038813
0.006364
-0.051000
0.023010
-0.057161
0.037402
0.000845
-0.045336
0.007116
0.011937
0.046250
-0.064770
-0.018430
-0.066451
-0.006625
0.029475
-0.016737
0.039567
-0.061618
0.025546
0.080054
-0.027360
-0.002797
0.032787
-0.076751
0.009452
-0.040508
-0.005140
-0.060949
-0.003956
0.020552
-0.023274
0.023920
0.029648
0.055485
0.051519
-0.049262
-0.033726
-0.010939
-0.044340
-0.059673
0.075053
-0.008688
0.024362
0.004984
0.056056
0.002128
0.050481
-0.015201
-0.100476
0.066180
0.028591
-0.008368
-0.103279
-0.031264
-0.054141
0.055871
-0.022938
-0.093752
-0.022880
-0.041462
-0.022140
0.035781
-0.037325
-0.056838
-0.061427
-0.028244
0.048286
0.018223
0.031447
-0.020829
0.015711
-0.036085
0.068757
-0.033757
-0.012840
-0.061302
0.016596
-0.040214
0.028986
-0.009134
-0.009885
-0.007365
-0.031088
-0.028378
-0.019366
0.004627
-0.039770
-0.130048
0.090660
-0.061438
0.026506
0.032744
-0.045301
-0.054148
-0.044121
-0.006826
0.000723
0.041896
0.011602
0.005050
-0.040671
-0.076207
-0.053657
-0.082960
-0.168069
-0.038076
-0.027489
0.007785
-0.027941
-0.019436
0.111207
0.019201
0.008087
-0.039939
-0.033331
0.080382
0.013837
0.018417
-0.000697
0.085415
0.067018
-0.037047
0.051651
-0.034854
0.054669
-0.005723
0.050029
-0.067470
-0.016258
0.052473
0.023538
-0.036987
-0.003447
-0.041712
0.041379
-0.013024
0.004448
-0.024733
0.058642
0.052683
0.016241
0.066041
-0.023473
0.026403
-0.031998
-0.081619
0.016136
0.097881
0.003425
0.020326
0.012582
0.002655
-0.055389
-0.022301
0.028331
-0.004918
-0.064471
0.025081
-0.026466
0.020335
-0.027431
0.096934
-0.064206
0.030327
-0.078278
0.072453
0.074614
0.008420
-0.011760
-0.088146
-0.068807
-0.093315
0.094468
0.040883
0.050373
0.143322
-0.047434
0.010385
-0.139327
0.017947
-0.065175
-0.046195
-0.052716
0.001344
0.010604
-0.002813
-0.023350
-0.063325
-0.008954
-0.069370
0.007002
0.001619
0.035078
-0.021961
-0.040008
-0.071317
-0.043274
0.100165
-0.071593
-0.081858
-0.006086
-0.033801
0.097192
0.051032
0.065303
-0.078048
-0.032301
0.042854
0.032814
0.051192
0.024391
0.145411
-0.035137
0.116932
0.050618
-0.074664
-0.044264
0.078379
-0.033570
-0.015459
-0.069265
0.057013
0.035223
0.026631
0.039025
0.082126
0.024748
-0.035279
-0.058558
0.135790
-0.038948
0.000017
-0.033360
0.020480
0.041040
-0.078037
0.000070
0.115280
0.000176
-0.040047
0.015369
-0.085339
0.016671
0.081089
-0.003593
-0.049000
-0.015460
-0.012132
-0.007761
0.024096
0.001343
-0.127553
0.006345
-0.015659
0.024136
-0.112835
-0.184117
0.025577
0.018198
-0.055531
-0.345964
-0.152059
-0.066360
0.041358
0.090513
-0.275335
-0.051870
-0.073887
0.044278
0.004140
0.084163
-0.077330
-0.166187
0.088483
-0.034674
-0.259572
0.011712
0.019550
-0.029316
0.130128
0.108725
-0.023163
0.001756
0.051293
-0.033568
-0.153823
-0.021254
0.099833
-0.074882
0.079520
0.046447
0.017776
0.033748
-0.053943
-0.050935
-0.041943
-0.025536
-0.027246
-0.037981
-0.017943
-0.125726
-0.145867
0.062390
-0.000998
0.143404
-0.061666
-0.109475
-0.030961
0.037868
-0.039727
0.003917
0.103879
0.036980
0.033424
0.098042
-0.044175
-0.038468
-0.079011
-0.013515
-0.032985
-0.005871
0.061501
-0.052868
0.028267
0.005405
-0.125695
0.035508
-0.069841
0.004145
0.041543
-0.002687
0.069405
0.018937
0.006853
-0.008052
-0.184997
0.166777
0.043884
-0.009516
-0.011191
-0.024167
-0.126349
-0.058448
-0.104460
0.069879
0.184855
0.155376
-0.048466
0.042592
0.012171
-0.128356
-0.109856
-0.086693
0.064584
-0.011638
0.013436
0.085814
-0.058102
-0.043394
0.042580
-0.105502
-0.013333
-0.010215
0.075539
-0.005875
0.132165
0.015071
0.001448
0.116209
-0.059922
-0.022556
-0.046348
0.063203
-0.051058
0.023816
0.040486
0.068038
-0.009981
-0.004510
-0.061710
0.078002
-0.139055
-0.100659
0.028809
0.105860
-0.165078
-0.000521
-0.039474
-0.004122
0.052779
0.049667
0.056098
0.052502
-0.050384
0.007540
0.072981
-0.070467
-0.101443
0.007366
0.160105
-0.096922
-0.041564
-0.055223
-0.053863
-0.039511
-0.002456
0.033000
0.024351
-0.054680
-0.023523
0.034264
-0.031609
-0.054470
0.004418
0.083857
0.061447
-0.032715
-0.084096
-0.003890
0.000453
0.061061
-0.043565
-0.096665
-0.084978
-0.056122
0.050046
-0.012154
-0.042587
0.042017
0.017495
-0.004096
-0.101552
-0.009939
0.069289
-0.025613
-0.015943
-0.083689
0.006613
0.066109
-0.073528
0.023066
0.086911
-0.150147
0.012544
-0.043701
0.021978
-0.017505
0.076838
0.060338
-0.052835
-0.003278
-0.001703
0.031145
0.008165
-0.090127
-0.014499
-0.017024
-0.009023
-0.152966
0.047379
-0.046701
0.085500
-0.048753
0.096727
-0.058615
0.051773
-0.071292
0.000520
-0.157126
0.048789
0.033192
0.025483
-0.007992
0.052737
-0.017035
-0.174267
-0.014579
0.077337
-0.022722
-0.066315
0.015330
0.102925
-0.061753
-0.007202
0.105078
-0.042880
-0.001169
0.018639
-0.113751
-0.030965
-0.057950
0.063975
0.105732
0.133548
-0.023301
-0.069106
-0.005497
-0.072165
-0.035231
0.053611
-0.070194
-0.093054
-0.016096
0.052418
0.056931
0.007273
-0.098626
-0.028412
-0.077698
-0.024405
-0.065376
-0.081588
0.037956
-0.000754
0.062696
-0.115832
-0.056562
0.008824
-0.074336
0.053875
0.019014
0.001121
-0.046473
0.073721
-0.048582
-0.034591
0.041200
0.005613
-0.052689
-0.090120
-0.000946
-0.048886
-0.012937
-0.028620
-0.027022
-0.017484
-0.046418
0.019360
-0.063172
0.041241
0.118132
-0.042764
-0.044636
-0.050698
0.015954
0.031152
0.009025
-0.058500
0.050775
-0.028066
-0.081222
0.023384
0.004511
0.016330
0.054276
-0.039530
-0.197269
0.001292
0.072661
-0.104506
0.013903
0.010939
-0.015333
-0.006907
-0.098198
-0.085416
0.029933
-0.033996
0.019117
-0.049916
0.050097
0.018111
0.023462
-0.132263
-0.047521
0.062025
0.112075
-0.039613
-0.023239
-0.009011
0.045398
0.057736
0.087304
-0.023127
0.023588
0.020706
-0.009903
0.049809
-0.081658
0.038217
-0.026882
-0.002454
-0.045686
-0.044484
0.096445
0.089841
0.019097
-0.016301
-0.036055
0.174751
0.061073
0.018832
-0.088430
-0.044011
0.125564
0.064629
0.026627
-0.008183
0.008057
-0.045664
-0.018070
-0.040664
-0.069513
0.003617
0.046423
0.001024
0.017379
-0.011982
-0.067338
-0.169021
0.014350
-0.022914
-0.028030
-0.101876
-0.022821
0.029369
0.023280
-0.026217
-0.035763
-0.068810
0.049452
-0.038878
0.014186
-0.015991
0.006688
-0.018814
-0.039989
0.022831
0.039120
0.017257
-0.037924
0.005198
0.011460
-0.008082
0.025557
-0.015088
-0.064393
0.092126
-0.037822
0.027357
-0.044104
-0.060468
0.013482
-0.079257
0.041324
-0.000708
-0.059448
-0.038996
0.014225
-0.039513
0.051973
0.013195
-0.052465
0.006384
0.009370
0.032598
-0.013324
-0.033115
0.032062
0.081579
-0.013508
0.053819
-0.063631
0.028527
-0.032042
-0.094195
0.059953
-0.057973
-0.017844
-0.073101
0.081300
0.054094
-0.003083
0.046234
-0.067367
0.040208
-0.037355
0.018803
-0.090633
0.122663
0.003598
0.004405
-0.189794
0.014911
0.088171
0.129909
-0.036279
0.047849
-0.015044
0.116212
-0.143491
0.016331
0.101800
0.012264
-0.011761
-0.016759
0.039998
0.040997
-0.114969
0.062785
-0.108865
0.014025
0.027269
0.043379
-0.038280
-0.142688
-0.003973
-0.037440
-0.032198
0.011353
-0.090183
0.010966
0.001824
0.036481
-0.014858
-0.120431
-0.006425
0.122844
-0.022945
0.051241
-0.118487
0.072538
-0.095782
-0.035912
0.063469
-0.010400
0.052010
-0.023937
0.007937
0.084852
0.027636
0.052740
-0.059218
0.064904
-0.008179
0.034938
0.024502
0.003643
0.053663
0.029387
-0.006662
0.007948
-0.033952
0.015812
0.055763
-0.072205
0.051798
-0.158427
0.115900
0.074705
0.101398
0.106324
0.062537
0.019015
-0.014469
-0.029714
0.039870
0.069301
0.128618
0.027175
0.029072
-0.009796
-0.003591
-0.073939
-0.021297
-0.037993
-0.101839
-0.020947
0.020273
-0.030805
0.017898
-0.009012
-0.116491
0.038894
0.004357
-0.014442
0.013040
-0.068558
0.000253
-0.031321
0.032970
0.018565
-0.050985
0.031580
0.048826
-0.108623
-0.073396
-0.006639
0.119374
-0.019897
0.063258
0.032494
-0.073956
-0.043871
-0.055490
0.000916
0.058624
-0.062115
0.094211
0.041689
0.024889
0.039204
-0.107007
0.006738
0.082415
0.010271
-0.001502
0.012637
-0.030459
-0.018676
0.034140
-0.029875
0.017480
-0.122107
0.078135
-0.125781
0.098551
-0.118579
0.039384
-0.030145
0.030606
0.001137
-0.023884
0.032738
-0.174231
0.010516
0.007202
0.000205
-0.034597
0.010496
-0.003341
0.007389
-0.031616
-0.095500
-0.054678
0.002814
0.088778
0.129882
0.062178
0.057806
0.060440
-0.102978
0.110645
0.142389
0.018515
0.034983
0.054356
-0.039882
-0.000385
0.026755
-0.065505
0.014871
0.047691
0.129128
0.025017
-0.020246
-0.065210
-0.034312
0.043108
0.041044
-0.100069
-0.177588
-0.007292
0.085480
0.083457
0.004318
-0.007831
0.013181
-0.058015
-0.036626
0.032871
-0.151506
-0.063968
0.045348
0.052674
0.008980
-0.058470
0.036005
-0.151612
-0.100177
0.033715
-0.095512
-0.102841
-0.013146
-0.050342
0.045369
0.172958
0.056637
-0.028810
-0.066388
-0.044417
-0.171225
-0.013951
0.120217
0.053115
0.019752
0.004908
-0.024683
-0.087894
0.017543
-0.062804
-0.078291
-0.009996
-0.057514
-0.026780
0.072058
-0.119286
-0.119674
0.004362
-0.080420
-0.033948
-0.025283
0.005267
0.016216
0.113982
-0.058358
-0.027342
-0.102256
-0.043525
-0.025888
0.007704
0.050087
-0.087732
-0.053955
-0.017424
-0.045779
0.015892
-0.031967
-0.000956
-0.116935
0.036824
-0.084355
0.074307
0.048831
-0.076756
0.080751
-0.043553
-0.077654
-0.003931
0.082792
-0.180776
-0.025483
0.094883
-0.036055
0.033192
0.007623
-0.012323
-0.151663
0.132432
0.008819
0.013345
-0.135846
0.089992
-0.052227
0.038306
-0.130375
0.074142
-0.185339
0.023670
-0.140526
0.082069
0.039362
0.016739
-0.015577
0.072050
-0.028950
0.072820
-0.040417
-0.148932
-0.105425
-0.115974
0.081971
0.043311
-0.011552
-0.047193
-0.221564
0.017023
0.088293
-0.062207
-0.079699
-0.093807
0.014756
0.087701
0.104116
-0.045839
0.103454
-0.055034
-0.042640
-0.065830
-0.113241
-0.123384
-0.056745
0.040855
0.107218
0.077085
-0.028175
-0.028940
0.044664
0.009580
0.011742
-0.022754
-0.002331
0.059543
-0.021750
-0.008934
-0.000716
-0.103364
-0.063714
0.022828
0.036943
-0.125308
-0.047194
0.061008
-0.034871
0.045145
0.090318
0.016786
-0.073519
0.024652
-0.068529
-0.078284
-0.015688
-0.042080
0.040197
-0.001797
-0.043989
-0.095042
-0.121955
-0.028132
-0.070048
0.033401
-0.040861
-0.013512
0.150723
0.112088
0.047965
-0.114651
0.006364
-0.168479
-0.000850
-0.087704
0.030976
0.096518
-0.007214
-0.080478
0.055491
0.086876
-0.052136
0.176657
-0.001699
-0.094275
-0.057151
0.096684
0.008455
-0.081025
0.063168
0.035353
-0.003300
0.001582
0.053051
0.024040
0.074842
0.070322
-0.017628
0.058450
-0.115490
-0.020986
-0.109958
0.017702
-0.030699
-0.002433
-0.028363
-0.084530
0.038811
-0.029986
-0.046265
-0.123104
-0.119700
0.058522
-0.053809
0.034316
0.051572
-0.174737
0.050792
-0.007751
-0.107759
-0.023528
0.034710
-0.087999
0.024347
0.139108
-0.006093
-0.066431
0.039770
-0.039539
0.046168
0.055693
0.079205
0.039606
0.017182
0.044930
-0.134821
-0.012538
-0.036826
0.004452
-0.016880
0.013239
0.020006
-0.010410
0.080643
0.111103
-0.066667
0.015265
-0.012898
0.012765
-0.145273
0.062226
-0.118849
-0.082612
0.089901
-0.077090
-0.046750
-0.135794
-0.014936
0.044844
-0.037102
0.045427
-0.067807
0.010737
0.010831
0.040399
0.043985
-0.001784
-0.016290
-0.033429
-0.019166
0.015970
0.105077
-0.019162
-0.062384
-0.060056
0.034864
-0.052170
0.057679
-0.072441
-0.021063
0.119224
0.066643
-0.125727
0.070797
0.010483
0.010833
-0.134527
-0.094074
-0.050212
0.015390
-0.019308
-0.049104
0.041729
0.036683
0.024369
-0.118228
0.015283
-0.006758
0.066314
0.144864
-0.011589
0.006631
-0.090299
0.065590
-0.001793
0.014314
-0.055593
0.038160
0.027507
0.021663
0.033743
0.019055
-0.065128
0.098828
-0.032622
-0.038970
0.036533
-0.118518
-0.089596
-0.018801
0.127666
-0.010939
-0.090727
0.048480
0.003309
0.045555
0.042228
0.002574
0.055233
0.032512
0.018052
0.040446
-0.099623
0.137316
-0.009910
0.147751
0.015429
-0.055441
0.036503
-0.029301
0.042288
0.033252
-0.069477
0.057866
-0.024164
0.092077
0.011635
0.086140
0.017860
0.008222
-0.002102
0.087359
-0.065126
0.074059
0.000176
-0.033949
0.138315
0.057263
0.012179
0.124484
-0.149560
0.082262
-0.008600
0.058279
-0.086605
-0.093117
0.184876
0.074460
-0.220308
0.092545
-0.062078
-0.015136
-0.054427
-0.100478
0.067481
-0.018391
-0.064968
-0.040193
-0.020720
-0.074882
0.035045
0.045409
0.000732
-0.021695
-0.026963
-0.120760
-0.057749
0.047605
0.015343
-0.073571
0.039820
0.009662
-0.153798
-0.003323
-0.064518
0.010912
-0.039927
0.100105
-0.015586
-0.041783
-0.122899
0.004341
-0.175661
-0.043223
-0.085690
0.024146
0.075522
0.057910
-0.023886
0.006308
-0.052589
0.039830
-0.096402
0.069514
0.060311
-0.020096
0.083663
-0.086158
-0.197915
0.203467
0.155529
0.024706
-0.011912
0.028277
-0.315591
0.003443
-0.022233
0.013912
-0.067489
-0.009893
0.002121
-0.017666
-0.004039
0.001840
-0.015034
-0.124798
-0.013672
-0.012188
0.058680
0.005417
0.016274
-0.020007
-0.041740
-0.038798
-0.092317
-0.012414
0.156262
-0.019489
0.056949
-0.160722
-0.125289
-0.011263
-0.016476
-0.085252
-0.112464
0.036314
0.041922
0.083245
0.092908
-0.121857
-0.122708
-0.058200
0.104160
0.009339
0.102335
0.112938
-0.150298
0.035405
-0.072978
-0.091572
-0.077279
-0.055637
-0.071368
0.072134
0.031003
0.001598
-0.062759
0.020578
0.004010
-0.049414
0.067579
0.023402
0.038840
-0.005831
0.024167
0.057900
0.009043
-0.036678
-0.052024
-0.013226
0.053300
-0.067467
0.063293
0.027314
-0.052303
-0.017169
-0.043963
-0.056651
0.024797
-0.123360
-0.162601
-0.106253
-0.013850
0.059391
0.067742
0.046544
-0.018022
0.031250
-0.050332
0.007098
-0.005007
-0.080438
0.098501
-0.046551
-0.015104
0.055625
-0.168944
-0.056309
-0.155864
-0.208722
0.066644
-0.009162
-0.058469
0.015789
0.041523
0.083811
0.040049
0.001139
-0.074171
0.078037
0.071138
0.071540
-0.046946
0.028342
0.030872
-0.066659
0.078812
-0.017307
-0.037367
0.000847
0.004175
0.018234
-0.067490
0.013649
0.015832
-0.087693
-0.035684
-0.076243
0.032843
0.151632
-0.025974
-0.123986
-0.015763
0.023225
0.045838
-0.037915
0.042394
-0.084185
-0.004209
0.058416
0.030850
-0.016164
-0.011621
-0.028198
0.036209
0.031656
-0.084050
-0.022343
-0.110614
-0.011894
0.012239
-0.077995
0.043445
0.052441
-0.084580
0.047410
-0.045954
0.069330
0.072723
-0.004342
0.034449
0.002613
0.082321
0.004411
-0.007678
-0.018185
0.060550
-0.077768
-0.024051
0.007231
0.057836
0.025791
0.008786
0.034881
-0.044988
0.006464
-0.008993
-0.000718
0.182685
0.029358
0.046808
-0.068239
-0.005009
-0.070206
0.022883
0.075362
0.112991
-0.017199
0.079439
-0.101971
0.010058
0.053886
-0.041287
-0.080511
-0.024403
0.013248
0.117990
0.121691
-0.125044
0.084403
-0.022699
-0.044678
-0.158386
-0.031099
-0.063858
-0.162752
0.013620
0.071322
0.070275
-0.043578
-0.120268
0.135371
0.040797
-0.044058
-0.139038
0.049634
0.002793
-0.050241
-0.036220
0.056199
-0.058012
0.131756
-0.068345
0.083088
-0.216849
0.017842
0.128338
-0.063134
0.035673
0.006730
-0.086204
0.074605
-0.021654
-0.006950
-0.151603
-0.118290
-0.052604
-0.044348
0.055259
0.037769
-0.073694
0.042861
-0.061362
-0.081529
-0.029485
0.089225
-0.017522
0.090508
-0.001024
0.019579
-0.063031
0.008783
0.015530
-0.006903
0.016192
-0.167005
0.138419
-0.097451
0.043640
-0.070893
-0.048935
0.111122
-0.031797
0.094796
0.125098
0.017433
-0.137866
-0.022142
0.008297
-0.029755
0.122447
0.046902
-0.018396
-0.026635
-0.052099
-0.019955
-0.056887
-0.091049
-0.020027
0.013016
-0.030283
0.018056
-0.056827
-0.085981
-0.006457
-0.130084
-0.030963
0.000701
0.156116
-0.069732
-0.084358
0.015371
0.084085
0.056452
-0.014352
0.010643
-0.003228
0.033771
0.174463
0.020713
-0.050375
-0.043099
0.063682
0.049373
-0.081401
-0.073168
0.005916
-0.145620
-0.062880
0.074815
-0.125412
0.042250
-0.018823
-0.000878
0.053645
0.087797
0.005390
-0.171743
0.050829
-0.025154
-0.088308
-0.023233
0.146819
-0.005301
-0.063460
-0.081624
0.113471
0.066842
-0.058867
0.022862
0.057297
0.035657
-0.037914
-0.093253
0.046659
-0.038080
0.088318
-0.002059
0.015477
0.060200
0.026454
-0.137184
0.055635
-0.030991
-0.020866
0.068425
0.001756
-0.045049
0.045352
-0.046128
0.051192
0.023302
0.058103
-0.042450
-0.067081
0.057315
0.036054
-0.031815
0.006471
-0.041657
-0.132920
0.016668
0.098706
-0.017572
-0.037976
0.015940
-0.036427
-0.056324
-0.027227
-0.066357
-0.073219
0.070126
0.110171
0.052931
0.064429
0.043592
0.049930
0.059614
-0.072861
0.015526
-0.054928
-0.023681
0.005446
0.041431
-0.028864
-0.000367
-0.011027
0.013848
-0.128519
0.092788
0.017616
-0.036616
-0.054611
-0.033814
0.025334
-0.003579
-0.131537
0.000723
-0.066109
-0.053122
-0.057442
-0.105250
0.033936
-0.025377
0.068115
0.100596
0.057645
-0.009562
0.018224
-0.061830
0.042025
-0.085697
0.026418
-0.079819
0.021308
0.063904
0.096450
0.044029
-0.186397
0.003520
0.181960
-0.057192
0.005232
-0.118947
0.003862
-0.141282
0.084670
-0.095304
-0.166396
0.037905
0.033258
-0.015298
-0.008670
-0.040019
0.064793
-0.051435
-0.022575
-0.076199
0.000061
0.031157
0.050972
0.011295
-0.068495
-0.019234
0.141498
0.014338
-0.038560
-0.031573
0.036882
-0.021349
0.020354
0.025680
-0.045283
0.082182
-0.007279
0.010533
0.026856
-0.092062
0.025014
0.088311
0.017575
0.001454
0.064815
-0.202434
-0.069594
-0.024996
0.079798
-0.083931
-0.063068
0.112685
0.019086
-0.126519
0.132454
-0.031528
-0.078446
-0.036580
0.029699
0.039799
0.053743
0.046543
-0.028253
-0.208232
0.054191
-0.070384
-0.104935
-0.013449
-0.114907
0.032209
0.044397
-0.040865
0.002290
-0.123785
0.025536
0.092188
-0.014694
-0.048411
0.038203
0.088865
0.055699
-0.117873
-0.065608
0.006100
-0.017638
0.057154
0.096132
-0.060232
0.063026
-0.072601
-0.019856
-0.000275
-0.272391
-0.078943
0.209782
0.006794
-0.162821
-0.042592
-0.006234
-0.047557
-0.262551
0.076633
0.076446
-0.041830
0.218914
0.031753
-0.076921
-0.066495
-0.102912
0.039813
-0.156963
-0.098492
0.054224
-0.059015
-0.021059
0.030134
-0.044734
-0.004489
-0.101373
-0.030767
-0.052534
-0.041006
-0.088283
-0.005501
0.009005
0.049671
0.061450
0.045420
-0.059852
-0.001616
-0.025786
-0.002321
-0.090121
0.019806
-0.018479
0.026087
0.116087
-0.243374
-0.203458
0.127063
0.048462
-0.068114
0.143123
-0.143560
-0.053713
0.047096
0.013943
-0.026225
-0.117903
-0.008866
0.012126
-0.090803
0.051128
-0.083362
-0.163056
0.099570
0.083133
0.101348
-0.103571
0.101254
-0.215382
0.067187
0.092495
0.010916
-0.086253
0.132253
-0.025942
-0.081389
0.039382
-0.144524
-0.021212
-0.087217
0.022739
0.122467
-0.035623
-0.071784
-0.038666
-0.023615
-0.041504
0.020022
0.103248
0.062807
0.025178
-0.060731
-0.115595
0.005841
-0.032566
-0.041867
-0.004545
-0.000194
0.133112
-0.069128
0.033121
-0.206262
-0.156389
0.003582
-0.012133
0.041296
0.032565
-0.173011
0.165112
-0.132912
0.059096
-0.015398
0.090286
-0.231714
0.118441
-0.032287
0.007860
-0.139288
0.007865
0.068130
-0.066777
-0.063896
-0.023189
-0.060375
0.021863
-0.010790
-0.067062
0.016216
0.075091
-0.222514
0.059606
0.085311
-0.152702
0.046742
-0.244209
-0.042179
0.020616
-0.011703
0.005578
-0.063213
0.025723
-0.067927
-0.034584
0.113939
-0.032558
-0.019623
0.181747
-0.090284
0.081947
-0.115724
0.035323
-0.170216
-0.104276
-0.173370
-0.094375
0.116591
-0.191637
-0.057752
-0.000606
-0.264219
-0.061382
0.063383
-0.175333
-0.045506
0.029483
0.091933
-0.020646
0.067952
-0.069284
-0.082917
0.041872
0.112746
0.030317
0.099502
-0.032379
-0.039406
0.005854
0.073579
-0.048066
0.020647
-0.031882
-0.060058
-0.018243
0.055573
-0.047963
-0.137514
0.052847
0.040169
-0.016527
-0.053974
-0.085790
-0.075926
-0.122028
-0.018134
-0.006730
0.028836
-0.024677
0.021089
-0.014005
0.029125
0.016565
0.102618
0.006718
-0.006161
-0.139879
-0.055313
0.061987
0.073317
0.036265
0.034111
0.015070
-0.023198
0.063110
-0.116169
-0.159780
-0.049491
0.021068
0.027795
0.162531
0.035663
-0.039047
-0.017962
-0.008452
0.014044
-0.177655
-0.038734
-0.066265
-0.006070
0.033760
-0.108964
-0.025149
-0.061267
-0.071782
-0.002803
-0.119576
0.050384
-0.023583
-0.017171
-0.072200
-0.065025
-0.148593
0.086917
-0.056803
0.058993
-0.035131
0.087038
-0.054322
0.012223
-0.042786
0.084575
0.050378
-0.042742
0.106828
-0.011598
-0.006668
-0.143787
0.001750
0.013289
0.078531
0.039773
0.039406
-0.063915
0.045255
0.036585
-0.115386
-0.066095
0.084903
0.095121
-0.020658
-0.078698
-0.035730
-0.036595
-0.004999
0.076573
-0.010606
0.104957
-0.082765
-0.030105
0.017156
-0.003108
-0.060112
-0.059588
0.044005
0.022560
-0.016937
0.110194
-0.158007
0.032370
-0.163042
-0.094872
0.038830
0.042874
-0.057797
0.039037
-0.002780
0.037089
-0.011555
-0.006002
-0.038966
0.023676
0.110511
0.064033
0.049976
0.004483
0.019367
-0.116578
-0.019917
-0.139056
-0.047200
0.055848
0.003807
-0.071681
0.016516
0.038335
0.088499
-0.201770
-0.050766
0.001328
-0.093530
0.014678
-0.057568
-0.155307
-0.016353
0.050543
0.090798
0.006462
-0.045890
-0.062251
0.103648
-0.089615
0.088838
-0.031454
0.037734
0.011254
-0.123737
0.038162
0.006129
-0.175448
0.028467
-0.088083
0.161360
0.025981
-0.069005
-0.149908
-0.054101
-0.021387
-0.092452
-0.060775
-0.062786
-0.013013
-0.055659
-0.010864
-0.117100
-0.124223
0.042001
-0.020583
-0.062504
-0.125908
-0.047293
-0.016405
-0.057687
0.002059
0.018471
0.054429
0.012768
-0.037870
-0.028281
-0.138368
0.003631
0.031284
0.052145
-0.151301
-0.089596
0.030104
0.032420
0.018693
-0.062058
0.033015
0.082443
-0.141707
-0.060944
0.045531
-0.008914
-0.015424
-0.047117
-0.027557
-0.149476
0.035996
0.056585
0.059601
0.018656
-0.118560
0.030528
0.014795
-0.016605
-0.010829
-0.055784
0.069395
0.034580
-0.024988
-0.027404
0.024144
-0.147582
0.000761
0.037010
0.014628
-0.020471
-0.007599
-0.083500
-0.007975
-0.011195
0.146253
-0.083772
-0.046520
-0.010367
0.038292
-0.015455
0.026699
-0.106715
-0.083320
-0.071076
0.133186
-0.098221
-0.021293
0.022578
-0.076027
0.143261
0.075781
0.053098
0.039361
-0.038786
0.046843
-0.015687
-0.036335
-0.096416
0.031497
0.056305
0.147130
-0.133722
0.085179
-0.114191
-0.168649
-0.084476
-0.086893
0.039294
0.036456
0.158828
-0.125949
-0.054610
-0.120481
-0.096337
0.052060
0.033264
0.079471
-0.017674
-0.089542
0.086957
-0.087817
-0.089218
0.046321
0.164634
0.082589
0.001657
-0.148493
-0.063158
-0.113087
0.147742
-0.121563
-0.078590
0.270528
0.141938
0.053858
-0.049619
-0.017257
-0.232929
-0.043000
-0.043239
-0.018597
-0.039629
0.302337
0.097009
-0.020087
-0.116479
0.055572
-0.311099
-0.129896
0.080181
-0.144802
-0.129933
0.209460
-0.014985
0.003456
-0.100777
0.092602
-0.109959
0.046646
0.032261
0.089075
-0.144141
-0.088424
0.101307
0.146943
-0.047280
0.105033
0.150587
0.055162
0.025713
0.000577
-0.120970
-0.002257
0.017210
0.029059
-0.014987
0.050018
-0.009537
0.028070
-0.120072
-0.012238
-0.200072
0.140596
0.016617
0.016227
0.000152
0.046332
0.007703
0.111699
-0.012513
0.069736
-0.146435
0.059359
0.006325
-0.152095
0.082773
0.014530
-0.129721
0.095541
0.105326
0.132019
-0.150427
0.173993
-0.339232
-0.135092
-0.090271
0.048477
0.021646
0.112973
-0.039045
0.027231
-0.003186
-0.109170
0.017629
0.101164
-0.115613
0.139217
0.135939
0.077215
-0.032288
-0.049558
-0.083629
-0.007746
-0.001619
0.098874
-0.008158
-0.002395
0.029933
0.081385
0.078243
-0.189538
-0.003873
-0.085052
0.014480
-0.017716
-0.062920
-0.032382
-0.063949
0.170645
0.096742
0.005703
-0.168152
0.081960
0.057971
-0.028865
0.112847
-0.105327
-0.068254
-0.002943
0.087795
0.106460
-0.143812
0.128117
-0.082646
-0.069139
0.088388
-0.223967
0.059139
0.012127
-0.230987
0.005365
-0.010874
-0.027474
-0.017685
-0.010039
0.106270
-0.045987
-0.041895
0.055601
-0.059401
0.136909
-0.034843
-0.074902
-0.059908
0.066486
-0.046741
0.017591
-0.012093
0.118621
0.058633
-0.042351
0.018561
-0.019128
-0.125974
-0.004469
0.008768
0.099353
-0.225020
0.058076
0.064118
-0.010692
-0.173126
0.106124
0.008698
0.009510
0.029390
-0.206991
-0.050293
0.059655
-0.063718
-0.136779
-0.007308
0.053309
-0.003668
0.003215
-0.004825
-0.087438
0.070713
0.125689
-0.116413
0.083451
-0.045745
-0.051865
-0.048627
0.085898
-0.014691
0.049404
0.033884
-0.030377
0.035307
0.187723
-0.012425
-0.037269
-0.069713
0.081546
-0.116958
0.021463
-0.090511
-0.091624
0.069436
-0.013167
-0.197587
0.143955
-0.084400
-0.096264
0.052715
0.104815
0.148287
-0.238439
-0.128652
-0.084679
-0.200808
0.130822
-0.082448
-0.150482
0.146688
-0.054779
0.157621
-0.157921
0.036172
-0.184256
0.014886
0.104699
0.001077
-0.147066
-0.001440
-0.036571
0.132296
-0.036776
0.018395
0.101218
0.079167
0.053991
0.072145
0.064454
-0.055395
0.018989
-0.061089
-0.007245
-0.070525
-0.035220
0.032336
-0.039449
-0.055616
0.050705
-0.009907
0.064577
-0.054410
-0.045089
0.064179
-0.063402
0.098227
-0.040489
-0.021674
-0.065876
-0.031361
0.082117
0.073622
0.030154
0.005089
0.015670
0.049837
0.003309
0.069640
0.003426
0.056760
-0.047399
0.022523
-0.071696
-0.081192
-0.097410
-0.028877
-0.041384
0.031271
-0.061840
-0.106267
0.048792
0.023442
-0.015539
-0.042187
-0.002469
-0.023306
0.088724
-0.047103
0.026166
-0.068898
-0.066334
0.023357
-0.020028
-0.058954
0.015752
-0.058659
-0.085839
-0.019457
-0.051761
0.071113
-0.047721
-0.022520
-0.027818
0.041594
0.138883
0.004696
-0.056076
0.007761
-0.044365
0.022257
-0.076076
0.048491
0.122740
-0.125063
-0.083605
0.017186
0.039466
0.150496
-0.059269
0.065506
0.065578
0.013884
0.093399
-0.043464
-0.020828
-0.030261
-0.093753
0.167631
-0.032622
-0.024264
-0.026032
-0.027018
0.051117
0.012788
0.028936
-0.056039
0.029464
-0.017938
0.021320
0.016801
0.032175
0.057931
-0.052990
-0.059408
-0.005689
0.028813
-0.007486
0.021397
-0.002953
0.049115
0.002286
0.034641
-0.098160
-0.015959
0.020421
0.115106
0.052027
-0.045553
-0.048840
-0.117559
0.018289
0.161181
-0.157650
-0.157452
-0.006034
0.056853
0.011791
-0.080056
0.107535
-0.049095
0.088998
0.089643
0.148481
0.010031
-0.105384
0.004443
-0.025384
-0.081315
-0.005322
-0.001145
-0.000701
-0.148419
0.045888
-0.090435
-0.028000
-0.148792
0.045329
-0.047197
0.017392
-0.020552
0.044750
-0.015802
-0.201807
-0.018805
0.020871
0.037446
-0.024141
-0.060118
-0.118830
-0.033169
0.087281
0.089910
-0.083242
0.023499
0.003030
-0.097610
-0.012007
-0.072355
-0.015107
-0.016704
-0.043607
0.084692
0.078881
0.007375
0.008303
0.038713
0.141032
-0.069500
0.064390
0.018518
0.045323
-0.024631
0.068476
-0.029959
0.056033
-0.135376
-0.008918
-0.122505
0.021561
0.158187
-0.020648
-0.157414
-0.031362
0.018817
0.099296
0.024850
0.048828
0.037979
0.020388
-0.082229
0.001828
-0.006013
0.051024
0.085164
0.032673
-0.061488
-0.124035
0.113839
0.056657
-0.152801
0.014177
0.019295
-0.026245
0.015671
0.013535
0.012724
0.044073
0.084175
0.043021
-0.114376
0.083998
0.028754
0.041531
0.100344
0.100931
-0.018293
-0.105740
-0.052377
0.063681
-0.107010
0.106476
-0.029605
-0.014445
0.155769
0.058022
-0.025687
0.115885
-0.054626
0.055452
-0.074718
0.061685
-0.080067
-0.155327
0.125255
0.058319
0.093498
-0.104476
0.016615
-0.035256
