0.024828
-0.116350
-0.038312
-0.157563
0.326630
-0.179601
0.036710
0.046074
0.027673
0.052206
0.099995
0.163186
0.018564
0.043703
0.058280
0.092987
0.031704
0.099546
0.017550
0.051630
0.041956
0.159413
0.166719
0.002602
0.142379
-0.044583
-0.197693
-0.005522
0.115311
-0.105035
-0.000500
0.130276
-0.006697
0.109814
0.035253
0.106745
-0.070340
0.126519
-0.146662
-0.002612
0.326375
0.052977
0.020231
0.238634
0.061629
-0.055516
-0.016672
0.003227
0.082967
-0.004263
0.028685
0.157900
0.109081
0.225035
0.060751
-0.026547
-0.070664
0.168190
-0.011900
0.049911
0.036360
0.048448
0.034925
0.106038
0.085264
-0.104012
0.012657
-0.114830
0.133245
-0.142658
0.101152
-0.127835
0.133083
0.002944
0.057893
0.055082
0.213437
-0.104097
0.151124
-0.204804
-0.084499
0.007359
-0.015967
-0.022734
0.139909
0.011606
0.043589
0.106217
-0.012544
-0.092256
-0.017949
-0.041100
-0.097239
-0.009171
0.102672
0.216764
0.134743
-0.012013
0.091131
-0.004379
0.041355
0.090901
0.168236
-0.257136
0.124259
-0.061246
0.186951
0.002392
-0.029142
0.147081
-0.105423
0.137317
0.041378
0.157082
0.127438
0.062884
-0.052338
0.159777
0.220470
0.018140
0.048287
0.021785
0.203250
0.000620
0.065858
0.102057
0.081975
-0.055811
