2.457963675260543823e-02
-4.254729673266410828e-02
4.186397790908813477e-02
-1.839581131935119629e-02
5.744070559740066528e-02
3.742411732673645020e-02
1.372621208429336548e-02
-4.401250183582305908e-02
5.771532654762268066e-03
5.490539222955703735e-02
2.916134148836135864e-02
-2.638026326894760132e-02
-3.515757620334625244e-03
7.712031155824661255e-02
7.068584114313125610e-02
-2.645531669259071350e-02
-5.639616772532463074e-02
2.966166287660598755e-02
1.662076264619827271e-02
1.034558564424514771e-02
-7.881321012973785400e-03
-3.383606672286987305e-02
4.777561873197555542e-02
6.126152724027633667e-02
-5.422101542353630066e-02
4.707414656877517700e-02
7.663822919130325317e-02
5.004135519266128540e-02
-7.063543796539306641e-02
3.373727202415466309e-02
-6.216654181480407715e-02
2.586899697780609131e-02
4.872932285070419312e-02
6.382023543119430542e-02
5.306486040353775024e-02
3.625126928091049194e-02
7.413157075643539429e-02
6.572832912206649780e-02
-7.180962711572647095e-02
1.629567146301269531e-02
-7.078099995851516724e-02
3.724711388349533081e-02
2.337601780891418457e-02
-6.663140654563903809e-02
-1.007401943206787109e-02
8.622772991657257080e-03
-2.402590215206146240e-02
-1.362308114767074585e-02
4.172296077013015747e-02
3.151506930589675903e-02
2.366892993450164795e-03
-6.904658675193786621e-02
6.451446563005447388e-02
2.188360691070556641e-02
5.475806444883346558e-02
5.044136196374893188e-02
1.087769865989685059e-02
2.147518098354339600e-02
-5.712077394127845764e-02
1.081376522779464722e-02
-1.713779568672180176e-02
1.097711175680160522e-02
-7.927350699901580811e-03
-4.647254571318626404e-02
7.324678450822830200e-02
1.363982260227203369e-02
8.167706429958343506e-03
3.398972749710083008e-02
9.648300707340240479e-03
-7.082236558198928833e-02
1.236978173255920410e-02
3.135736286640167236e-02
-1.776085793972015381e-02
6.607345491647720337e-02
-5.872002989053726196e-02
-6.087729707360267639e-02
2.236820757389068604e-03
-1.930625736713409424e-02
6.211086362600326538e-02
4.840799421072006226e-02
5.457252264022827148e-04
-2.956255525350570679e-02
-7.468627393245697021e-02
6.913404911756515503e-02
9.938284754753112793e-03
9.163320064544677734e-03
5.792801827192306519e-02
-3.603082895278930664e-02
7.750491052865982056e-02
-4.915144294500350952e-02
3.255467116832733154e-02
-7.718149572610855103e-02
4.748911410570144653e-02
4.394965618848800659e-02
4.055067896842956543e-03
-2.689831703901290894e-02
5.007117241621017456e-02
-3.576742485165596008e-02
3.348486870527267456e-02
-2.711790427565574646e-02
-1.223975419998168945e-02
-4.024859145283699036e-02
6.157221645116806030e-02
4.655567556619644165e-02
5.353859812021255493e-02
3.235930204391479492e-02
6.897350400686264038e-02
-5.008877068758010864e-02
-4.112875461578369141e-02
6.984742730855941772e-02
2.186668664216995239e-02
-3.660032525658607483e-02
-1.324975490570068359e-02
3.210333734750747681e-02
6.469462066888809204e-02
5.481503158807754517e-02
-4.413887858390808105e-03
-5.916073173284530640e-02
-1.378070563077926636e-02
1.805723458528518677e-02
1.124061644077301025e-03
-3.948209807276725769e-02
1.613856852054595947e-02
1.281201839447021484e-03
3.240530192852020264e-02
2.487640082836151123e-02
4.026131331920623779e-02
-2.984029054641723633e-02
-8.028618246316909790e-02
-3.884070366621017456e-02
-2.846522256731987000e-02
6.139401346445083618e-02
5.100493878126144409e-02
6.676243990659713745e-02
-1.425234973430633545e-02
9.253278374671936035e-03
3.448645770549774170e-02
3.580819070339202881e-02
7.270924001932144165e-02
-5.615241080522537231e-02
-7.679018378257751465e-02
-3.097943589091300964e-02
-1.040868461132049561e-02
-1.550566405057907104e-02
2.785064280033111572e-03
2.298858016729354858e-02
-5.834306776523590088e-02
-5.752977728843688965e-02
4.666313529014587402e-03
6.165351718664169312e-02
4.091844707727432251e-02
1.384101808071136475e-03
3.287588059902191162e-02
-6.096754968166351318e-02
5.377843976020812988e-03
3.741142898797988892e-02
1.191028207540512085e-02
-1.068612933158874512e-02
3.098315000534057617e-02
-1.664387434720993042e-02
7.819508761167526245e-02
-5.805090069770812988e-03
6.897342950105667114e-02
2.030303329229354858e-02
-2.128421515226364136e-02
-1.920542493462562561e-02
7.235784083604812622e-02
6.995783001184463501e-02
-6.165690720081329346e-03
-3.985507413744926453e-02
-1.597405225038528442e-02
-1.127245277166366577e-02
2.429339289665222168e-02
4.626277834177017212e-02
-2.990913763642311096e-02
-1.190774142742156982e-03
1.031081378459930420e-02
-2.968067303299903870e-02
-1.309344172477722168e-02
-1.211753487586975098e-02
-5.497665703296661377e-02
-3.178487345576286316e-02
9.705059230327606201e-03
-7.483477145433425903e-02
3.601547330617904663e-02
-6.888760626316070557e-02
-5.953492969274520874e-02
-6.252627074718475342e-02
-1.649233698844909668e-02
6.075834482908248901e-02
-3.345289826393127441e-02
3.085071593523025513e-02
-2.017665281891822815e-02
2.778317779302597046e-02
-2.969523519277572632e-02
-6.124468520283699036e-02
6.327385455369949341e-02
6.893406063318252563e-02
5.873144418001174927e-02
7.078354805707931519e-02
-3.446117788553237915e-02
-2.472233399748802185e-02
-2.540505304932594299e-02
-4.301058501005172729e-02
1.709795743227005005e-02
-1.415488123893737793e-02
-4.172209277749061584e-02
-2.664665132761001587e-02
-3.882863745093345642e-02
2.695912122726440430e-02
7.376348227262496948e-02
6.453505903482437134e-02
6.632371991872787476e-02
-5.068572238087654114e-02
5.704050511121749878e-02
-5.431766808032989502e-02
2.247557044029235840e-03
1.555990427732467651e-02
-7.972591370344161987e-02
4.841201752424240112e-02
-1.405172795057296753e-02
-5.323424935340881348e-03
7.339667528867721558e-02
1.549827307462692261e-02
-5.467653274536132812e-03
4.557954519987106323e-02
-4.855237901210784912e-02
-4.098094999790191650e-02
-2.374488115310668945e-02
2.120079100131988525e-02
6.738001853227615356e-02
3.199189156293869019e-02
-3.451157361268997192e-02
2.777673304080963135e-03
5.553268641233444214e-02
3.039978444576263428e-03
-6.797130405902862549e-02
7.311499863862991333e-02
6.444542855024337769e-02
5.940314382314682007e-02
-5.838640779256820679e-02
1.890113949775695801e-02
7.871782034635543823e-02
-5.732811987400054932e-02
-1.791401207447052002e-02
2.292925119400024414e-02
2.287353575229644775e-02
2.554581314325332642e-02
-6.667663902044296265e-02
-2.385601401329040527e-04
6.062305718660354614e-02
7.334173470735549927e-02
-6.544127315282821655e-02
1.377142220735549927e-02
-6.707724928855895996e-02
-6.789605319499969482e-02
5.881098657846450806e-02
-8.036647737026214600e-02
5.901231616735458374e-02
-6.126887723803520203e-02
-1.498316228389739990e-02
-5.594819784164428711e-02
2.917449176311492920e-02
4.658058285713195801e-03
-3.969091176986694336e-02
2.670456469058990479e-02
3.419334441423416138e-02
-4.769114777445793152e-02
-1.894963905215263367e-02
-2.525997906923294067e-02
-4.349137097597122192e-02
3.822112828493118286e-02
-4.390373826026916504e-03
6.580626219511032104e-02
7.607000321149826050e-02
1.236908882856369019e-02
-5.049566552042961121e-02
2.737684547901153564e-02
-8.522853255271911621e-03
-7.704254984855651855e-02
-6.557412445545196533e-02
-7.182285189628601074e-03
-4.214811325073242188e-02
5.729927867650985718e-02
-4.193134978413581848e-02
4.658720642328262329e-02
-6.584019958972930908e-02
4.712409526109695435e-02
-5.948148667812347412e-03
-5.852048099040985107e-02
-2.895057201385498047e-03
2.811881899833679199e-02
-3.707894682884216309e-02
7.789898663759231567e-02
-2.331071719527244568e-02
5.208518356084823608e-02
5.218877643346786499e-02
5.272126942873001099e-02
3.061197698116302490e-03
6.035473197698593140e-02
5.455461889505386353e-02
5.321555584669113159e-02
-6.969568133354187012e-02
-2.356626093387603760e-03
1.853229850530624390e-02
-4.111009091138839722e-02
5.264773219823837280e-02
-2.956870570778846741e-02
-7.609003782272338867e-02
-5.957546085119247437e-02
7.897200435400009155e-02
-4.299702867865562439e-02
-2.959755808115005493e-02
-8.069393038749694824e-02
-1.376602798700332642e-02
-4.917174577713012695e-02
7.255851477384567261e-02
4.214707016944885254e-02
-7.601574063301086426e-03
-2.566576004028320312e-03
-5.659345537424087524e-02
3.659423440694808960e-02
-4.122598841786384583e-02
7.646969705820083618e-02
-9.338155388832092285e-03
-5.288806557655334473e-02
-3.416164964437484741e-02
5.383531004190444946e-02
-6.712281703948974609e-02
-4.009309038519859314e-02
7.492723315954208374e-02
6.050727516412734985e-02
-5.442391335964202881e-02
-2.512662112712860107e-02
1.920676231384277344e-02
1.778937876224517822e-02
-6.688959151506423950e-02
-5.404344946146011353e-02
-2.957056090235710144e-02
-4.273302108049392700e-02
-3.828892484307289124e-02
6.113551557064056396e-03
-6.175547838211059570e-03
4.909334331750869751e-02
-4.327232763171195984e-02
-2.636696025729179382e-02
2.729252725839614868e-02
-6.334639340639114380e-02
3.764405101537704468e-02
1.091492176055908203e-02
-7.805167883634567261e-02
-3.039197623729705811e-02
-4.765278100967407227e-02
3.522016853094100952e-02
9.241327643394470215e-03
-3.038955852389335632e-02
1.178298145532608032e-02
4.468170553445816040e-02
-6.218653917312622070e-02
7.625751197338104248e-03
-1.322197914123535156e-02
-6.415299326181411743e-02
-5.615505576133728027e-02
9.558886289596557617e-03
2.579272538423538208e-02
-2.022347226738929749e-02
6.314287334680557251e-02
-4.543382674455642700e-02
-1.216664910316467285e-02
-3.352360054850578308e-02
5.138108879327774048e-02
3.132874518632888794e-02
3.086760640144348145e-03
7.005669176578521729e-03
-1.282145082950592041e-02
1.412676274776458740e-02
-1.167816668748855591e-02
4.534491151571273804e-02
-6.461370736360549927e-02
-3.973457962274551392e-02
-3.813978657126426697e-02
-1.578360795974731445e-02
-6.449145078659057617e-02
-2.001665532588958740e-03
-6.044427305459976196e-02
-6.808870285749435425e-02
-2.684320509433746338e-02
2.470798790454864502e-03
6.330564618110656738e-03
4.457227140665054321e-02
-2.147864177823066711e-02
3.007858246564865112e-02
3.716022521257400513e-02
5.514728277921676636e-02
-6.184094399213790894e-02
-3.563603758811950684e-02
-1.702167093753814697e-02
4.038836807012557983e-02
4.970215260982513428e-03
-2.179149910807609558e-02
7.167781144380569458e-02
-7.711680978536605835e-02
8.002419024705886841e-02
7.361532002687454224e-02
-9.044617414474487305e-03
5.702120810747146606e-02
1.696138828992843628e-02
-4.241132736206054688e-02
3.174213320016860962e-02
4.828874021768569946e-02
9.729214012622833252e-03
7.868351787328720093e-02
2.725880593061447144e-02
-4.532303661108016968e-02
5.652304738759994507e-02
-3.728395327925682068e-02
3.256113082170486450e-02
-4.784678295254707336e-02
-6.737701594829559326e-02
3.705017268657684326e-02
4.099445044994354248e-02
-3.728888928890228271e-03
1.885491609573364258e-02
6.286457180976867676e-03
-6.875368952751159668e-02
2.667225152254104614e-02
-2.488539367914199829e-02
-2.843051031231880188e-02
6.967104971408843994e-03
7.059013098478317261e-02
-9.118065237998962402e-03
5.260462313890457153e-02
-5.001474171876907349e-02
-4.961020499467849731e-02
4.662904888391494751e-02
-4.359786957502365112e-02
7.650250941514968872e-02
4.701485484838485718e-02
3.092841804027557373e-02
-2.036019414663314819e-02
-4.505265131592750549e-02
6.374301761388778687e-02
-2.628388255834579468e-02
-5.047963559627532959e-02
-1.407459378242492676e-03
-4.276926070451736450e-02
-1.370178163051605225e-02
1.112960278987884521e-03
-1.390729099512100220e-02
-3.674878552556037903e-02
3.106301277875900269e-02
-5.441225320100784302e-02
-3.035515546798706055e-03
5.532436817884445190e-02
-1.597686111927032471e-02
4.215035587549209595e-02
-3.694912791252136230e-02
-5.268060415983200073e-02
-5.456154420971870422e-02
3.838688135147094727e-04
-8.009531348943710327e-02
7.590138167142868042e-02
1.190952956676483154e-02
4.322458058595657349e-02
5.186022073030471802e-02
6.042908877134323120e-02
-6.315273791551589966e-02
2.824308723211288452e-02
6.990627199411392212e-02
6.114599853754043579e-02
-3.580184653401374817e-02
4.577592760324478149e-02
-5.937080457806587219e-02
2.728775143623352051e-02
4.446253925561904907e-02
4.113326221704483032e-02
-7.876017689704895020e-02
7.044295221567153931e-02
-2.607413753867149353e-02
-4.072443023324012756e-02
-7.723224163055419922e-02
7.084176689386367798e-02
-7.739648222923278809e-02
-5.469878762960433960e-02
-7.635243237018585205e-03
1.458510011434555054e-02
6.182862073183059692e-02
3.483004868030548096e-03
-4.885059595108032227e-02
-3.847780078649520874e-02
-5.340459197759628296e-02
4.945925623178482056e-02
4.959987848997116089e-02
1.030934602022171021e-02
-8.010637015104293823e-02
-7.200165092945098877e-02
-2.323657274246215820e-02
5.289825052022933960e-02
1.258370280265808105e-02
7.299318164587020874e-02
-1.191396266222000122e-02
4.534838348627090454e-02
-3.742225840687751770e-02
-1.015755534172058105e-02
3.478169441223144531e-03
6.646958738565444946e-02
-2.353343367576599121e-02
5.587656050920486450e-02
-2.170903980731964111e-02
2.809096872806549072e-02
-2.826636657118797302e-02
3.749222308397293091e-02
3.197894990444183350e-02
-6.173373013734817505e-02
-6.774154305458068848e-02
5.564127117395401001e-02
-4.571463912725448608e-02
7.682073861360549927e-02
5.044204741716384888e-02
1.437336206436157227e-02
4.850246757268905640e-02
7.973866909742355347e-02
5.124131590127944946e-02
5.776586383581161499e-02
-4.767906293272972107e-02
2.757216244935989380e-02
-2.683320641517639160e-02
5.547361820936203003e-02
-5.349097400903701782e-02
-1.361727714538574219e-02
2.381693571805953979e-02
-3.744109347462654114e-02
-5.868118256330490112e-02
4.663452506065368652e-03
5.026683956384658813e-02
-6.276819109916687012e-02
3.666567057371139526e-02
-6.933534890413284302e-02
-2.824499830603599548e-02
2.058722823858261108e-02
7.466830313205718994e-03
-1.186944544315338135e-02
4.368665069341659546e-02
-7.834206521511077881e-02
-4.951532930135726929e-02
6.179641932249069214e-02
-5.516336858272552490e-02
-3.726078569889068604e-02
5.319208651781082153e-02
-1.494055986404418945e-02
6.199572235345840454e-02
-1.854974031448364258e-02
6.479310244321823120e-02
3.935777395963668823e-02
1.785845309495925903e-02
-3.607470914721488953e-02
7.206382602453231812e-02
-4.244834184646606445e-02
-2.040329948067665100e-02
-3.339039906859397888e-02
7.190335541963577271e-02
4.296598583459854126e-02
-2.833169326186180115e-02
1.292871683835983276e-02
1.853629946708679199e-02
5.590967088937759399e-02
7.999633997678756714e-02
3.733624517917633057e-02
-5.859442800283432007e-02
-6.217023730278015137e-02
5.868489295244216919e-02
-6.359235942363739014e-02
1.432187110185623169e-02
-1.872668787837028503e-02
-2.851540595293045044e-02
1.091413199901580811e-03
-2.846122160553932190e-02
-6.064683198928833008e-03
-6.072466075420379639e-02
1.617650687694549561e-02
6.334362179040908813e-02
3.182333707809448242e-02
7.804533094167709351e-02
-3.680191934108734131e-03
2.882998436689376831e-02
-7.704135030508041382e-02
4.011762887239456177e-02
7.422084361314773560e-02
-6.208196282386779785e-03
7.033809274435043335e-02
-6.849511712789535522e-02
3.857541829347610474e-02
6.200822442770004272e-02
-7.137663662433624268e-02
6.376074999570846558e-02
-6.712594628334045410e-02
1.922374218702316284e-02
-7.497668266296386719e-04
3.507733345031738281e-03
4.736218601465225220e-02
-6.332610547542572021e-02
-4.415529593825340271e-02
-2.152234315872192383e-03
1.170758157968521118e-02
-3.009172901511192322e-02
-6.437157094478607178e-02
5.155818909406661987e-02
-5.452698469161987305e-02
8.033802360296249390e-02
-5.062395334243774414e-02
8.020212501287460327e-02
1.159126311540603638e-02
3.271967172622680664e-02
1.451043784618377686e-02
-6.410408765077590942e-02
1.688234508037567139e-03
-3.015374764800071716e-02
-5.556895211338996887e-02
-6.115721911191940308e-02
-3.120621293783187866e-02
3.811813890933990479e-03
-8.522488176822662354e-03
-4.839516058564186096e-02
-1.505567878484725952e-02
-5.079999193549156189e-02
-3.566866368055343628e-02
-6.602892279624938965e-02
-2.352328225970268250e-02
-3.616337478160858154e-02
5.292361229658126831e-02
-1.723924279212951660e-02
-2.297136560082435608e-02
-1.613423228263854980e-04
2.092249691486358643e-03
-4.050677642226219177e-02
-7.051585614681243896e-02
7.982159405946731567e-02
3.829911351203918457e-02
5.809096246957778931e-02
-5.855135619640350342e-03
4.058353602886199951e-03
-4.450243711471557617e-02
6.335350126028060913e-02
-3.163728490471839905e-02
-4.963961616158485413e-02
-1.084897667169570923e-02
-2.619604766368865967e-02
5.117241293191909790e-02
1.340107619762420654e-02
6.368052214384078979e-02
-8.585125207901000977e-03
5.667633563280105591e-02
4.888575524091720581e-02
-7.793159037828445435e-02
-5.429092049598693848e-02
9.529583156108856201e-03
-2.939246594905853271e-03
7.674730569124221802e-02
1.076779514551162720e-02
1.314213126897811890e-02
2.845375239849090576e-02
-4.420903697609901428e-02
-5.432232841849327087e-02
3.737591207027435303e-03
7.951751351356506348e-03
7.896137982606887817e-02
4.744924604892730713e-03
-7.334829866886138916e-02
1.160108298063278198e-02
-5.975515395402908325e-02
8.273117244243621826e-03
-7.759983837604522705e-02
-1.351422071456909180e-02
1.473735272884368896e-02
-3.237629681825637817e-02
6.821266561746597290e-02
2.983220666646957397e-02
2.400391548871994019e-02
-3.939196467399597168e-04
7.476911693811416626e-02
5.773600190877914429e-02
5.089568346738815308e-02
7.822858542203903198e-02
-6.154187768697738647e-02
-6.361577659845352173e-02
-5.460611730813980103e-02
7.254312187433242798e-02
2.729342132806777954e-02
-3.195025399327278137e-02
5.218047648668289185e-02
4.932158440351486206e-02
1.599756628274917603e-02
4.052054882049560547e-02
-4.992448911070823669e-02
2.649712562561035156e-02
5.509794503450393677e-02
-9.819060564041137695e-03
6.195016950368881226e-02
3.315789252519607544e-02
-1.912492141127586365e-02
4.329870641231536865e-02
-3.715395927429199219e-02
-2.508061379194259644e-02
3.990222513675689697e-02
-4.327832162380218506e-02
2.822430431842803955e-02
5.183952301740646362e-02
7.903953641653060913e-02
-2.117826044559478760e-02
5.262096971273422241e-02
-2.271702885627746582e-02
-9.087957441806793213e-03
-4.430502653121948242e-03
1.704375445842742920e-02
-7.802820205688476562e-02
-7.811149209737777710e-02
-2.609071135520935059e-02
4.480368643999099731e-02
-6.223911792039871216e-02
-4.528082162141799927e-02
-3.099519386887550354e-02
5.525245517492294312e-02
-4.598438739776611328e-02
2.446691691875457764e-02
-8.095350861549377441e-02
3.785973042249679565e-02
7.673480361700057983e-02
7.044564932584762573e-02
-2.861642837524414062e-02
2.082692086696624756e-02
2.820744365453720093e-02
1.841286569833755493e-02
4.667396098375320435e-02
6.711270660161972046e-02
7.895683497190475464e-02
6.795259565114974976e-02
7.112615555524826050e-02
2.782434970140457153e-02
3.568941354751586914e-02
-3.451971709728240967e-02
-6.636711210012435913e-02
-5.909194797277450562e-02
-9.229026734828948975e-03
-3.479078412055969238e-03
6.500050425529479980e-03
-7.019899785518646240e-03
7.405201345682144165e-02
3.011973202228546143e-02
3.186348825693130493e-02
-1.081608235836029053e-02
-7.709126174449920654e-02
4.982209950685501099e-02
-5.511411651968955994e-02
4.259192943572998047e-02
5.971080809831619263e-02
-5.718894302845001221e-02
-1.575783640146255493e-02
4.875984042882919312e-02
-4.862271249294281006e-02
2.542918920516967773e-02
8.734777569770812988e-03
-8.995011448860168457e-04
5.088771134614944458e-02
3.349306434392929077e-02
3.122717887163162231e-02
5.756814032793045044e-02
-6.897140294313430786e-02
-4.165320843458175659e-02
-1.663157343864440918e-02
1.190384477376937866e-02
6.260002404451370239e-02
-4.208354279398918152e-02
1.322069019079208374e-02
-5.900995433330535889e-02
-1.407331228256225586e-02
-5.399413779377937317e-02
2.390079200267791748e-03
-2.398368716239929199e-02
-1.667141169309616089e-02
-4.886020720005035400e-02
7.048983126878738403e-02
-7.052269577980041504e-02
5.979823321104049683e-02
2.397125214338302612e-02
1.171531528234481812e-02
3.312087804079055786e-02
5.932390689849853516e-03
-2.883179858326911926e-02
-2.877005189657211304e-02
-7.199972122907638550e-02
-7.007119059562683105e-02
-7.093584537506103516e-02
-5.798869580030441284e-02
4.789868742227554321e-02
-2.469257265329360962e-02
6.354647129774093628e-02
-3.985078260302543640e-02
-7.802765816450119019e-02
-3.640071302652359009e-02
-3.412430733442306519e-02
-7.850922644138336182e-03
-2.247363701462745667e-02
-4.649076238274574280e-02
-3.823804482817649841e-02
6.218064576387405396e-02
-5.548782646656036377e-02
-6.442090868949890137e-02
5.603946000337600708e-02
-7.244437932968139648e-03
-3.952093422412872314e-03
-1.372176408767700195e-02
-6.749254465103149414e-02
6.915149837732315063e-02
5.347422510385513306e-02
7.351882755756378174e-03
5.904466658830642700e-02
-1.934398710727691650e-02
-2.213349565863609314e-02
5.736110359430313110e-02
1.404590904712677002e-02
1.025840640068054199e-03
5.808473378419876099e-02
-5.077148973941802979e-02
-5.027748644351959229e-03
7.778078317642211914e-03
2.849494665861129761e-02
3.084590286016464233e-02
-6.126448512077331543e-03
5.371212959289550781e-03
-3.763308748602867126e-02
-3.582313656806945801e-02
-6.745251268148422241e-02
4.659654945135116577e-02
2.179248631000518799e-02
7.162544876337051392e-02
4.226829856634140015e-02
-5.058057978749275208e-02
3.115908801555633545e-02
2.136804163455963135e-03
2.000825852155685425e-02
-2.106288820505142212e-02
-7.916802167892456055e-02
-1.885518431663513184e-04
5.794589966535568237e-02
-3.990218415856361389e-02
-2.090849354863166809e-02
-1.348231732845306396e-02
7.379638403654098511e-02
6.070468574762344360e-02
-2.543535456061363220e-02
7.144048064947128296e-02
-2.924310788512229919e-02
7.623373717069625854e-02
-6.746755540370941162e-02
-4.514092952013015747e-02
5.925526469945907593e-02
5.145629495382308960e-02
2.800609171390533447e-02
7.307102531194686890e-02
-5.667755752801895142e-02
-4.189205542206764221e-02
1.003878563642501831e-02
2.449089288711547852e-02
-4.767049476504325867e-02
2.159583568572998047e-02
-5.193364247679710388e-02
4.010275751352310181e-02
-1.467186957597732544e-02
7.764922827482223511e-02
-1.407568901777267456e-02
-5.297859013080596924e-02
4.232060909271240234e-02
-1.152042299509048462e-02
-9.412318468093872070e-03
-5.453899502754211426e-02
-8.001430332660675049e-02
-6.657463312149047852e-02
-2.863255888223648071e-02
-1.291527599096298218e-02
-2.034858986735343933e-02
4.708067327737808228e-02
7.586459070444107056e-02
5.054577440023422241e-02
-6.282642483711242676e-02
7.428452372550964355e-04
2.081064134836196899e-02
-3.378828242421150208e-02
-7.273294776678085327e-02
2.132211625576019287e-02
-1.873229444026947021e-02
-5.564222484827041626e-02
-5.585142970085144043e-02
7.341758161783218384e-02
8.767753839492797852e-03
-3.206309303641319275e-02
3.943918645381927490e-02
-1.604487001895904541e-02
-7.411536574363708496e-02
4.035297781229019165e-02
-1.724541187286376953e-02
-6.611347198486328125e-02
1.987998187541961670e-02
-4.380811378359794617e-02
-6.807480007410049438e-02
1.626931130886077881e-02
2.887233346700668335e-02
-2.028235793113708496e-02
-5.247507616877555847e-02
-5.386733636260032654e-02
-8.537411689758300781e-03
-2.546871453523635864e-02
9.055271744728088379e-03
1.132132112979888916e-02
4.016257822513580322e-03
8.075856417417526245e-02
3.665620833635330200e-02
-2.664588391780853271e-03
2.653255313634872437e-02
-1.529431343078613281e-02
5.830083042383193970e-02
4.079338908195495605e-02
3.744090348482131958e-02
-3.321323916316032410e-02
5.348727852106094360e-02
-8.661434054374694824e-03
4.523999243974685669e-02
-3.748170658946037292e-02
7.535872608423233032e-02
-5.747085437178611755e-02
3.642165660858154297e-02
7.655835896730422974e-02
5.680620670318603516e-04
5.147895961999893188e-02
5.688977986574172974e-02
5.479768663644790649e-02
-4.425560310482978821e-02
2.178820967674255371e-02
5.418471246957778931e-02
3.388602286577224731e-02
4.182220995426177979e-02
4.376400262117385864e-02
4.726638644933700562e-02
-7.634168863296508789e-02
-2.400519326329231262e-02
7.327430695295333862e-02
-2.898370102047920227e-02
-6.670754402875900269e-02
6.724322587251663208e-02
1.625180989503860474e-02
3.101573139429092407e-02
5.128235369920730591e-02
-2.588684856891632080e-02
2.152723819017410278e-02
-2.847514301538467407e-02
-3.798852488398551941e-02
-6.952302157878875732e-02
2.002070844173431396e-02
3.094010055065155029e-03
4.413468390703201294e-02
1.804672181606292725e-03
-7.175087928771972656e-03
-3.188885748386383057e-02
1.684188097715377808e-02
7.721375674009323120e-02
4.744266718626022339e-02
6.884264200925827026e-02
1.681730151176452637e-02
1.227989792823791504e-02
2.981983125209808350e-02
-6.737952679395675659e-02
-1.977108418941497803e-03
-1.015699654817581177e-02
-1.229113340377807617e-02
-7.576852291822433472e-02
4.374787211418151855e-03
-8.373774588108062744e-03
3.567522019147872925e-02
-9.161807596683502197e-03
-4.870491847395896912e-02
6.650566309690475464e-02
9.039960801601409912e-03
1.628307998180389404e-02
9.195379912853240967e-03
3.697159886360168457e-02
-8.056428283452987671e-02
7.060428708791732788e-02
6.300524622201919556e-02
-3.483667224645614624e-02
8.979603648185729980e-03
3.998821973800659180e-02
2.383574843406677246e-02
3.070624172687530518e-02
-2.317292988300323486e-02
-3.228686749935150146e-03
5.649857968091964722e-02
6.419142335653305054e-02
-1.360265910625457764e-02
3.882242739200592041e-02
-2.693697437644004822e-02
-6.876915693283081055e-02
-1.789376139640808105e-03
8.029376715421676636e-02
1.343354582786560059e-03
-2.786418795585632324e-02
-7.602082937955856323e-02
1.269406825304031372e-02
2.123846113681793213e-02
-6.345163285732269287e-02
-5.800497904419898987e-02
1.034506410360336304e-02
-3.009308129549026489e-02
-3.998787328600883484e-02
-6.376729160547256470e-02
-3.007726371288299561e-02
3.911331295967102051e-02
-6.419251859188079834e-02
7.090418785810470581e-02
-3.064319863915443420e-02
3.005141019821166992e-02
-6.724800914525985718e-02
-7.250781357288360596e-02
4.858196526765823364e-02
-2.506899088621139526e-02
3.638386726379394531e-02
2.755390852689743042e-02
2.971646934747695923e-02
2.529623359441757202e-02
4.441871494054794312e-02
6.069434434175491333e-02
1.557330787181854248e-02
5.423174053430557251e-02
-4.471205174922943115e-03
-3.110354766249656677e-02
7.604465633630752563e-02
-3.589905798435211182e-03
4.124470055103302002e-03
6.740853935480117798e-02
-5.602274462580680847e-02
2.930703759193420410e-02
3.689527511596679688e-05
1.804157346487045288e-02
-1.736577600240707397e-02
-4.071094840764999390e-02
-6.951093673706054688e-03
-2.146226540207862854e-02
6.510316580533981323e-02
4.975340515375137329e-02
8.365228772163391113e-03
-5.775756388902664185e-02
6.900944560766220093e-02
-4.563212022185325623e-02
6.485120207071304321e-02
6.045288592576980591e-02
-7.443025708198547363e-02
6.277107447385787964e-02
3.869476169347763062e-02
-7.245925813913345337e-02
-5.212540179491043091e-02
2.714416384696960449e-02
3.908424824476242065e-02
-2.777441963553428650e-02
5.588730424642562866e-02
5.850053578615188599e-02
-4.116543754935264587e-02
-3.864558041095733643e-02
4.171681404113769531e-02
-1.972311362624168396e-02
2.356580644845962524e-02
2.140975743532180786e-02
-2.095302939414978027e-02
-1.343125849962234497e-02
4.602722078561782837e-02
-4.995982348918914795e-02
2.389444410800933838e-02
-7.656067609786987305e-02
-5.944307148456573486e-02
5.295640975236892700e-02
6.177855283021926880e-02
-1.898974552750587463e-02
-7.423994690179824829e-02
2.190481871366500854e-02
2.627301216125488281e-02
-5.352029204368591309e-02
5.894156545400619507e-02
-5.549297481775283813e-02
4.510960727930068970e-02
-7.410357147455215454e-02
-4.070483893156051636e-02
-3.794037178158760071e-02
-3.496095910668373108e-02
3.853376954793930054e-02
1.540858298540115356e-02
5.661403387784957886e-02
7.594086974859237671e-02
-8.918337523937225342e-03
-4.928721487522125244e-02
6.775982677936553955e-03
-9.980872273445129395e-04
-6.107853353023529053e-02
-6.614485383033752441e-02
5.914151668548583984e-03
4.908638447523117065e-02
-1.478463411331176758e-02
-6.097930669784545898e-02
7.257919758558273315e-02
5.954615026712417603e-02
5.382802337408065796e-02
5.444913357496261597e-02
7.493045181035995483e-02
-4.780265316367149353e-02
2.723107486963272095e-02
-2.409395575523376465e-02
2.458038926124572754e-02
-6.860692799091339111e-02
-3.676288202404975891e-02
3.297618776559829712e-02
6.673639267683029175e-02
2.933529019355773926e-02
4.284425824880599976e-02
3.337411582469940186e-02
-2.334067225456237793e-02
3.629595786333084106e-02
4.747480899095535278e-02
1.109983772039413452e-02
2.286042273044586182e-02
-7.787737995386123657e-02
-6.873144954442977905e-02
4.175812005996704102e-02
-6.744359433650970459e-02
-1.818013191223144531e-02
-4.633269086480140686e-02
-1.689857989549636841e-02
-6.061100959777832031e-02
-3.710060566663742065e-02
4.287966340780258179e-02
-3.328629955649375916e-02
2.110442519187927246e-02
5.922961980104446411e-02
7.299219816923141479e-02
-1.019455492496490479e-02
-2.608421444892883301e-02
7.676682621240615845e-02
-7.811951637268066406e-02
-3.165844082832336426e-02
4.292549192905426025e-02
4.098081588745117188e-02
-7.183256000280380249e-02
5.251324921846389771e-02
-5.949480086565017700e-02
1.154641807079315186e-02
2.292916923761367798e-02
-7.093673199415206909e-02
-2.656836807727813721e-02
5.383829027414321899e-02
-6.149271875619888306e-02
3.324437141418457031e-02
-3.090405464172363281e-02
-1.978021860122680664e-02
2.843834459781646729e-03
-5.579277500510215759e-02
7.451204210519790649e-02
6.314831227064132690e-02
4.514119774103164673e-02
-5.834639817476272583e-02
-5.538459867238998413e-02
-6.795944273471832275e-02
2.434486895799636841e-02
9.483888745307922363e-03
-4.349518194794654846e-02
5.720130354166030884e-02
4.044073820114135742e-02
-5.790797621011734009e-02
-7.339224964380264282e-02
-2.557940781116485596e-02
-7.507683336734771729e-02
-4.662390425801277161e-02
-5.384072661399841309e-03
-4.050987213850021362e-02
-5.351766198873519897e-02
-2.517558634281158447e-03
2.320504933595657349e-02
-5.164863541722297668e-02
-6.480441987514495850e-02
-6.315884739160537720e-02
4.643888026475906372e-02
3.451084345579147339e-02
4.495733231306076050e-02
3.846406936645507812e-02
4.445498436689376831e-02
7.588840276002883911e-02
-1.072333753108978271e-02
-6.355213373899459839e-02
9.584993124008178711e-03
2.189809083938598633e-02
6.237842887639999390e-02
-4.059306532144546509e-02
-5.654246360063552856e-02
-2.454883232712745667e-02
6.176111847162246704e-02
1.538864523172378540e-02
3.019253909587860107e-02
-7.884559035301208496e-02
4.572501033544540405e-02
-3.880525752902030945e-02
1.386799663305282593e-02
8.009675890207290649e-02
4.446830600500106812e-02
-7.474888861179351807e-02
2.403005957603454590e-02
-3.383856266736984253e-02
-5.993952602148056030e-02
5.371466279029846191e-03
5.757369846105575562e-02
-5.183238536119461060e-02
5.953901261091232300e-02
-8.107811212539672852e-03
4.322322458028793335e-02
3.333359956741333008e-02
5.825415998697280884e-02
-7.407382875680923462e-02
1.144133508205413818e-03
7.754188030958175659e-02
-6.546786427497863770e-02
-1.410458236932754517e-02
2.202307432889938354e-02
-6.091594696044921875e-04
6.058462709188461304e-02
-1.464015990495681763e-02
1.232749223709106445e-02
1.916597783565521240e-02
-3.867228701710700989e-02
1.553623378276824951e-02
3.018058836460113525e-02
-1.111232489347457886e-02
3.760883212089538574e-02
5.178432911634445190e-02
-3.422119095921516418e-02
-4.026100412011146545e-02
-6.183750927448272705e-03
-2.230317145586013794e-02
-7.813125848770141602e-02
-8.095509558916091919e-02
4.694472998380661011e-02
3.995192050933837891e-02
5.548661202192306519e-02
-3.062345460057258606e-02
-9.200431406497955322e-03
6.767833977937698364e-02
5.712448805570602417e-02
1.578349620103836060e-02
-8.393809199333190918e-03
2.639143913984298706e-02
2.084127068519592285e-02
6.879215687513351440e-02
-6.464849412441253662e-02
2.356024086475372314e-02
4.038614779710769653e-02
-1.100788265466690063e-02
-3.917680308222770691e-02
6.365068256855010986e-03
-1.994581148028373718e-02
-7.402946799993515015e-02
4.705425351858139038e-02
-4.176183044910430908e-02
-5.366975814104080200e-02
-6.290335208177566528e-02
-4.159476980566978455e-02
4.764566570520401001e-02
6.122191995382308960e-02
1.136409491300582886e-02
-5.998761951923370361e-02
2.836801111698150635e-02
6.490632146596908569e-02
5.174946039915084839e-02
3.661268204450607300e-02
-5.961814150214195251e-02
-8.916251361370086670e-03
-6.949947029352188110e-02
-3.337902575731277466e-02
1.310736685991287231e-02
1.726299524307250977e-04
-7.998185604810714722e-02
3.450927138328552246e-02
8.752301335334777832e-03
3.883793950080871582e-02
-7.178179919719696045e-03
7.249108701944351196e-02
2.440317720174789429e-02
2.062448859214782715e-02
6.699485331773757935e-02
2.181551605463027954e-02
1.284730434417724609e-02
5.365096777677536011e-02
-1.893710717558860779e-02
1.091633737087249756e-02
-6.068631261587142944e-02
7.555507868528366089e-02
-2.851455658674240112e-02
7.095652073621749878e-02
4.525133222341537476e-02
5.851734429597854614e-02
4.084055870771408081e-02
5.824774503707885742e-03
1.826502382755279541e-02
4.213233292102813721e-02
-7.787653058767318726e-02
-4.962060600519180298e-02
4.521989077329635620e-02
-2.296011149883270264e-02
3.710187971591949463e-03
6.118930131196975708e-02
-1.609429717063903809e-03
-1.299206912517547607e-02
-6.844605505466461182e-02
-1.347297430038452148e-02
4.813415557146072388e-02
3.391245752573013306e-02
-6.549397110939025879e-02
-7.301536947488784790e-02
9.333513677120208740e-03
-1.100345700979232788e-02
1.065575331449508667e-02
4.702707380056381226e-02
1.276082545518875122e-02
-6.673745810985565186e-03
3.196626901626586914e-02
5.717430263757705688e-02
7.085060328245162964e-02
-5.717115104198455811e-02
7.623525708913803101e-02
8.012864738702774048e-02
3.106156736612319946e-02
7.429710775613784790e-02
-7.140350341796875000e-02
7.153209298849105835e-02
-3.034225478768348694e-02
-3.799973800778388977e-02
-5.243638157844543457e-02
1.074379682540893555e-02
-6.835054606199264526e-02
-1.433405280113220215e-02
4.222325980663299561e-03
2.381743490695953369e-02
-2.730362862348556519e-02
-4.996512085199356079e-02
-2.837570756673812866e-02
-4.318383708596229553e-02
-9.090892970561981201e-03
7.836853712797164917e-02
4.169799387454986572e-02
-4.246063902974128723e-02
-2.202104404568672180e-02
-4.553086683154106140e-02
-8.019942790269851685e-02
6.945126503705978394e-02
-1.630500704050064087e-02
4.075227677822113037e-02
-7.425402104854583740e-02
-7.113081216812133789e-02
-1.775947958230972290e-02
2.002109587192535400e-02
-6.741379946470260620e-02
1.807734370231628418e-02
-3.783404827117919922e-03
-2.276380732655525208e-02
-2.506472170352935791e-03
1.202408969402313232e-02
-5.994609743356704712e-02
1.987032592296600342e-03
-3.492974489927291870e-02
-7.514499872922897339e-02
6.028475612401962280e-02
1.972348242998123169e-02
4.109133780002593994e-02
-3.455752134323120117e-02
1.750713586807250977e-02
-2.172423899173736572e-02
1.425343006849288940e-02
2.294421941041946411e-02
-2.697443217039108276e-02
-6.542086601257324219e-02
1.202070713043212891e-02
5.007669329643249512e-03
3.451573103666305542e-02
2.751505374908447266e-02
-2.124644815921783447e-02
-4.771272838115692139e-02
4.997911304235458374e-02
-8.052816241979598999e-02
-7.195102423429489136e-02
5.361837893724441528e-02
-1.191657036542892456e-02
-2.010237425565719604e-02
7.514791935682296753e-02
-5.568683892488479614e-02
-4.896844178438186646e-02
-9.679228067398071289e-03
-6.013455241918563843e-02
-4.860577359795570374e-02
7.355993241071701050e-02
3.563197702169418335e-02
-6.340556591749191284e-02
-6.992378830909729004e-02
2.790734916925430298e-02
-2.850227430462837219e-02
-6.131882965564727783e-02
-4.071483761072158813e-02
-5.534495785832405090e-02
-3.084112703800201416e-02
2.430576831102371216e-02
3.456475585699081421e-02
2.273946255445480347e-02
5.685418099164962769e-02
1.985818892717361450e-02
3.837836533784866333e-02
2.417629957199096680e-02
-2.019692212343215942e-02
-5.664423108100891113e-03
3.689561784267425537e-02
-4.818425700068473816e-02
-7.406032830476760864e-02
-2.483223378658294678e-02
-9.591661393642425537e-03
-5.334597826004028320e-02
6.443285197019577026e-02
-6.966643780469894409e-02
4.971420019865036011e-02
5.382684618234634399e-02
9.200312197208404541e-03
-5.388936400413513184e-02
6.406227499246597290e-02
-4.786364734172821045e-03
-6.797576695680618286e-02
-3.196694329380989075e-02
5.647998303174972534e-02
-3.395817056298255920e-02
1.111859083175659180e-02
-2.584368363022804260e-02
4.396424442529678345e-02
2.964483946561813354e-02
5.539608746767044067e-02
-2.296322584152221680e-02
-4.349987953901290894e-02
2.033190429210662842e-02
-3.187149018049240112e-02
3.522660583257675171e-02
5.959277600049972534e-02
-4.058057069778442383e-02
1.265227794647216797e-03
9.413711726665496826e-03
4.034023731946945190e-02
2.853775769472122192e-02
2.072547376155853271e-02
-2.568414434790611267e-02
-7.822052389383316040e-02
-6.713213026523590088e-02
7.296880334615707397e-02
5.802700668573379517e-02
-3.467680141329765320e-02
4.013206064701080322e-02
-4.644088819622993469e-02
6.625860184431076050e-02
-2.011469379067420959e-02
7.051326334476470947e-03
2.142877131700515747e-02
-2.378450334072113037e-02
5.864415317773818970e-02
5.452636629343032837e-02
7.347627729177474976e-02
2.413892000913619995e-02
7.254097610712051392e-02
4.443573206663131714e-02
5.232419818639755249e-02
5.052790045738220215e-03
-1.892954483628273010e-02
-1.942926645278930664e-02
6.849646568298339844e-03
5.631031841039657593e-02
-2.702022716403007507e-02
-3.392094373703002930e-02
4.423856735229492188e-04
-7.611073553562164307e-02
-2.738985791802406311e-02
4.944097250699996948e-02
-7.304632663726806641e-02
-5.618920922279357910e-02
7.817106693983078003e-02
6.119468063116073608e-02
-7.145923376083374023e-02
2.950935810804367065e-02
3.328589349985122681e-02
-1.254767179489135742e-02
4.525541514158248901e-02
7.851216942071914673e-02
-3.374075144529342651e-02
-1.592315733432769775e-02
-4.623280838131904602e-02
3.355520218610763550e-02
-4.295155405998229980e-03
-6.485253572463989258e-02
-7.069316506385803223e-02
-7.098735868930816650e-02
-4.907137900590896606e-02
-6.149606406688690186e-02
3.853755444288253784e-02
6.835222244262695312e-03
7.710657268762588501e-02
3.269207477569580078e-02
4.845365881919860840e-03
-2.167940139770507812e-03
-7.629028707742691040e-02
-7.728309929370880127e-02
-7.633629441261291504e-02
-6.776097416877746582e-02
8.768104016780853271e-03
-5.245593190193176270e-02
7.002278417348861694e-02
-4.408979415893554688e-02
-3.315586224198341370e-02
-7.750555872917175293e-03
-7.706880569458007812e-04
-4.338477924466133118e-02
1.272372901439666748e-02
5.829510837793350220e-02
4.511802643537521362e-02
4.023957997560501099e-02
-3.493539988994598389e-03
5.425386875867843628e-02
-9.904287755489349365e-03
3.345844894647598267e-02
-6.481975317001342773e-02
4.118841141462326050e-02
-1.831655949354171753e-02
7.951266318559646606e-02
-1.647470146417617798e-02
-3.467457741498947144e-02
7.843386381864547729e-02
1.274192184209823608e-01
3.397888690233230591e-02
1.625400967895984650e-02
-7.874547690153121948e-02
2.468405291438102722e-02
-1.256984937936067581e-02
6.179744750261306763e-02
9.700289368629455566e-02
-7.270374801009893417e-03
-2.187061682343482971e-02
-3.693855926394462585e-02
5.233046784996986389e-02
3.862318396568298340e-02
-5.501531064510345459e-03
3.088037110865116119e-02
-3.067956864833831787e-02
-6.255359202623367310e-02
-8.668228983879089355e-04
-5.183864757418632507e-02
6.424731761217117310e-02
-7.652153819799423218e-02
5.344944447278976440e-02
8.692155778408050537e-02
2.973854541778564453e-02
2.545165829360485077e-03
-1.801884174346923828e-02
-4.089369997382164001e-02
4.798212274909019470e-02
-7.754702866077423096e-02
-9.647980332374572754e-02
3.309116512537002563e-02
-1.447404175996780396e-02
6.148446351289749146e-02
7.664674520492553711e-02
3.674919903278350830e-02
3.882310912013053894e-02
-3.479392081499099731e-02
-2.404947206377983093e-02
1.080115977674722672e-02
1.383269485086202621e-02
4.220992699265480042e-02
-8.041609823703765869e-02
-3.695502504706382751e-02
6.263872236013412476e-02
-1.563506945967674255e-02
-3.782933950424194336e-02
-7.301673758774995804e-03
-7.641082163900136948e-03
-6.011683866381645203e-02
-6.054733693599700928e-02
2.100207656621932983e-02
8.395706117153167725e-02
4.620466381311416626e-02
-1.199518367648124695e-01
-6.186667084693908691e-02
5.813079699873924255e-02
-4.679333046078681946e-02
-7.285106182098388672e-02
-1.182763800024986267e-01
3.413262590765953064e-02
6.792733445763587952e-03
-2.270478010177612305e-02
9.249510616064071655e-02
-3.543591871857643127e-02
1.317765116691589355e-01
-4.678821656852960587e-03
8.683899417519569397e-03
1.295921113342046738e-02
-6.403020769357681274e-02
3.547335788607597351e-02
-4.947481676936149597e-02
5.838954448699951172e-02
-1.056739315390586853e-02
7.525197416543960571e-02
-6.846054643392562866e-02
9.537318348884582520e-02
-4.504876211285591125e-02
-9.166689217090606689e-02
2.053851075470447540e-02
-6.942740827798843384e-02
4.781487956643104553e-02
1.629694178700447083e-02
5.959597602486610413e-02
1.091660233214497566e-03
7.897005975246429443e-02
9.736467897891998291e-02
-8.253236114978790283e-02
-7.871693372726440430e-02
9.090312570333480835e-02
-3.902480006217956543e-02
3.168669715523719788e-02
3.021114319562911987e-02
4.038140550255775452e-02
3.070203354582190514e-03
-2.977423835545778275e-03
8.168992400169372559e-02
3.686045110225677490e-02
-7.812342792749404907e-02
4.927244409918785095e-02
6.401135027408599854e-02
-2.094467915594577789e-02
8.966153115034103394e-02
-1.057854760438203812e-02
3.436953574419021606e-02
3.875308856368064880e-02
-3.239627927541732788e-02
9.747167117893695831e-03
6.780769675970077515e-02
4.066395759582519531e-02
-3.279261291027069092e-02
1.278671319596469402e-03
6.768190115690231323e-02
-3.388520702719688416e-02
-6.792801432311534882e-03
-8.898599445819854736e-02
-4.191508889198303223e-02
-1.403187494724988937e-02
2.330668270587921143e-03
-1.051696836948394775e-01
7.194786518812179565e-02
-8.214239031076431274e-02
7.303031533956527710e-02
-8.062063134275376797e-04
-7.017655763775110245e-03
1.395987719297409058e-01
3.570492565631866455e-02
-4.059236869215965271e-02
6.234184652566909790e-02
1.269606947898864746e-01
-1.822646893560886383e-02
-1.787078008055686951e-02
5.249858647584915161e-02
9.475918114185333252e-02
-3.932248055934906006e-02
3.150532394647598267e-02
6.256105005741119385e-02
-7.277175039052963257e-02
-5.156010016798973083e-02
4.896378517150878906e-02
1.001536399126052856e-01
9.639076888561248779e-03
-5.543248355388641357e-02
7.726452499628067017e-02
-6.869865208864212036e-02
-2.905295928940176964e-03
6.417624652385711670e-03
1.018390990793704987e-02
-3.261946141719818115e-03
3.087832406163215637e-02
2.996163628995418549e-02
3.375760838389396667e-02
1.173861511051654816e-02
-9.029173851013183594e-02
-2.602502889931201935e-02
-2.467151265591382980e-03
-7.894343882799148560e-02
-6.338431686162948608e-02
-2.900924719870090485e-02
-3.358989953994750977e-02
6.684320420026779175e-02
1.329363137483596802e-02
9.004475548863410950e-03
4.794764518737792969e-02
-7.093130052089691162e-02
2.765761129558086395e-02
-4.746282845735549927e-02
5.453488603234291077e-02
4.353653173893690109e-03
-1.046805083751678467e-01
4.739955812692642212e-02
8.417252451181411743e-02
-7.770374417304992676e-02
5.242284014821052551e-02
-3.800619021058082581e-02
-8.491697907447814941e-02
-2.391159534454345703e-03
-4.719022288918495178e-02
2.445831149816513062e-02
-5.201224982738494873e-02
1.095831487327814102e-02
-2.920568548142910004e-02
-3.752127662301063538e-02
-1.114923041313886642e-02
7.007031142711639404e-02
-5.501775443553924561e-02
-2.876365743577480316e-02
-4.713002592325210571e-02
1.458086539059877396e-02
6.643147673457860947e-03
1.099023595452308655e-01
6.193057075142860413e-02
9.420200437307357788e-02
1.250481978058815002e-02
9.994695335626602173e-02
2.465756610035896301e-02
1.146010309457778931e-01
1.087868306785821915e-02
6.969245523214340210e-02
1.815239526331424713e-02
5.898154899477958679e-02
7.946231961250305176e-02
-8.233956247568130493e-02
1.473435387015342712e-02
-4.302983731031417847e-02
-5.996178090572357178e-02
-9.642350673675537109e-02
2.635258808732032776e-02
-5.272707715630531311e-02
1.978128403425216675e-02
7.086855173110961914e-02
7.153423875570297241e-02
3.960497304797172546e-02
-2.533545531332492828e-02
4.517850000411272049e-03
-3.856060281395912170e-02
-9.343037381768226624e-03
-3.998237103223800659e-02
4.421213641762733459e-02
6.385335326194763184e-02
6.580450385808944702e-02
-2.289443276822566986e-03
7.377368956804275513e-02
-2.799796685576438904e-02
3.014782257378101349e-02
-6.648968905210494995e-02
-4.479027539491653442e-02
1.616775989532470703e-02
-3.164460137486457825e-02
-7.288900762796401978e-02
8.119415491819381714e-03
-1.655170135200023651e-02
-1.489998400211334229e-02
-5.716760456562042236e-02
3.058788552880287170e-02
9.179884940385818481e-02
-8.049581944942474365e-02
-1.698115468025207520e-02
-4.835636541247367859e-02
3.856698051095008850e-02
7.236828655004501343e-02
6.643342226743698120e-02
4.755453392863273621e-02
5.921998247504234314e-02
2.057838067412376404e-02
-3.099295496940612793e-02
-4.332341253757476807e-03
-1.288774311542510986e-01
2.063571475446224213e-02
3.653938695788383484e-02
-6.086573004722595215e-03
3.171738237142562866e-02
8.892209827899932861e-02
8.662762120366096497e-03
-1.054579764604568481e-02
-8.719357103109359741e-02
6.344328075647354126e-02
1.967987418174743652e-02
1.665242016315460205e-02
-6.846092641353607178e-02
-1.072748005390167236e-02
-1.069935504347085953e-02
-3.095495328307151794e-02
-2.437975630164146423e-02
6.982094142585992813e-03
-2.207487821578979492e-02
7.335189729928970337e-02
-4.505585134029388428e-02
5.270566418766975403e-02
-7.644325494766235352e-02
4.560040682554244995e-02
1.339372247457504272e-02
3.073227405548095703e-02
-4.015058279037475586e-02
7.071947306394577026e-02
5.979101732373237610e-02
-6.938835233449935913e-02
-1.781867817044258118e-02
-4.936968907713890076e-02
9.838543832302093506e-02
-9.149509668350219727e-02
1.156852617859840393e-01
8.549695461988449097e-02
1.002883818000555038e-02
-5.338254570960998535e-02
-8.966355025768280029e-02
5.063406750559806824e-02
4.233627114444971085e-03
2.866236120462417603e-02
-7.514486461877822876e-02
-5.668200552463531494e-02
3.800664469599723816e-02
1.456092149019241333e-01
9.001810848712921143e-02
2.692761644721031189e-02
4.705499112606048584e-02
-4.849539697170257568e-02
-8.039004169404506683e-03
4.174860566854476929e-02
8.958197385072708130e-02
-5.074727907776832581e-02
7.154949754476547241e-02
1.583647541701793671e-02
1.343054920434951782e-01
3.092571347951889038e-02
4.245876148343086243e-02
-3.000476770102977753e-02
3.397182747721672058e-02
1.035925447940826416e-01
-6.409686058759689331e-03
1.570497751235961914e-01
-1.038729585707187653e-02
4.729046672582626343e-02
7.800399512052536011e-02
-1.229943707585334778e-02
-6.482828408479690552e-02
-1.209055036306381226e-01
-2.482262253761291504e-02
-6.857503205537796021e-02
1.172441020607948303e-01
1.073569506406784058e-01
-4.217109084129333496e-02
5.944428499788045883e-03
3.781554475426673889e-02
-7.243625074625015259e-02
1.814799010753631592e-02
-6.802633404731750488e-03
-4.375557228922843933e-02
-1.378937810659408569e-01
6.208720430731773376e-02
-7.316874712705612183e-02
6.370063126087188721e-02
9.025301784276962280e-02
6.066723912954330444e-02
-2.778773568570613861e-02
-7.558098994195461273e-03
-5.200906470417976379e-02
-6.486788392066955566e-02
3.084736689925193787e-02
-1.714777387678623199e-02
5.636974051594734192e-02
1.034756824374198914e-01
-8.090386539697647095e-02
-3.554951027035713196e-02
-3.256198391318321228e-02
-1.563801616430282593e-02
5.574712157249450684e-02
-3.762368485331535339e-02
7.392888516187667847e-02
-4.181376472115516663e-02
1.472578942775726318e-02
-3.741101548075675964e-02
6.898685544729232788e-02
-8.851937018334865570e-03
-1.168586313724517822e-02
5.149633437395095825e-02
-6.562945246696472168e-02
-9.305021911859512329e-02
-2.623629756271839142e-02
-3.704154863953590393e-02
-6.490014493465423584e-03
4.869212955236434937e-02
3.529268503189086914e-02
1.187715306878089905e-01
-5.056717991828918457e-02
-4.948030784726142883e-02
1.870013773441314697e-03
-7.877937704324722290e-02
7.431482523679733276e-02
-7.195770740509033203e-02
3.601984679698944092e-02
7.490917295217514038e-02
-3.805876523256301880e-02
9.041205048561096191e-03
4.672140628099441528e-02
3.227023407816886902e-02
-4.705983400344848633e-02
5.999779328703880310e-02
-4.684650897979736328e-02
6.324198096990585327e-02
1.148192118853330612e-02
-3.099311701953411102e-02
-1.984339021146297455e-02
-1.933148130774497986e-02
6.492400914430618286e-02
1.269919425249099731e-02
5.568418651819229126e-02
3.211084008216857910e-02
6.134434789419174194e-02
5.984468385577201843e-02
2.424994111061096191e-02
2.342966198921203613e-02
4.004850611090660095e-02
-6.082724034786224365e-02
1.123579684644937515e-03
-3.170831128954887390e-02
-1.774838939309120178e-02
5.304072052240371704e-02
1.722381263971328735e-02
-1.933234184980392456e-02
7.289486378431320190e-02
-5.759852752089500427e-02
5.398195236921310425e-02
-1.445344649255275726e-02
1.944984495639801025e-02
5.124251171946525574e-02
-5.192184820771217346e-02
7.551802694797515869e-02
-2.127668820321559906e-02
6.631460040807723999e-02
-3.576886653900146484e-02
7.600624114274978638e-02
4.439050704240798950e-02
-4.175847023725509644e-02
1.454177033156156540e-02
-3.419502079486846924e-02
6.809251755475997925e-02
-4.890851303935050964e-02
1.417818665504455566e-02
8.363292366266250610e-02
-1.607161597348749638e-03
-2.575474418699741364e-02
-1.903008110821247101e-02
-1.203592028468847275e-02
4.466996341943740845e-02
6.269253790378570557e-02
7.358819991350173950e-02
-7.830691337585449219e-02
9.116225875914096832e-03
-4.633712768554687500e-02
-2.001354703679680824e-03
-2.493617497384548187e-02
2.236723899841308594e-02
3.685087710618972778e-02
-6.662284582853317261e-02
3.736061602830886841e-02
-9.144599549472332001e-03
5.112769082188606262e-03
-2.042105793952941895e-02
-7.727989577688276768e-04
-4.538121819496154785e-02
-7.036994397640228271e-02
-3.830738365650177002e-02
-4.204538837075233459e-02
2.115329355001449585e-02
-5.284652858972549438e-02
3.713183104991912842e-02
-2.031869255006313324e-02
-4.067059606313705444e-02
-9.889869019389152527e-03
-5.027381330728530884e-02
4.797539114952087402e-02
1.597263105213642120e-02
-5.453833937644958496e-02
4.782918840646743774e-02
-2.133938670158386230e-02
8.980492129921913147e-03
-1.901869475841522217e-02
-8.232131600379943848e-03
-8.211635053157806396e-02
2.185359224677085876e-02
-3.550960496068000793e-02
1.819925568997859955e-02
-4.129033908247947693e-02
4.266995191574096680e-02
-1.583534106612205505e-02
-3.764132410287857056e-02
-1.406290289014577866e-02
-1.386376284062862396e-02
9.351216256618499756e-02
5.736053735017776489e-02
-3.763487935066223145e-02
4.113677889108657837e-02
5.314443260431289673e-02
7.009616494178771973e-02
-2.706144005060195923e-02
-2.621422708034515381e-02
-5.075794458389282227e-02
7.004608958959579468e-02
-6.126698106527328491e-02
2.796815335750579834e-02
-5.466533824801445007e-03
-7.941336929798126221e-02
1.444693934172391891e-02
-6.007676571607589722e-02
-8.802688680589199066e-03
2.127406932413578033e-02
-3.802073746919631958e-02
-1.568354666233062744e-03
-2.177039161324501038e-02
-8.920053020119667053e-03
-6.021770462393760681e-02
-5.411575082689523697e-03
-2.634400501847267151e-02
6.820318847894668579e-02
-3.500603139400482178e-03
-2.709458395838737488e-02
-8.510915562510490417e-03
-5.590126290917396545e-02
9.726315736770629883e-03
9.283808059990406036e-03
1.473694224841892719e-03
8.331328630447387695e-03
1.617653667926788330e-02
-5.626986175775527954e-02
5.527487769722938538e-02
-2.483221516013145447e-02
3.545966744422912598e-02
6.079434975981712341e-02
6.268507987260818481e-02
5.553894117474555969e-02
-6.075147539377212524e-02
-1.367481052875518799e-02
3.126579523086547852e-02
-7.751761376857757568e-02
7.187340408563613892e-02
-4.873980581760406494e-02
-2.212721109390258789e-02
-1.239610463380813599e-02
2.411931008100509644e-02
-4.158886894583702087e-02
6.796754151582717896e-02
1.972593367099761963e-02
5.129934102296829224e-02
4.085002839565277100e-02
4.763141274452209473e-03
-5.676682293415069580e-02
4.480766505002975464e-02
2.428374439477920532e-02
6.225716322660446167e-02
-5.026039481163024902e-02
-1.798658818006515503e-02
-7.751687616109848022e-02
-1.647005975246429443e-02
-2.182111144065856934e-03
-2.138264849781990051e-02
-2.013465017080307007e-02
-3.408483788371086121e-02
-8.110801875591278076e-02
2.842204272747039795e-02
2.114418894052505493e-02
-2.905529364943504333e-02
3.462342917919158936e-02
-5.056107044219970703e-02
6.965280324220657349e-02
-5.554184317588806152e-04
8.862391114234924316e-04
-1.947581768035888672e-04
4.164725542068481445e-04
-2.559035271406173706e-02
1.947119086980819702e-02
-1.863856241106987000e-02
2.563718706369400024e-02
5.821859091520309448e-02
-3.832261264324188232e-02
4.156345874071121216e-02
1.073134690523147583e-02
3.245241194963455200e-02
-6.192585825920104980e-02
1.421523839235305786e-02
-5.072002857923507690e-02
-7.520877569913864136e-02
6.777939945459365845e-02
3.277718275785446167e-02
1.195816695690155029e-02
2.168589085340499878e-02
-3.874759003520011902e-02
1.795850694179534912e-03
-7.771465182304382324e-02
3.016233444213867188e-02
-7.070824503898620605e-04
-5.874010547995567322e-02
6.745725125074386597e-02
1.668023318052291870e-02
-7.202647626399993896e-03
-3.727795556187629700e-02
4.893764853477478027e-04
-3.337413445115089417e-02
-4.866338148713111877e-02
-5.576655268669128418e-02
-3.182467445731163025e-02
-5.117654800415039062e-04
-2.296209335327148438e-03
-1.939339563250541687e-02
-3.580230847001075745e-02
7.208349555730819702e-02
5.510941892862319946e-02
6.809929758310317993e-02
1.007904112339019775e-02
5.848803371191024780e-02
-5.224118009209632874e-02
6.888672709465026855e-03
7.643244415521621704e-02
-6.514024734497070312e-02
-5.493465811014175415e-02
2.956388890743255615e-02
5.131759494543075562e-02
-5.967167019844055176e-02
4.522226005792617798e-02
-2.897697314620018005e-02
6.485605984926223755e-02
4.039268195629119873e-02
-1.232773810625076294e-02
-4.288397729396820068e-02
5.412139743566513062e-02
-2.044257521629333496e-02
-3.036960214376449585e-02
1.358811557292938232e-02
7.034651190042495728e-02
1.020818203687667847e-02
-7.645702362060546875e-02
3.747189790010452271e-02
2.697354555130004883e-02
-2.306604757905006409e-02
7.467275112867355347e-02
-5.704492330551147461e-03
-3.456829488277435303e-02
1.468148082494735718e-02
4.434821754693984985e-02
-5.417682975530624390e-02
6.823872774839401245e-02
-7.510823756456375122e-02
-1.493173837661743164e-02
1.880726963281631470e-02
1.694468408823013306e-02
6.362310796976089478e-02
3.831715881824493408e-02
5.786562711000442505e-02
-3.957650810480117798e-02
4.069354385137557983e-02
6.464759260416030884e-02
-7.915546745061874390e-02
4.301495850086212158e-03
6.941659003496170044e-02
-3.495939075946807861e-02
7.927072793245315552e-02
-2.530435845255851746e-02
2.656351774930953979e-02
1.696936041116714478e-02
-2.529082074761390686e-02
1.804450899362564087e-02
7.883007079362869263e-02
-6.940664350986480713e-02
-1.893370226025581360e-02
-6.432943046092987061e-03
-6.173549219965934753e-02
-6.992079317569732666e-02
3.032655268907546997e-02
3.794543445110321045e-03
4.737044125795364380e-02
-6.776631623506546021e-02
-2.707011997699737549e-03
-4.482965916395187378e-02
1.643825322389602661e-02
3.681963682174682617e-02
3.249706327915191650e-02
-2.264932543039321899e-02
-8.864521980285644531e-03
6.037207692861557007e-02
-4.871116578578948975e-02
-4.557391256093978882e-02
7.904166728258132935e-02
-5.617669969797134399e-02
-5.694127827882766724e-02
5.208846181631088257e-02
7.683587819337844849e-02
5.440679937601089478e-02
6.837790459394454956e-02
-7.687646895647048950e-02
-8.069104701280593872e-02
4.658468812704086304e-02
1.067073643207550049e-02
6.313785165548324585e-02
1.991622149944305420e-02
-1.898425444960594177e-02
7.761719077825546265e-02
-5.903762578964233398e-02
-1.754372566938400269e-02
-2.074651420116424561e-02
6.455259770154953003e-02
-7.824832946062088013e-02
6.762817502021789551e-04
7.156357169151306152e-04
5.964618176221847534e-02
-6.453527510166168213e-02
-6.510155647993087769e-02
-6.895682215690612793e-02
-2.611053362488746643e-02
-6.409637629985809326e-03
-5.683126300573348999e-02
1.014176011085510254e-02
-7.173776626586914062e-02
5.015204101800918579e-02
2.926712483167648315e-02
-5.628414079546928406e-02
-3.905375301837921143e-02
1.940935105085372925e-02
7.443343847990036011e-02
-5.639282241463661194e-02
-6.260634958744049072e-02
3.357782959938049316e-03
-2.690199390053749084e-02
-5.025376379489898682e-02
9.000413119792938232e-03
8.289441466331481934e-03
-4.081433266401290894e-02
-4.355089738965034485e-02
-3.218976035714149475e-02
-5.292755365371704102e-02
-4.978641867637634277e-03
5.269911140203475952e-02
-2.461556717753410339e-02
7.088985294103622437e-02
-7.049471139907836914e-03
4.194193333387374878e-02
7.445587962865829468e-02
-6.309068202972412109e-02
-3.779113665223121643e-02
6.694724410772323608e-02
-6.926973164081573486e-02
5.873828381299972534e-02
5.682999640703201294e-02
-1.280084997415542603e-02
7.642757147550582886e-02
-1.684635877609252930e-03
-2.964350581169128418e-02
-5.104133486747741699e-02
-9.601213037967681885e-03
-2.890988811850547791e-02
-6.560616940259933472e-02
7.033271342515945435e-02
-3.032680600881576538e-02
7.489267736673355103e-02
-2.907697111368179321e-02
-7.549428939819335938e-02
6.854876130819320679e-02
1.625600457191467285e-02
2.099236100912094116e-02
7.751182466745376587e-02
-3.401749953627586365e-02
7.103727012872695923e-02
1.774619519710540771e-02
9.440936148166656494e-03
-7.574968785047531128e-02
1.564316451549530029e-03
-1.460252702236175537e-02
4.437422007322311401e-02
1.287280768156051636e-02
5.776257067918777466e-02
4.750732332468032837e-02
7.376200705766677856e-02
5.812331289052963257e-02
-5.528104305267333984e-02
-5.292842537164688110e-02
-2.551706135272979736e-02
7.848205417394638062e-02
-6.947591900825500488e-03
-7.238178700208663940e-02
-5.797210335731506348e-02
7.724020630121231079e-02
-6.382185965776443481e-02
5.090156942605972290e-02
3.166596591472625732e-02
-4.276848584413528442e-02
-2.819601446390151978e-02
7.590288668870925903e-02
-4.561502858996391296e-02
7.237700372934341431e-02
-2.928978949785232544e-02
3.600561618804931641e-02
-5.239354819059371948e-02
6.466425210237503052e-02
-2.347315847873687744e-02
-7.333000004291534424e-02
7.538146525621414185e-02
-1.202353090047836304e-02
-2.163365855813026428e-02
1.832537353038787842e-03
-2.212912589311599731e-02
7.659160345792770386e-02
-4.167034104466438293e-02
2.153106033802032471e-03
5.731657147407531738e-03
-2.536818385124206543e-03
-9.322181344032287598e-03
5.002702027559280396e-02
-2.444935590028762817e-02
2.482252568006515503e-02
-6.015814840793609619e-03
6.164839118719100952e-02
1.607403159141540527e-03
-7.049430906772613525e-02
-7.655553519725799561e-02
1.063242554664611816e-03
-5.727669596672058105e-02
2.901646494865417480e-02
-2.955344691872596741e-02
8.061140030622482300e-02
7.212982326745986938e-02
5.351897329092025757e-02
3.197386860847473145e-02
6.832755357027053833e-02
-7.562973350286483765e-02
2.089795470237731934e-02
-3.660964593291282654e-02
5.983479321002960205e-03
2.268819510936737061e-02
5.661457777023315430e-03
3.482570499181747437e-02
4.597813636064529419e-02
-3.910999000072479248e-02
7.849819958209991455e-03
6.534979492425918579e-02
-3.521775081753730774e-02
-5.253478884696960449e-03
6.685125082731246948e-02
-3.762505948543548584e-02
2.306427061557769775e-02
-2.363236993551254272e-02
3.336307406425476074e-02
-5.603241175413131714e-02
-6.451848149299621582e-02
-1.109004765748977661e-02
-7.776645570993423462e-02
7.239625602960586548e-02
-6.609749794006347656e-02
-6.675360351800918579e-02
-4.626019299030303955e-02
1.198539137840270996e-02
5.001943558454513550e-02
6.743217259645462036e-02
-3.133156523108482361e-02
8.081242442131042480e-03
-7.249929010868072510e-03
-1.566688716411590576e-02
-6.998436152935028076e-02
-6.570100039243698120e-02
-4.554442316293716431e-02
-2.795670181512832642e-02
2.758575230836868286e-02
2.095260471105575562e-02
4.336857050657272339e-02
2.093202620744705200e-02
7.458921521902084351e-02
-1.124599575996398926e-02
5.166410654783248901e-02
-6.349293887615203857e-02
-6.045520305633544922e-03
-1.001782715320587158e-03
7.047667354345321655e-02
3.042106330394744873e-02
-4.948137328028678894e-02
1.451011002063751221e-02
4.044924676418304443e-02
2.271398901939392090e-03
5.512040108442306519e-02
-2.402969449758529663e-02
-7.021202892065048218e-02
-1.199600845575332642e-02
5.907083302736282349e-02
3.754130750894546509e-02
-4.789377376437187195e-02
5.017731338739395142e-02
6.138061732053756714e-02
-3.984950482845306396e-03
-4.772412031888961792e-02
2.626635879278182983e-02
4.858646541833877563e-02
-1.119989156723022461e-02
4.685271531343460083e-02
-5.124616622924804688e-02
-1.850557327270507812e-02
1.873355358839035034e-02
3.579683601856231689e-02
-6.507682055234909058e-02
-6.195103377103805542e-02
6.159663945436477661e-02
5.026008933782577515e-02
-6.339240074157714844e-02
6.160040944814682007e-02
3.749050199985504150e-02
-2.868916094303131104e-02
-7.943001389503479004e-02
-2.704917639493942261e-02
5.084953457117080688e-02
-2.508676424622535706e-02
-3.539297729730606079e-02
1.928154379129409790e-02
6.541419774293899536e-02
-3.274606540799140930e-02
7.742769271135330200e-02
-2.450456470251083374e-02
-6.452494859695434570e-02
-5.725531280040740967e-02
-4.262932762503623962e-02
-7.576920092105865479e-02
5.079164355993270874e-02
-6.644914299249649048e-02
6.695630401372909546e-02
5.488941818475723267e-02
4.486971348524093628e-02
1.434302330017089844e-02
1.021929085254669189e-03
3.771393746137619019e-02
4.915382713079452515e-02
-6.476135551929473877e-02
-7.752820849418640137e-03
5.780244618654251099e-02
-6.806918978691101074e-02
-2.841658890247344971e-02
-6.910098344087600708e-02
1.225959509611129761e-02
4.425337165594100952e-02
-3.974076732993125916e-02
3.919906169176101685e-02
4.637896269559860229e-02
4.798882454633712769e-02
-7.013556361198425293e-02
-1.500845700502395630e-02
-8.093080669641494751e-02
5.324283987283706665e-02
-6.101314723491668701e-02
-4.639629274606704712e-02
6.902020424604415894e-02
-3.357801958918571472e-02
1.196603477001190186e-02
2.074949443340301514e-02
-1.609221100807189941e-02
6.131906062364578247e-02
5.217432230710983276e-02
-1.551076769828796387e-02
1.212163269519805908e-02
-5.827264115214347839e-02
-3.021740913391113281e-02
-1.605999469757080078e-02
3.609625250101089478e-02
2.922266721725463867e-03
-5.004355311393737793e-02
-1.430769264698028564e-02
3.321190923452377319e-02
5.056636780500411987e-02
-2.623542025685310364e-02
-6.818956881761550903e-02
5.628764629364013672e-04
-6.668228656053543091e-02
-1.548200845718383789e-02
-3.575900942087173462e-02
2.633168548345565796e-02
2.586348354816436768e-02
-3.426036983728408813e-02
3.954759985208511353e-02
3.492361307144165039e-02
1.181003451347351074e-02
-5.378845334053039551e-02
-3.795669227838516235e-02
-3.808065131306648254e-02
2.389948815107345581e-02
-1.177085936069488525e-02
3.084402531385421753e-02
1.522554457187652588e-02
-2.345873042941093445e-02
5.487134307622909546e-02
-1.717010885477066040e-02
1.726599037647247314e-02
3.046050667762756348e-02
1.261331140995025635e-02
1.053970307111740112e-02
-3.618071973323822021e-02
-1.420280337333679199e-02
-1.912356913089752197e-02
-2.721718698740005493e-02
1.797547191381454468e-02
-2.210060134530067444e-02
-7.688140124082565308e-02
-2.753973007202148438e-02
-2.316544577479362488e-02
3.193484246730804443e-02
4.973187297582626343e-02
-7.236548513174057007e-02
-4.402576759457588196e-02
1.103161275386810303e-02
-3.279669210314750671e-02
-1.090854406356811523e-03
-7.833450287580490112e-02
-4.575244337320327759e-02
3.852738440036773682e-02
3.269240260124206543e-02
8.304417133331298828e-04
4.340707510709762573e-02
-6.670199334621429443e-02
5.786589533090591431e-02
7.468476146459579468e-02
-3.798925876617431641e-02
-5.794321000576019287e-02
-3.712549805641174316e-04
-6.308816373348236084e-02
-2.902067825198173523e-02
-2.866808325052261353e-02
-6.192984431982040405e-02
-5.720570683479309082e-02
-1.225177943706512451e-02
4.498390108346939087e-02
-7.044227421283721924e-02
-7.851579785346984863e-02
-6.430932134389877319e-02
1.107090711593627930e-02
2.197355031967163086e-03
1.587490737438201904e-02
7.747229188680648804e-02
-1.683457195758819580e-02
-6.110244989395141602e-02
-2.992897853255271912e-02
-6.673257052898406982e-02
6.975939124822616577e-02
-1.949826627969741821e-02
5.784064531326293945e-03
8.060704916715621948e-02
1.360165327787399292e-02
-2.736313268542289734e-02
-5.554452911019325256e-02
-5.436856672167778015e-02
-6.325885653495788574e-03
7.379878312349319458e-02
1.941996812820434570e-02
-2.431392669677734375e-02
7.570447772741317749e-02
2.256993949413299561e-02
6.919948011636734009e-02
-7.463753223419189453e-03
-4.822248592972755432e-02
1.992396265268325806e-02
8.178956806659698486e-03
3.189636021852493286e-02
3.254883736371994019e-02
7.109066098928451538e-02
6.159733980894088745e-02
7.827150076627731323e-02
3.648947924375534058e-02
-5.613020807504653931e-02
-6.966309249401092529e-02
-7.231508940458297729e-02
-4.701625928282737732e-02
-3.184752911329269409e-02
-5.903037264943122864e-02
-1.225222647190093994e-02
-6.193117797374725342e-02
8.021125942468643188e-02
-7.560484111309051514e-02
7.899940758943557739e-02
7.448360323905944824e-03
2.547840029001235962e-02
1.953899115324020386e-02
-1.720833778381347656e-02
9.043730795383453369e-03
4.982262104749679565e-02
-7.712432742118835449e-02
-8.307397365570068359e-05
-3.833487257361412048e-02
-4.466719925403594971e-03
7.149571925401687622e-02
-2.196680009365081787e-02
-6.252298504114151001e-02
3.043702989816665649e-02
-6.867171823978424072e-02
-3.752674534916877747e-02
2.840672433376312256e-02
5.483787506818771362e-02
-2.264615520834922791e-02
-1.886934041976928711e-03
-5.866897851228713989e-02
-6.172191351652145386e-02
-5.103905498981475830e-02
6.303489208221435547e-04
7.670368999242782593e-02
-6.745382398366928101e-02
2.201301604509353638e-02
5.274830013513565063e-02
-9.800978004932403564e-03
-2.179737761616706848e-02
4.623713344335556030e-02
-2.890149503946304321e-02
-1.630110293626785278e-02
7.359259575605392456e-02
1.552671939134597778e-02
-8.149839937686920166e-03
3.158267587423324585e-02
-5.047619342803955078e-02
-4.495762288570404053e-02
2.136412262916564941e-02
3.489086031913757324e-02
4.350597411394119263e-02
-1.171904802322387695e-02
-2.305492758750915527e-02
-7.651351392269134521e-02
6.068285554647445679e-02
-3.817126899957656860e-02
7.044177502393722534e-02
5.073270946741104126e-02
9.933337569236755371e-04
-8.012973517179489136e-02
3.656300157308578491e-02
6.338077038526535034e-02
2.290427684783935547e-03
6.548530608415603638e-02
4.620315879583358765e-02
-3.607087954878807068e-02
5.438204854726791382e-02
6.036522239446640015e-02
-6.933130323886871338e-02
-1.860503107309341431e-02
7.944811135530471802e-02
-4.320183768868446350e-02
2.609491348266601562e-03
5.952231585979461670e-03
2.192632853984832764e-02
5.635622888803482056e-02
6.823539733886718750e-03
4.412686079740524292e-02
-5.042763426899909973e-02
-5.084913223981857300e-02
1.543614268302917480e-02
1.678983867168426514e-02
3.874016553163528442e-02
-3.514179214835166931e-02
-3.202476724982261658e-02
-4.959866404533386230e-03
-6.464265286922454834e-02
-3.003417700529098511e-02
7.975369691848754883e-03
5.159612745046615601e-02
-5.356117337942123413e-02
4.987848550081253052e-02
5.144473165273666382e-02
-7.428103685379028320e-02
2.015557140111923218e-02
-4.123801738023757935e-02
3.659550845623016357e-02
-7.633201777935028076e-02
-3.607503697276115417e-02
-5.577417090535163879e-02
3.178004175424575806e-02
-2.554185315966606140e-02
-4.393650218844413757e-02
-4.902481287717819214e-02
5.931297689676284790e-02
6.465645879507064819e-02
3.352023661136627197e-03
-3.400541469454765320e-02
3.039762377738952637e-02
-3.213196992874145508e-03
6.527898460626602173e-02
5.304180830717086792e-02
-7.452301681041717529e-03
3.974808007478713989e-02
-6.752785295248031616e-02
1.652337610721588135e-02
-9.157866239547729492e-03
2.229326963424682617e-02
-3.278077766299247742e-02
-8.143611252307891846e-03
-4.357870295643806458e-02
-4.513638466596603394e-02
4.936619848012924194e-02
2.263370156288146973e-02
-7.467509806156158447e-02
-6.259283423423767090e-02
2.702463418245315552e-02
7.079461961984634399e-02
2.365209162235260010e-03
7.005738466978073120e-02
-2.601834759116172791e-02
-4.942325875163078308e-02
7.321409136056900024e-02
-2.500900626182556152e-02
-5.981651321053504944e-02
1.470145583152770996e-02
-3.521556779742240906e-02
-1.622574031352996826e-02
1.403447985649108887e-02
-1.899448409676551819e-02
7.738170772790908813e-02
6.012856215238571167e-02
-6.259477138519287109e-02
-4.417124763131141663e-02
-2.266611158847808838e-02
5.302727967500686646e-02
-3.777783364057540894e-02
-3.311124816536903381e-02
-7.766895741224288940e-02
5.195010453462600708e-02
4.098071902990341187e-02
4.780229181051254272e-02
-6.264814734458923340e-02
-6.691461801528930664e-02
-4.460444673895835876e-02
-2.401472628116607666e-02
-2.701378613710403442e-02
-5.050644278526306152e-03
-4.576869308948516846e-03
-7.965540140867233276e-02
2.487916499376296997e-02
-5.973219871520996094e-02
7.069636136293411255e-02
1.173169910907745361e-02
-6.796637177467346191e-02
4.274447262287139893e-02
-4.518650844693183899e-02
-7.862426340579986572e-02
4.637169092893600464e-02
3.663823008537292480e-04
7.309512048959732056e-02
5.342753976583480835e-02
3.925798833370208740e-02
-4.485502839088439941e-03
-7.078962773084640503e-02
7.756162434816360474e-02
3.189104050397872925e-02
7.533290237188339233e-02
3.869210928678512573e-02
-1.592946052551269531e-02
5.594000965356826782e-02
2.819962799549102783e-02
6.034853309392929077e-02
-5.960179865360260010e-02
2.344449609518051147e-02
5.573373287916183472e-02
-7.337057590484619141e-02
7.965914160013198853e-02
1.074300706386566162e-02
-7.849046587944030762e-02
-4.554362967610359192e-02
4.145354032516479492e-04
2.094008028507232666e-03
-7.943949103355407715e-02
-7.567235082387924194e-02
2.192884683609008789e-03
-3.088177740573883057e-02
-1.152560859918594360e-02
-7.212137430906295776e-02
7.883108407258987427e-02
-5.524818599224090576e-02
4.653281718492507935e-02
-6.733597815036773682e-02
5.632281303405761719e-03
-2.064893394708633423e-02
5.236221104860305786e-02
-6.686601787805557251e-02
2.436134219169616699e-02
1.260896027088165283e-02
-2.429977059364318848e-03
6.084464490413665771e-03
2.924745529890060425e-02
9.575821459293365479e-03
-6.551595777273178101e-02
-6.091531366109848022e-02
-2.834555879235267639e-02
7.466226816177368164e-05
5.909482389688491821e-02
2.378353476524353027e-02
-6.772263348102569580e-02
2.335103601217269897e-02
-1.211867481470108032e-02
-6.820037961006164551e-04
4.092928022146224976e-02
2.251720428466796875e-02
2.987958490848541260e-02
-6.476616859436035156e-02
1.188185811042785645e-02
2.954226732254028320e-02
7.613179832696914673e-02
1.243292540311813354e-02
6.446901708841323853e-02
2.540236711502075195e-02
-6.035839021205902100e-02
-6.421376764774322510e-02
-4.754388704895973206e-02
-5.846209824085235596e-02
-6.498937308788299561e-02
5.189046263694763184e-03
7.624924182891845703e-04
-9.510420262813568115e-03
1.034759730100631714e-02
-2.614820376038551331e-02
-5.819006636738777161e-02
1.955030858516693115e-02
-1.454930752515792847e-02
-2.197720482945442200e-02
4.672423750162124634e-02
-1.798931509256362915e-02
2.783852815628051758e-02
-2.679265290498733521e-02
-2.331866323947906494e-02
6.610623747110366821e-02
4.338783770799636841e-02
2.579532563686370850e-03
7.581802457571029663e-02
4.975751787424087524e-02
-1.484723389148712158e-02
7.343391329050064087e-02
-1.156950742006301880e-02
3.108933568000793457e-02
-3.801617771387100220e-02
4.098723828792572021e-02
2.507865428924560547e-03
-8.008405566215515137e-04
5.987733602523803711e-03
2.824646979570388794e-02
2.275399863719940186e-03
-1.984051614999771118e-02
5.234447866678237915e-02
-3.476898744702339172e-02
7.252713292837142944e-02
3.876174986362457275e-02
5.391330271959304810e-02
-3.424795344471931458e-02
-3.019994497299194336e-02
1.095774024724960327e-02
-6.247955188155174255e-02
6.131068617105484009e-02
-4.895463585853576660e-02
6.151960045099258423e-02
-1.043199002742767334e-02
6.828647106885910034e-02
7.607360929250717163e-02
-4.123039543628692627e-03
8.035156875848770142e-02
-5.092992633581161499e-02
4.127182066440582275e-02
5.095001310110092163e-02
6.963547319173812866e-02
9.763367474079132080e-03
6.843783706426620483e-02
-3.592336550354957581e-02
-2.428757026791572571e-02
2.180181443691253662e-03
2.988258749246597290e-02
-6.090904772281646729e-02
-4.529795795679092407e-02
5.425085872411727905e-02
3.644900023937225342e-02
-6.952296942472457886e-02
-8.034300059080123901e-02
3.602790832519531250e-02
-4.775728657841682434e-02
6.979907304048538208e-02
-1.499366015195846558e-02
-1.041017472743988037e-02
1.383061707019805908e-02
6.800004094839096069e-02
-7.086796313524246216e-02
-6.977834552526473999e-02
-4.533930122852325439e-02
-5.907692015171051025e-02
6.198348850011825562e-02
3.397222608327865601e-02
7.010648399591445923e-02
-2.973586693406105042e-02
-1.585926115512847900e-02
-2.149268984794616699e-04
-4.828893393278121948e-02
5.702242255210876465e-03
4.504931718111038208e-02
-3.806725144386291504e-04
2.008448541164398193e-02
-6.971055269241333008e-02
5.115876346826553345e-02
7.488749176263809204e-02
-2.362271770834922791e-02
-1.873314753174781799e-02
3.738868981599807739e-02
-5.218916013836860657e-02
-1.166476309299468994e-02
-3.806802257895469666e-02
4.925020784139633179e-02
-3.608346730470657349e-02
4.689217358827590942e-02
1.382150501012802124e-02
-1.841079443693161011e-02
3.249706327915191650e-02
3.687351942062377930e-03
-4.036771506071090698e-02
6.926307827234268188e-02
-5.489866808056831360e-02
-2.514690533280372620e-02
-7.017890363931655884e-02
-2.546020597219467163e-02
-2.062613517045974731e-02
1.590571552515029907e-02
-1.322700828313827515e-02
-2.206561714410781860e-02
-1.204389333724975586e-02
-6.256168335676193237e-02
5.191109329462051392e-02
-6.538437306880950928e-02
-5.978529900312423706e-02
7.722065597772598267e-02
-1.366042345762252808e-02
1.132504642009735107e-02
1.698784530162811279e-02
-6.914879381656646729e-02
-3.058199211955070496e-02
-3.750663250684738159e-02
-2.920858561992645264e-03
4.253327846527099609e-02
-2.883243933320045471e-02
-1.901790127158164978e-02
-3.015800192952156067e-02
2.190621197223663330e-02
-7.054035365581512451e-02
-7.405938208103179932e-02
1.216686517000198364e-02
1.533389836549758911e-02
2.463401854038238525e-02
2.908190339803695679e-02
7.339230924844741821e-02
-6.140260398387908936e-02
-2.335235103964805603e-02
-1.594988256692886353e-02
-7.654350250959396362e-02
-6.938895583152770996e-02
-6.459698081016540527e-02
-5.402492731809616089e-02
-9.193465113639831543e-03
7.325606793165206909e-02
-3.276987001299858093e-02
1.999918371438980103e-02
1.119327545166015625e-02
5.455794185400009155e-02
-7.255824655294418335e-02
2.030441910028457642e-02
-3.335330635309219360e-02
-4.239653423428535461e-02
-2.423369511961936951e-02
-6.082448363304138184e-02
6.801565736532211304e-02
-3.946363925933837891e-03
1.375317573547363281e-03
3.556162118911743164e-03
-3.084510937333106995e-02
3.765416145324707031e-02
-6.209298223257064819e-02
3.537516295909881592e-02
1.580476760864257812e-02
3.453317284584045410e-02
1.152313500642776489e-02
-4.057817161083221436e-02
-3.392989933490753174e-02
-4.274149239063262939e-02
-1.134260743856430054e-02
-5.053675919771194458e-02
-7.616358250379562378e-02
3.943265229463577271e-02
-1.809784770011901855e-02
-3.743206337094306946e-02
3.812164813280105591e-02
1.309806108474731445e-02
7.902052253484725952e-02
5.812969058752059937e-02
-6.936046481132507324e-02
-2.454585209488868713e-02
-5.157367885112762451e-02
-4.128212481737136841e-02
-4.370592907071113586e-02
-2.630515396595001221e-02
-8.072838932275772095e-02
1.089747995138168335e-02
-4.077283293008804321e-02
-8.090980350971221924e-02
7.333675771951675415e-02
5.177443474531173706e-02
6.082855910062789917e-02
4.978992789983749390e-02
8.086160570383071899e-02
4.831486195325851440e-02
-3.120971471071243286e-02
4.095318168401718140e-02
2.635630220174789429e-02
-5.065754801034927368e-02
3.068183362483978271e-02
-1.202908158302307129e-02
-6.986215710639953613e-03
2.325488626956939697e-02
-3.616875037550926208e-02
4.078938812017440796e-02
5.163035541772842407e-02
-2.507452294230461121e-02
6.378353387117385864e-02
-6.021793931722640991e-02
5.390422791242599487e-02
-6.899267435073852539e-02
-2.436300739645957947e-02
4.557511955499649048e-02
-3.067775815725326538e-02
1.858573406934738159e-02
7.066369056701660156e-03
-6.418397277593612671e-02
-3.614481166005134583e-02
-4.464579001069068909e-02
-5.468447506427764893e-02
2.409275621175765991e-02
-5.728077888488769531e-02
5.049593001604080200e-02
2.353934943675994873e-02
6.770090013742446899e-02
-5.914692580699920654e-02
2.704940736293792725e-02
-4.210311546921730042e-02
6.969683617353439331e-02
6.449594348669052124e-02
3.229834139347076416e-02
1.681590825319290161e-02
-8.035529404878616333e-02
4.688312858343124390e-02
3.878249973058700562e-02
-1.249544322490692139e-03
-6.541208922863006592e-02
7.726483792066574097e-02
4.646897315979003906e-03
-7.401697337627410889e-02
-3.129704669117927551e-02
-6.179588288068771362e-02
-1.935417577624320984e-02
-3.895888105034828186e-02
-7.220479846000671387e-02
-5.503161996603012085e-02
7.568349689245223999e-02
-7.660310715436935425e-02
3.026117384433746338e-02
7.072439044713973999e-02
-6.554093956947326660e-02
-7.525277137756347656e-02
3.123823553323745728e-02
-2.591519802808761597e-02
1.614800095558166504e-02
6.249929219484329224e-02
-2.843664214015007019e-02
7.542730122804641724e-02
-2.678865194320678711e-02
3.080811351537704468e-02
7.259029895067214966e-02
5.123708397150039673e-02
-4.517811536788940430e-02
-4.084577783942222595e-02
-2.575442194938659668e-04
-6.615369021892547607e-02
8.030448108911514282e-02
2.367990463972091675e-02
6.527241319417953491e-02
-4.771317541599273682e-02
-3.279506787657737732e-02
2.139902859926223755e-02
-4.371212050318717957e-02
-7.847594469785690308e-02
5.437719076871871948e-02
-1.882560178637504578e-02
-3.176681697368621826e-03
-4.214617982506752014e-02
-4.872992262244224548e-02
6.250809878110885620e-02
3.809294849634170532e-02
-5.927117168903350830e-02
-4.610772803425788879e-02
6.504914909601211548e-02
-3.589702770113945007e-02
-3.042813763022422791e-02
4.887745529413223267e-02
6.039813160896301270e-03
-1.315965503454208374e-02
1.570190489292144775e-02
-6.339293718338012695e-02
2.271987497806549072e-02
-6.479353457689285278e-02
1.288688927888870239e-02
1.718457043170928955e-02
3.960849344730377197e-02
7.090402394533157349e-02
2.199225127696990967e-03
-1.431268453598022461e-02
6.583926826715469360e-02
-3.539583832025527954e-02
2.711301296949386597e-02
7.980669289827346802e-02
-2.742851525545120239e-02
4.721238464117050171e-02
9.884208440780639648e-03
6.680198758840560913e-02
-6.291157007217407227e-02
-6.095528602600097656e-03
-3.915064036846160889e-02
4.761286824941635132e-02
-3.917717188596725464e-02
7.469678670167922974e-02
-7.078268378973007202e-02
-5.817550420761108398e-02
-2.924774587154388428e-02
-2.214111387729644775e-02
-3.498716279864311218e-02
-6.042402610182762146e-02
-5.316545069217681885e-02
-3.850868344306945801e-02
-6.395485252141952515e-02
3.216678649187088013e-02
-2.963486313819885254e-02
-7.101602107286453247e-02
3.991629928350448608e-02
-7.039199024438858032e-02
5.203134566545486450e-02
-7.343032956123352051e-02
5.947264283895492554e-02
-7.291900366544723511e-02
-1.926755905151367188e-02
-7.411174476146697998e-03
5.460284650325775146e-03
1.516136527061462402e-02
-4.470088705420494080e-02
5.167954415082931519e-02
-4.136122018098831177e-02
-3.616343438625335693e-02
6.818831712007522583e-02
6.226181983947753906e-03
-6.685629487037658691e-02
1.817192882299423218e-02
1.544648408889770508e-02
4.149115085601806641e-02
4.837048798799514771e-02
-6.430899351835250854e-02
4.114443808794021606e-02
3.698177635669708252e-03
6.131420284509658813e-02
-4.302732646465301514e-03
-4.154802858829498291e-02
2.663450688123703003e-02
-1.616819202899932861e-02
6.442029029130935669e-02
-5.276387184858322144e-02
2.690361440181732178e-02
-9.456522762775421143e-03
1.300372928380966187e-02
2.183102071285247803e-03
-7.663948088884353638e-02
-8.824467658996582031e-04
1.912689208984375000e-02
-6.135813891887664795e-03
4.337213933467864990e-03
-8.330397307872772217e-03
5.611566454172134399e-02
1.802018284797668457e-02
-1.223319768905639648e-02
6.912390142679214478e-02
7.439398020505905151e-02
-7.582317292690277100e-02
-3.964695706963539124e-02
6.817102432250976562e-03
5.721498280763626099e-02
7.961402088403701782e-02
-6.314844638109207153e-02
-5.109113082289695740e-02
4.691042751073837280e-02
1.224607229232788086e-02
-6.271689385175704956e-02
-5.811501294374465942e-02
-1.183196157217025757e-02
5.430888384580612183e-02
-7.407506555318832397e-02
1.463023573160171509e-02
7.937542349100112915e-02
-5.973221734166145325e-02
1.195155084133148193e-02
3.859267383813858032e-02
-8.027200400829315186e-02
5.963642150163650513e-02
-3.147776424884796143e-02
-7.872217893600463867e-02
3.772523254156112671e-02
-2.856906875967979431e-02
6.223387271165847778e-02
2.191458642482757568e-02
-6.870857626199722290e-02
-5.093478038907051086e-02
-3.432080149650573730e-02
-4.651732742786407471e-03
-8.213743567466735840e-04
-6.727907061576843262e-02
-4.302891716361045837e-02
-1.860342174768447876e-02
1.367113739252090454e-02
5.781599134206771851e-02
-7.891291379928588867e-02
7.793413847684860229e-02
-1.467508077621459961e-02
-7.610613107681274414e-02
6.833300739526748657e-02
4.969187080860137939e-03
1.868232339620590210e-02
-4.722402989864349365e-02
-7.951454818248748779e-02
-4.459735006093978882e-02
7.208997756242752075e-02
-5.712371319532394409e-02
6.686037033796310425e-02
-2.171429991722106934e-02
1.891119778156280518e-02
5.805321037769317627e-03
-4.574254527688026428e-02
2.162747085094451904e-02
5.741860717535018921e-02
-4.773148894309997559e-02
3.392162173986434937e-02
4.801376909017562866e-02
2.399791777133941650e-02
1.349407434463500977e-02
7.329227775335311890e-02
-3.503599017858505249e-02
4.831212013959884644e-02
-2.796821296215057373e-03
-3.965326026082038879e-02
-2.025406435132026672e-02
-8.705697953701019287e-03
-3.631976246833801270e-02
3.820601850748062134e-02
4.670011252164840698e-02
-5.007459223270416260e-02
7.744959741830825806e-02
-4.682401940226554871e-02
3.458492457866668701e-02
-7.861743867397308350e-02
3.498087823390960693e-02
-2.847158536314964294e-02
-7.993712276220321655e-02
-6.662335991859436035e-02
-1.178526133298873901e-02
8.735999464988708496e-03
6.809636205434799194e-02
7.852881401777267456e-02
-4.013060778379440308e-02
-8.333161473274230957e-03
7.067590951919555664e-03
-1.452590525150299072e-02
7.165927439928054810e-02
-7.074043154716491699e-03
-3.420960530638694763e-02
-4.783821478486061096e-02
-6.331494450569152832e-02
-3.185981139540672302e-02
-9.825348854064941406e-03
-7.139669358730316162e-02
7.889611274003982544e-02
2.670565247535705566e-02
-7.175733149051666260e-02
7.302743941545486450e-02
4.283437132835388184e-02
-7.642127573490142822e-03
-3.093427792191505432e-02
-1.010495424270629883e-02
6.468392163515090942e-02
-2.577741071581840515e-02
2.542419731616973877e-02
3.115999698638916016e-02
-5.713711678981781006e-02
-1.077476143836975098e-02
-5.437189340591430664e-02
4.285251349210739136e-02
3.324027359485626221e-02
-7.981409132480621338e-02
-1.480846107006072998e-02
-3.132738918066024780e-02
-5.678055435419082642e-02
-1.198543608188629150e-02
-8.032627403736114502e-03
5.193993449211120605e-03
-1.545809209346771240e-03
5.967830866575241089e-02
6.426990032196044922e-03
1.625356823205947876e-02
-5.830824375152587891e-02
-4.008133336901664734e-02
-3.041053935885429382e-02
3.836967796087265015e-02
-7.903220504522323608e-02
-3.557719290256500244e-02
-9.939245879650115967e-03
4.024023562669754028e-02
2.361641824245452881e-02
-7.179272174835205078e-02
3.888002038002014160e-02
-7.710791379213333130e-02
-3.772902116179466248e-02
3.760161995887756348e-02
-4.029815644025802612e-02
-2.488978579640388489e-02
5.060409754514694214e-02
-4.577501118183135986e-02
3.978858888149261475e-02
-2.329594269394874573e-02
-1.718401163816452026e-02
3.297068178653717041e-02
-1.916700229048728943e-02
-6.457097828388214111e-03
-4.537947475910186768e-03
-2.033505216240882874e-02
2.977092564105987549e-02
-2.119332551956176758e-02
-3.428351879119873047e-02
3.569322079420089722e-02
-1.518170535564422607e-02
4.079137742519378662e-02
3.097367286682128906e-02
4.054344445466995239e-02
6.522215157747268677e-02
-7.632130384445190430e-02
8.179038763046264648e-03
1.963160187005996704e-02
1.902759075164794922e-02
7.543846219778060913e-02
5.170158296823501587e-02
-1.709793508052825928e-02
-1.004659384489059448e-02
8.025623857975006104e-03
3.392890840768814087e-02
-3.348067402839660645e-04
7.394141703844070435e-02
6.956631690263748169e-02
-2.486180141568183899e-02
2.497611194849014282e-02
9.905576705932617188e-03
1.244203001260757446e-02
4.317872226238250732e-03
6.437129527330398560e-02
-4.886418581008911133e-03
7.121611386537551880e-02
-2.931541204452514648e-02
4.219914972782135010e-02
3.516919910907745361e-03
1.124142855405807495e-02
-6.139983609318733215e-02
7.384335249662399292e-02
-4.197733849287033081e-02
8.034057915210723877e-03
2.850586920976638794e-02
-5.761343613266944885e-02
7.180572301149368286e-02
2.769988775253295898e-02
-4.427818953990936279e-02
-5.170757696032524109e-02
6.581921130418777466e-02
1.121679693460464478e-02
2.235362678766250610e-02
-2.112488821148872375e-02
-7.999893277883529663e-02
-6.505508720874786377e-02
-6.266425549983978271e-02
-1.178652048110961914e-03
-3.654735535383224487e-02
-7.319353520870208740e-02
-6.248889118432998657e-02
6.966831535100936890e-02
4.789238423109054565e-02
5.159591883420944214e-02
3.652641177177429199e-02
1.891813427209854126e-02
-6.153593957424163818e-02
5.728053301572799683e-02
3.303901851177215576e-02
3.612704575061798096e-03
-4.387498646974563599e-02
-2.010624483227729797e-02
-7.334940135478973389e-02
1.760035753250122070e-03
-7.143019139766693115e-02
-4.079098999500274658e-02
7.205387204885482788e-02
4.369369149208068848e-02
-4.690143093466758728e-02
-3.125473856925964355e-03
4.193421453237533569e-02
7.400945574045181274e-02
-6.932190805673599243e-02
9.867481887340545654e-03
-8.293926715850830078e-03
6.319249421358108521e-02
-8.968815207481384277e-03
-3.310005366802215576e-02
-3.838569298386573792e-02
-6.246274709701538086e-02
1.594914495944976807e-02
5.296326428651809692e-02
2.889341115951538086e-02
5.001947283744812012e-03
-5.765491724014282227e-02
5.823848396539688110e-02
5.286402255296707153e-02
6.481040269136428833e-02
-4.270866513252258301e-03
6.288155913352966309e-03
-3.591903671622276306e-02
2.710879594087600708e-02
5.962722748517990112e-02
5.812882632017135620e-02
8.857421576976776123e-03
4.710077494382858276e-02
7.657551020383834839e-02
-2.843832224607467651e-02
-4.474209621548652649e-02
-4.186525940895080566e-03
-1.827227324247360229e-02
-7.294708490371704102e-02
-4.087998718023300171e-02
-7.488744705915451050e-02
5.386518687009811401e-02
4.636400192975997925e-02
-2.201874181628227234e-02
7.670687884092330933e-02
6.161422282457351685e-02
4.248820245265960693e-03
7.368726283311843872e-02
-1.740489900112152100e-02
3.694419562816619873e-02
-2.736199274659156799e-02
8.107630163431167603e-02
6.761736422777175903e-02
-1.634508371353149414e-04
1.052724570035934448e-02
-3.791420534253120422e-02
-5.357132479548454285e-02
1.268863677978515625e-03
6.324023753404617310e-02
-3.445499017834663391e-02
7.556631416082382202e-02
-6.039248406887054443e-02
7.898587733507156372e-02
4.727225750684738159e-02
1.782029867172241211e-02
5.297017842531204224e-02
-3.145258501172065735e-02
-5.851614847779273987e-02
-8.732691407203674316e-03
-5.834138765931129456e-02
1.663897931575775146e-02
-2.858914434909820557e-02
3.186980634927749634e-02
2.433777600526809692e-02
4.943007975816726685e-02
-2.969875931739807129e-03
7.312322407960891724e-02
-2.183061838150024414e-02
5.072461813688278198e-02
-8.059814572334289551e-03
6.712190061807632446e-02
9.968854486942291260e-03
8.779667317867279053e-03
-6.365737318992614746e-02
-4.595876485109329224e-02
5.007068067789077759e-02
-6.789193302392959595e-02
2.010436356067657471e-02
-2.968289703130722046e-02
-6.753841042518615723e-02
-3.835165873169898987e-02
6.143874675035476685e-02
-3.326465934514999390e-02
-7.706836611032485962e-02
-3.708672150969505310e-02
4.964015632867813110e-02
-3.186702728271484375e-03
4.034965485334396362e-02
-3.457162156701087952e-02
1.950762420892715454e-02
-7.797506451606750488e-02
6.830469518899917603e-02
7.275009900331497192e-02
-4.144031181931495667e-02
-9.240552783012390137e-03
-4.107907414436340332e-02
1.867963373661041260e-02
-7.401954382658004761e-02
-7.133301347494125366e-02
-5.880165845155715942e-02
1.193614304065704346e-02
-7.137215137481689453e-02
5.201745778322219849e-02
-7.198958843946456909e-02
-5.642616003751754761e-02
7.833147794008255005e-02
-6.065012887120246887e-02
5.111261457204818726e-02
-2.384017780423164368e-02
6.742060929536819458e-02
8.469536900520324707e-03
2.340377122163772583e-02
5.703351646661758423e-02
5.030738562345504761e-02
-7.286934554576873779e-02
-1.962829753756523132e-02
-7.520597428083419800e-02
1.015251129865646362e-02
-6.938572227954864502e-02
5.385077744722366333e-02
5.641902238130569458e-02
-3.399907052516937256e-02
-6.115876138210296631e-03
-1.596733927726745605e-04
5.399370938539505005e-02
8.005068451166152954e-02
5.639971047639846802e-02
3.384442627429962158e-02
5.363499373197555542e-02
-5.233340337872505188e-02
7.124479860067367554e-02
8.772797882556915283e-03
-9.004510939121246338e-03
-2.165398374199867249e-02
9.168595075607299805e-03
4.185964167118072510e-02
3.094170242547988892e-02
1.002727448940277100e-02
-7.807830721139907837e-02
-3.456850722432136536e-02
2.579907327890396118e-02
-3.835711255669593811e-02
5.657220631837844849e-02
2.944812923669815063e-02
1.910196989774703979e-02
-4.208822548389434814e-02
-2.322141081094741821e-02
-4.390509426593780518e-02
-1.599281281232833862e-02
-4.927994310855865479e-02
8.080651611089706421e-02
-2.459079399704933167e-02
-1.784373819828033447e-02
8.037372678518295288e-02
-6.664353609085083008e-02
-6.857283413410186768e-02
-8.791163563728332520e-04
7.056064903736114502e-03
2.862180769443511963e-02
3.673569113016128540e-02
3.385412693023681641e-02
3.140290081501007080e-02
4.905953258275985718e-02
4.588810354471206665e-02
4.008042812347412109e-02
4.772521555423736572e-03
6.559499353170394897e-02
-4.699460044503211975e-02
1.112514734268188477e-02
-2.764833346009254456e-02
-6.942383944988250732e-02
-4.018889367580413818e-02
3.257590532302856445e-02
3.970777243375778198e-02
-6.518455594778060913e-02
-3.233034908771514893e-02
-2.143894135951995850e-02
2.883218973875045776e-02
1.477093994617462158e-02
-2.275497093796730042e-02
-7.909561693668365479e-02
-4.525076970458030701e-02
5.267222970724105835e-02
-4.940065369009971619e-02
7.026626914739608765e-02
-2.095432579517364502e-02
5.790062248706817627e-03
-5.988773703575134277e-02
6.898855417966842651e-02
-6.421358138322830200e-02
2.553601562976837158e-02
-4.002082347869873047e-02
-3.992177173495292664e-02
5.301447957754135132e-02
1.973200589418411255e-02
6.511253863573074341e-02
5.848657339811325073e-02
2.468211203813552856e-02
-1.619634777307510376e-02
-3.032506629824638367e-02
-5.583096668124198914e-02
1.329065114259719849e-02
5.458537489175796509e-02
1.711006462574005127e-02
-6.075086444616317749e-02
1.160551607608795166e-02
-1.593514531850814819e-02
-3.852668777108192444e-02
-7.774025201797485352e-02
-3.776811063289642334e-03
4.899762570858001709e-03
7.073678076267242432e-03
-3.225071355700492859e-02
7.668093591928482056e-02
-7.628831267356872559e-02
-3.850350156426429749e-02
2.344409376382827759e-02
-2.412580698728561401e-02
-3.441422432661056519e-02
-1.829540729522705078e-02
-2.936480194330215454e-02
-5.357242748141288757e-02
9.797438979148864746e-03
3.246448189020156860e-02
3.894938528537750244e-02
-4.311166703701019287e-03
-3.014966472983360291e-02
-1.151286065578460693e-03
-6.949275732040405273e-02
6.195350736379623413e-02
-7.550681382417678833e-02
3.770153969526290894e-02
-3.502110019326210022e-02
1.221238821744918823e-02
8.417367935180664062e-04
-3.426336869597434998e-02
-6.397996842861175537e-02
-3.070667386054992676e-03
1.175670325756072998e-02
-6.294643878936767578e-02
7.055915147066116333e-02
-5.129481852054595947e-02
7.105492055416107178e-03
-4.939555004239082336e-02
-7.993304729461669922e-02
-1.800337433815002441e-02
-7.644783705472946167e-02
-3.477291390299797058e-02
-3.503678366541862488e-02
-7.970172166824340820e-02
1.309549063444137573e-02
-2.076672390103340149e-02
4.852163046598434448e-02
-4.002747684717178345e-02
6.303069740533828735e-02
6.643444299697875977e-03
1.957703381776809692e-02
-5.236846208572387695e-02
-3.723107278347015381e-03
6.713658571243286133e-03
-2.543922513723373413e-02
2.122030407190322876e-02
-6.554950773715972900e-02
1.421442627906799316e-02
7.116476446390151978e-02
-3.569803759455680847e-02
5.893348902463912964e-02
-1.307723671197891235e-02
1.968302577733993530e-02
-5.276532471179962158e-02
-7.072247564792633057e-03
1.272702217102050781e-02
7.442008703947067261e-02
-4.641004279255867004e-02
-6.472446024417877197e-02
-2.957154810428619385e-02
-4.879737645387649536e-02
6.239327043294906616e-02
-3.446814045310020447e-02
8.015239983797073364e-02
-3.604746237397193909e-02
4.148925840854644775e-02
-9.649462997913360596e-03
6.886073201894760132e-02
-7.091944664716720581e-02
8.002036064863204956e-02
4.860704392194747925e-02
4.356400668621063232e-02
-5.006583407521247864e-02
1.967474818229675293e-02
2.473060786724090576e-02
-2.656010910868644714e-02
1.265513896942138672e-02
-7.419442385435104370e-02
7.944711297750473022e-02
5.786965042352676392e-02
7.161151617765426636e-02
7.275956124067306519e-02
2.229095250368118286e-02
2.020013332366943359e-02
2.574890851974487305e-02
-4.397506266832351685e-02
1.262435317039489746e-02
7.613025605678558350e-03
6.370072811841964722e-02
-4.319180175662040710e-02
9.970903396606445312e-03
-4.044475778937339783e-02
1.327724754810333252e-02
-1.875601708889007568e-03
2.652799338102340698e-02
1.584887504577636719e-02
-7.053315639495849609e-03
1.999835669994354248e-02
2.176697552204132080e-02
5.592934042215347290e-02
2.855816483497619629e-02
-6.699983775615692139e-02
-9.757354855537414551e-04
6.662391126155853271e-03
-6.185235083103179932e-02
-4.871870949864387512e-02
7.050811499357223511e-02
6.010336428880691528e-02
-6.010455638170242310e-02
-2.998608350753784180e-02
-6.007131561636924744e-02
-6.101999431848526001e-02
-2.792092785239219666e-02
-4.873533919453620911e-02
3.287917375564575195e-02
4.550754278898239136e-02
-4.308304563164710999e-02
2.921701967716217041e-02
-2.323152497410774231e-02
-1.826427131891250610e-02
-3.027178719639778137e-02
-7.995849102735519409e-02
1.538121700286865234e-02
1.298191398382186890e-02
7.332418113946914673e-02
6.003709882497787476e-02
4.114482551813125610e-02
-5.864372104406356812e-02
-5.304625257849693298e-02
1.136854290962219238e-02
-1.926216483116149902e-02
-3.201513737440109253e-02
4.257378727197647095e-02
-4.869413003325462341e-02
-4.609962552785873413e-02
7.814615964889526367e-04
-1.468670368194580078e-02
-3.061434626579284668e-02
-5.210844054818153381e-02
6.166639178991317749e-02
7.416099309921264648e-03
-3.081229329109191895e-02
-1.780765503644943237e-02
-7.456902414560317993e-02
1.801946759223937988e-02
-6.397429108619689941e-02
3.300786763429641724e-02
6.020120531320571899e-02
5.039536207914352417e-02
6.606932729482650757e-02
-3.252607211470603943e-02
4.224422574043273926e-02
2.090659737586975098e-02
-7.946407049894332886e-02
-2.720544859766960144e-02
-6.971880793571472168e-03
-4.633149132132530212e-02
-6.612829864025115967e-03
1.404829323291778564e-03
5.871050059795379639e-03
-5.498984828591346741e-02
-4.061750695109367371e-02
2.914550900459289551e-02
-3.136977925896644592e-02
-2.501026168465614319e-02
1.433625817298889160e-02
-4.060715436935424805e-03
-1.003214716911315918e-02
-2.081900835037231445e-03
6.707974523305892944e-02
-5.458190664649009705e-02
-6.034709885716438293e-02
1.432473212480545044e-02
-2.773939818143844604e-02
2.699059993028640747e-02
-3.321111202239990234e-02
-4.441498965024948120e-02
-3.552010655403137207e-02
4.400432109832763672e-03
5.927167832851409912e-03
-2.922341972589492798e-02
1.538949459791183472e-02
-2.047477290034294128e-02
-6.571409851312637329e-02
1.053989678621292114e-02
4.594361037015914917e-02
4.313759505748748779e-02
1.262237876653671265e-02
-1.586893200874328613e-02
-6.689336150884628296e-02
5.969429761171340942e-02
1.634360849857330322e-02
-5.753525346517562866e-02
-9.108342230319976807e-03
2.540830522775650024e-02
-7.836606353521347046e-02
6.614799052476882935e-02
-5.290875583887100220e-02
1.560235023498535156e-02
-6.644125282764434814e-02
-2.346351742744445801e-03
-3.586392104625701904e-02
1.412059366703033447e-02
-3.960883989930152893e-02
-6.022258102893829346e-02
2.057179808616638184e-04
-1.326673477888107300e-02
-2.862865105271339417e-02
-3.568802028894424438e-02
-7.705181092023849487e-02
-6.798885762691497803e-02
6.243807822465896606e-02
6.966449320316314697e-03
-1.100659370422363281e-03
7.710544019937515259e-02
-2.380254492163658142e-02
-7.381968200206756592e-02
2.862559258937835693e-02
-2.641683444380760193e-02
-5.059614777565002441e-02
-8.658491075038909912e-03
-2.262658253312110901e-02
4.305484890937805176e-02
-5.710296332836151123e-02
6.112293154001235962e-02
7.845801860094070435e-02
-1.311173290014266968e-02
8.107174187898635864e-02
-7.145637273788452148e-02
-4.195898771286010742e-02
-7.443796843290328979e-02
2.385754138231277466e-02
5.574572831392288208e-02
-6.770282983779907227e-02
-2.461181581020355225e-02
6.856388598680496216e-02
4.325918853282928467e-03
-4.621010646224021912e-02
-7.861465215682983398e-03
7.744967192411422729e-02
3.842517733573913574e-03
-1.156159490346908569e-02
7.744058966636657715e-03
-5.716852098703384399e-02
1.532454043626785278e-02
7.928457111120223999e-02
5.133651942014694214e-02
-2.573210373520851135e-02
-6.348055601119995117e-02
5.324327200651168823e-02
-6.779573112726211548e-02
2.847485244274139404e-03
2.811111509799957275e-03
-3.035648912191390991e-02
8.259348571300506592e-03
1.365403831005096436e-02
-1.056201756000518799e-02
1.018738001585006714e-02
-6.656911969184875488e-02
1.351418346166610718e-02
5.845531076192855835e-02
7.671929895877838135e-03
1.296751201152801514e-02
1.498664170503616333e-02
3.897334635257720947e-02
-1.800635457038879395e-02
-7.551178336143493652e-02
-1.395417004823684692e-02
-4.476884007453918457e-02
-4.838779196143150330e-02
4.764709621667861938e-02
2.858214080333709717e-02
-6.902852654457092285e-02
2.419977635145187378e-02
6.956662982702255249e-02
1.835691928863525391e-02
2.208203077316284180e-03
-5.275915563106536865e-02
-5.433644354343414307e-02
-4.173303768038749695e-02
7.608518004417419434e-03
-5.602332577109336853e-02
1.037985086441040039e-02
-5.881608277559280396e-02
-3.237952664494514465e-02
-1.460000872611999512e-02
-3.225533664226531982e-02
5.817455798387527466e-02
4.119351506233215332e-03
5.243235081434249878e-02
4.604831337928771973e-04
-6.001599133014678955e-03
6.722585111856460571e-02
