5.855617299675941467e-02
2.512938901782035828e-02
-2.994346618652343750e-02
1.332673896104097366e-02
4.001831694040447474e-04
5.392086133360862732e-02
5.788514390587806702e-03
-5.956732854247093201e-02
2.148329615592956543e-01
3.283008933067321777e-02
-3.942143172025680542e-02
-1.128835952840745449e-03
3.064145892858505249e-02
4.704009369015693665e-02
-9.351495653390884399e-03
6.725551187992095947e-02
-3.982280939817428589e-02
-1.079952791333198547e-01
1.056370325386524200e-03
-8.036391437053680420e-02
-3.023342415690422058e-02
-1.276911050081253052e-02
3.229912370443344116e-02
8.879425376653671265e-02
-8.120816946029663086e-02
1.531256884336471558e-01
-1.112383455038070679e-01
-3.345634415745735168e-02
-2.259125560522079468e-02
1.624016165733337402e-01
-1.260541193187236786e-02
1.048576831817626953e-01
-2.584666199982166290e-02
-2.619197033345699310e-02
-2.077125459909439087e-01
3.401477634906768799e-02
-1.494509540498256683e-02
-6.585118826478719711e-04
1.499894708395004272e-01
-1.075794473290443420e-01
1.262052077800035477e-02
-2.568640373647212982e-02
-3.406941145658493042e-02
1.040010899305343628e-01
1.138427108526229858e-01
-1.004727780818939209e-01
-8.508916199207305908e-02
1.405273228883743286e-01
8.170286566019058228e-02
1.577157676219940186e-01
7.275310903787612915e-02
-9.511957317590713501e-02
-5.708358064293861389e-02
-1.287393923848867416e-02
-7.711428403854370117e-02
1.851676106452941895e-01
-2.642586641013622284e-02
-1.074024569243192673e-02
2.608263306319713593e-02
2.654739320278167725e-01
1.223709136247634888e-01
1.326899975538253784e-01
1.516851037740707397e-01
-1.224683597683906555e-01
2.376733534038066864e-02
-9.230095893144607544e-02
5.799165368080139160e-02
3.253604844212532043e-02
9.585099667310714722e-02
1.189413964748382568e-01
-1.060060337185859680e-01
1.018340960144996643e-01
-4.814475029706954956e-02
1.133781205862760544e-02
-1.300494186580181122e-02
4.876537248492240906e-02
9.764844179153442383e-02
3.095695562660694122e-02
1.267766207456588745e-01
3.358966112136840820e-02
6.208348646759986877e-02
-4.829730466008186340e-02
1.370147336274385452e-02
2.359907180070877075e-01
-1.917939260601997375e-02
-7.161227613687515259e-02
-7.361500710248947144e-02
-8.064010762609541416e-04
2.077623754739761353e-01
-8.098848164081573486e-02
-2.125967480242252350e-02
2.831159159541130066e-02
-8.320285007357597351e-03
8.029486238956451416e-02
4.784291982650756836e-02
-1.058739516884088516e-02
1.914181858301162720e-01
1.124339178204536438e-01
-1.470465771853923798e-02
1.009663194417953491e-01
-3.224769607186317444e-02
-7.253440469503402710e-02
4.211726412177085876e-02
6.743365526199340820e-02
1.673345118761062622e-01
1.873430609703063965e-01
5.818932875990867615e-02
-2.468487247824668884e-02
-4.968633875250816345e-02
1.683992147445678711e-02
2.365285903215408325e-02
2.097985744476318359e-01
-2.636193484067916870e-02
1.334830373525619507e-01
7.186968624591827393e-02
1.336373984813690186e-01
-8.349468000233173370e-03
1.804975420236587524e-02
3.559049218893051147e-02
-6.587624549865722656e-02
9.974490106105804443e-02
-5.711080878973007202e-02
7.606561481952667236e-02
-7.916370034217834473e-02
-3.775916993618011475e-02
1.649018190801143646e-02
-1.856701448559761047e-02
1.111219376325607300e-01
