-0.361674
0.271738
0.150020
-0.164186
-0.186667
-0.348490
0.328037
0.159931
0.130388
-0.234988
-0.303115
-0.253061
0.023197
-0.216031
0.122719
0.071149
0.044454
-0.247369
0.319858
0.027362
-0.364089
0.027847
-0.074486
0.137147
0.039862
0.045073
-0.418222
-0.032331
0.087458
-0.072178
0.042108
-0.176149
-0.139274
0.082639
0.024220
-0.133012
-0.034781
-0.134541
0.099504
0.030805
-0.117677
0.201911
-0.082680
-0.167664
-0.377056
0.488163
-0.247233
-0.248499
-0.249736
0.211084
0.141950
-0.165183
0.015974
0.113057
-0.003944
-0.196262
0.114721
-0.344829
0.046524
0.065441
0.101718
-0.265851
0.185551
-0.080771
0.055198
-0.167737
0.096401
-0.337016
0.023977
-0.081076
0.044715
-0.063330
0.156768
0.091978
-0.589290
0.099534
0.093938
-0.347540
0.128671
-0.109079
-0.153040
0.071035
-0.018847
-0.089037
0.157138
-0.083747
0.026670
-0.211004
0.088677
0.000476
0.084067
-0.221177
-0.038891
-0.012020
0.026299
0.027108
-0.369517
0.111687
-0.029471
0.029886
0.271695
-0.187986
0.118105
0.127463
-0.444708
0.125536
0.030447
-0.149812
-0.131098
-0.334397
-0.103910
0.408067
-0.080874
-0.193341
0.334629
0.087731
0.159607
0.164966
-0.330191
-0.568657
-0.056659
0.169350
0.182153
-0.234848
-0.037771
-0.016379
0.112204
-0.093778
0.042462
-0.540670
-0.370411
0.543481
0.108028
0.043496
-0.258389
-0.188701
-0.185603
0.236259
-0.063924
-0.262881
0.090101
-0.575012
-0.101408
0.193816
0.074857
0.102792
0.178744
-0.089375
-0.017238
-0.282357
-0.002878
-0.286831
-0.060230
-0.095126
0.059803
-0.066322
0.058665
0.078769
0.038377
0.036885
0.099291
0.099460
-0.082625
-0.533615
0.188363
0.047719
0.147677
0.185121
0.163326
-0.157987
0.034806
-0.138961
0.163214
0.267063
0.048557
-0.256451
0.204962
-0.048233
-0.651930
0.108153
-0.188248
0.135111
-0.712578
-0.167200
-0.641552
0.504243
0.475558
-0.137153
-0.167152
-0.087171
0.059721
0.361398
-0.169705
-0.199556
0.195318
-0.393850
0.063553
0.199302
-0.147051
0.007306
0.227879
0.253906
0.226736
-0.192868
-0.400829
-0.075731
-0.148116
0.221003
-0.798973
0.191328
0.076035
0.276725
0.167110
0.094437
0.365393
-0.363238
-0.548342
0.039416
-0.091264
-0.413211
-0.004673
0.016377
0.053927
0.095058
0.027098
0.046396
0.064587
-0.284147
0.114778
-0.117696
0.155454
-0.067742
0.002788
-0.020336
0.150765
-0.163797
-0.353588
0.149653
-0.459019
0.193837
-0.429792
0.033781
-0.251376
0.182672
0.151086
0.202021
-0.723209
0.058368
-0.071857
0.111301
0.189174
0.102606
0.067712
-0.623744
-0.029823
-0.434226
0.031417
0.222248
0.053883
-0.096574
0.163847
0.013545
-0.145494
0.106830
-0.265170
-0.121903
0.155671
0.040128
-0.038797
0.005416
0.155105
0.220334
-0.032422
-0.371304
0.174267
-0.502187
0.121893
-0.216470
0.050513
0.077442
-0.337991
0.298047
-0.034887
0.025292
0.134119
-0.588003
0.098705
0.048267
-0.175884
0.016515
0.026864
0.098663
0.174288
-0.022449
-0.474278
-0.025264
0.012163
-0.198097
0.027469
-0.023875
0.176043
0.085784
0.030022
0.002886
0.124532
0.168836
-0.223801
-0.140287
-0.340621
-0.086954
-0.215473
-0.026372
-0.225652
0.079823
-0.019231
0.104938
-0.126950
-0.055850
0.122782
0.024946
0.244390
-0.104897
-0.752475
-0.106078
0.133560
0.017049
0.262444
-0.075354
-0.212982
0.068301
-0.745465
0.069207
-0.401624
-0.141305
-0.229193
0.339674
0.069037
0.218687
0.003055
0.117316
0.052128
0.043923
0.049931
0.056727
-0.116618
0.001578
0.030336
-0.312111
-0.029146
-0.124146
-0.013614
0.134750
-0.719517
-0.009587
0.106890
0.127156
0.079059
0.124957
-0.191582
0.155105
-0.154155
0.108572
-0.082123
-0.063589
-0.560747
0.175047
0.217950
0.039276
0.099414
-0.133145
-0.535631
0.037000
-0.025328
0.040960
0.022764
0.185491
0.009051
0.014170
0.040471
0.085347
-0.213739
0.094268
0.112362
0.201167
-0.590071
0.078758
0.053364
0.098032
0.056684
-0.304503
-0.098626
-0.215253
0.030089
0.017302
0.052930
-0.057512
-0.041589
-0.069720
0.058132
0.042943
0.199920
-0.353203
0.103220
0.094057
-0.270676
0.252706
-0.627895
0.159145
-0.233121
0.145510
0.164650
-0.055785
0.073214
0.056820
-0.110298
-0.367693
-0.359111
0.082210
-0.048359
0.187639
-0.189722
-0.016235
-0.300038
0.238247
-0.284921
0.065629
-0.040750
0.048970
0.134348
0.087291
-0.366422
-0.076400
-0.015962
-0.115492
0.161829
0.069713
-0.678772
0.193405
-0.024140
0.144719
0.200578
-0.194702
0.019565
0.071330
0.092294
0.042196
-0.046316
-0.207135
0.029117
-0.059997
-0.300405
-0.355970
-0.404482
0.464934
-0.492670
0.384612
0.150532
-0.393551
-0.161503
-0.078476
-0.553607
-0.129654
-0.888152
0.201739
0.247701
0.172647
-0.231685
-0.236246
-0.360405
0.374488
0.119634
-0.153211
0.094918
-0.206573
0.286949
-0.163982
-0.323314
0.058787
-0.438341
0.294074
-0.012313
0.012718
0.032757
-0.050402
-0.066366
0.038744
-0.531022
-0.017196
0.102805
0.048936
-0.019891
0.232382
0.255497
0.199819
-0.169526
-0.166739
-0.218638
0.088504
-0.295583
-0.503215
0.436928
0.242628
0.243705
-0.334506
-0.015742
-0.272155
0.003135
0.198504
-0.735420
-0.048924
-0.457688
0.183482
-0.361260
-0.200820
0.095664
0.061263
-0.280995
0.060287
0.010487
0.152698
-0.031521
-0.026854
-0.125576
-0.185237
0.200361
0.016055
-0.028741
0.106018
-0.446527
0.237921
-0.104212
-0.679826
0.103185
-0.135594
-0.035417
-0.016592
0.287803
0.079971
-0.250655
0.081038
-0.493474
0.051028
0.047487
0.116190
-0.077995
0.060479
-0.052479
0.012558
0.145216
-0.024915
-0.495983
0.079296
0.002978
-0.047853
0.228287
-0.226098
-0.271617
-0.040678
0.102075
0.129218
0.129110
-0.069350
-0.119828
0.063458
-0.074663
-0.232843
-0.327406
0.087981
0.031878
0.037803
-0.489069
0.101917
0.345992
-0.064671
0.102368
0.110599
-0.058679
-0.164698
-0.426281
-0.233275
0.089259
-0.275331
0.036036
0.037239
-0.403942
0.137653
0.117195
-0.124804
0.157534
-0.164951
-0.127578
0.046236
0.085411
0.328112
-0.463673
-0.153880
-0.299969
0.252651
-0.002104
-0.121048
-0.374599
0.257483
-0.054448
0.090763
0.295128
-0.802177
-0.434706
0.174359
-0.328697
-0.139923
0.109090
-0.506229
-0.228414
-0.020667
-0.036583
-0.016316
0.072705
-0.043052
0.041816
-0.114747
0.107206
-0.119973
-0.024375
-0.033175
-0.461467
0.041027
0.054997
-0.330774
0.172149
0.014404
0.105538
0.183040
-0.105402
0.001367
0.219297
-0.051254
0.086398
0.257784
-0.501577
-0.131063
-0.033791
-0.048721
0.043814
-0.230298
0.078126
-0.033121
0.158443
-0.253730
0.103412
0.147121
-0.121052
-0.133074
-0.038322
0.027615
0.033258
-0.044134
0.040379
-0.068353
0.054282
0.053095
0.181488
-0.201710
-0.264599
0.174061
-0.019526
-0.065535
-0.397013
0.058922
-0.021983
0.250117
-0.119942
0.081419
0.089239
0.375161
0.229661
-0.566549
0.146376
0.302182
-0.175635
-0.298031
0.000374
-0.035189
0.072440
0.087428
-0.450069
0.208924
0.100058
-0.280187
-0.027112
-0.158356
0.089434
-0.083263
0.113377
-0.032734
0.050686
-0.220814
-0.072381
-0.065388
0.095316
0.086824
-0.055409
0.478131
-0.248399
-0.915593
0.170558
-0.050761
0.124483
0.176147
-0.318347
0.119722
-0.230841
0.019391
0.097134
0.054348
-0.127403
-0.584291
-0.395982
-0.042262
0.133392
0.168661
-0.054835
-0.127610
-0.130196
-0.410257
0.181566
0.217605
0.104297
-0.128571
0.221524
-0.378204
0.066958
-0.107620
0.001294
0.066165
-0.366394
0.068511
0.101206
-0.759679
0.062693
0.050802
-0.060818
0.087206
0.075416
0.110502
-0.092787
-0.068792
0.110994
0.063050
0.112658
-0.360959
-0.489041
-0.301204
-0.033401
0.113823
0.167250
0.043840
-0.555797
0.135718
-0.028800
0.030386
0.000806
-0.070907
-0.535318
-0.035919
-0.029558
0.325710
0.091170
-0.288107
0.027943
-0.185682
-0.414474
-0.203588
-0.622254
0.349795
0.163312
0.284699
-0.441166
-0.591728
-0.125453
0.293602
0.079891
-0.488313
-0.052574
-0.275155
0.164264
0.074956
0.156532
-0.104105
0.026836
-0.123953
0.169397
-0.279575
-0.220133
0.021087
-0.083759
0.083283
0.145669
-0.221164
0.012746
0.147122
-0.087823
-0.112569
-0.138785
0.127255
0.012587
-0.041715
0.011150
-0.030337
0.014538
-0.073335
-0.560037
0.115097
-0.006512
0.126546
0.084561
0.106527
-0.691076
-0.389914
0.050063
0.137984
-0.120144
-0.235530
-0.000193
0.134395
-0.002515
-0.227652
-0.299394
0.007328
0.075038
0.040288
-0.030930
-0.483543
-0.131270
0.081774
-0.049367
-0.006894
-0.105718
0.040889
0.101229
0.067166
-0.015413
-0.226404
0.169142
-0.374734
0.384007
-0.191343
-0.061912
-0.194548
-0.491940
0.028200
0.104301
-0.039012
0.087599
-0.000835
-0.102862
-0.073603
-0.066485
0.092926
0.015435
-0.571977
0.032977
-0.528466
0.059949
-0.094326
0.091098
0.069794
-0.247708
-0.160293
0.057133
0.036880
0.192123
-0.142214
0.100169
-0.166814
-0.284351
-0.199800
0.390741
-0.036220
0.105630
0.099433
0.068402
0.165677
0.104295
0.117075
-0.572602
-0.107351
-0.478696
0.039810
-0.096705
0.090678
0.083930
0.116304
0.009679
-0.133610
-0.172576
-0.218392
0.053707
0.048674
-0.138891
0.209136
-0.088176
-0.196235
0.010953
0.039967
0.031260
-0.028828
-0.483309
0.068069
0.122112
-0.000657
-0.043873
-0.110715
-0.049244
-0.045725
0.007848
-0.066866
-0.293915
0.024677
0.195036
0.084398
-0.016841
-0.178784
0.016993
0.095835
-0.099154
-0.400718
0.127253
0.016302
0.112712
0.112641
-0.037971
-0.066621
0.155306
0.036197
0.077365
-0.424653
-0.159143
0.190072
0.056665
0.085674
-0.140288
-0.172934
-0.207024
-0.254694
0.266861
0.194277
-0.292934
0.149988
-0.208922
0.083964
0.020535
-0.242853
-0.339192
-0.432814
0.090313
0.143216
-0.114692
-0.121944
0.027361
0.290156
0.112842
-0.243370
0.264074
-0.187761
-0.294730
0.168635
0.042603
0.067920
0.109947
-0.142942
-0.126879
-0.265879
0.094466
0.067778
-0.158508
0.096849
-0.408398
0.220787
-0.059414
-0.208882
0.194404
-0.237959
-0.012659
0.075169
-0.084906
0.001909
0.054767
-0.153772
0.070661
-0.140646
-0.156135
0.090935
0.313308
0.146244
-0.341676
-0.122660
-0.164660
0.413685
-0.342539
-0.870488
0.234984
0.037535
0.113846
0.073361
-0.886092
0.076082
-0.460164
0.086846
-0.170066
0.040223
0.190266
0.114496
0.151162
0.033958
-0.437460
0.200395
-0.204112
-0.240953
-0.288912
0.023786
-0.365074
0.279491
0.347892
-0.519506
-0.303458
-0.091752
-0.018692
0.091000
-0.144336
-0.004175
0.207812
-0.250164
0.180426
0.055332
-0.411739
-0.270964
-0.159757
0.041196
0.080538
0.157063
-0.060196
-0.281258
0.045494
-0.161614
-0.454276
0.157437
0.001652
0.055172
0.105799
0.067557
-0.254505
-0.263625
0.221959
0.413346
-0.335399
0.149460
-0.052009
0.001196
-0.437711
-0.251071
-0.253666
0.045396
0.295017
-0.072096
-0.107431
0.093967
0.103939
-0.038791
0.096931
-0.542737
-0.029128
-0.047964
0.005351
0.084540
-0.248016
0.047466
-0.233228
-0.157004
0.109205
-0.002846
-0.320160
0.042768
0.219216
0.185412
-0.079603
-0.170709
-0.062916
0.361573
-0.121726
-0.932095
0.221055
-0.352032
0.270436
-0.127706
-0.043138
0.068976
0.165341
0.150683
-0.393802
-0.031631
-0.292310
0.059173
0.177413
0.008759
-0.108767
-0.079371
-0.089153
0.166019
0.113437
-0.662535
-0.074777
-0.196653
-0.010543
0.101689
0.083908
0.065398
0.096585
-0.431233
-0.042289
0.112114
-0.210399
-0.458854
-0.347474
-0.473805
0.328374
0.301651
0.069775
0.159112
0.133550
-0.050430
-0.143365
0.489178
-0.380059
0.179616
0.262327
-0.100840
0.113026
0.068027
-0.085820
-0.448010
-0.098962
0.056079
0.244553
-0.167383
0.109299
0.120802
0.064474
-0.383877
0.109214
-0.157470
-0.417759
-0.237585
0.345089
-0.118544
-0.285337
0.089373
-0.049572
0.143333
0.196187
-0.301969
0.380289
-0.571097
0.030969
0.092757
-0.521438
0.026882
0.128052
-0.093968
-0.110129
0.042428
0.158335
0.196270
-0.040958
0.006675
-0.367063
0.131598
0.007507
0.320179
-0.547253
-0.227588
0.056311
-0.320707
-0.309469
-0.379833
-0.009050
0.182162
0.217140
0.426733
-0.289060
-0.449445
-0.357271
0.102424
0.000271
0.042600
0.091841
-0.094694
-0.366765
0.073184
0.097967
0.026088
-0.261158
0.052287
0.103292
-0.216886
-0.571559
0.334608
-0.126951
0.112528
-0.108961
-0.031488
-0.344945
0.359209
-0.108126
-0.477517
0.275731
-0.210740
0.351146
0.122512
-0.245610
-0.488038
-0.090031
0.211746
-0.457684
-0.081947
0.205023
-0.067058
0.057854
0.036345
-0.277998
0.092997
0.321120
-0.003688
0.122677
0.005775
-0.112765
-0.532538
0.057877
-0.013646
0.135568
0.000919
0.038056
-0.021514
0.024299
-0.062001
-0.021982
0.042212
0.110428
-0.306241
0.144719
0.027297
-0.080657
-0.235593
0.029697
0.231540
-0.578099
0.149686
-0.410390
0.151645
-0.298028
-0.000623
-0.341862
0.010165
-0.285539
0.125224
0.071304
0.104893
-0.020461
-0.075119
0.084210
0.089061
0.128620
0.410002
0.035464
-0.220031
0.554263
0.176238
-0.358039
-0.513630
-0.375944
-0.558371
