-8.428166508674621582e-01
2.243753820657730103e-01
6.028953790664672852e-01
-2.226571887731552124e-01
-1.245507672429084778e-01
-2.487376928329467773e-01
-1.874455511569976807e-01
4.092742800712585449e-01
2.383530372753739357e-03
-6.467037200927734375e-01
1.008577495813369751e-01
1.655731946229934692e-01
-4.445769488811492920e-01
5.193455610424280167e-03
7.742550224065780640e-02
1.751444935798645020e-01
3.250585198402404785e-01
-6.092653144150972366e-03
1.576960682868957520e-01
-3.643181622028350830e-01
-1.494415253400802612e-01
3.777271807193756104e-01
-5.543166995048522949e-01
-3.796421885490417480e-01
-2.068661004304885864e-01
6.971668452024459839e-02
1.627919971942901611e-01
1.365409642457962036e-01
-5.179459229111671448e-02
1.302052289247512817e-01
2.075874805450439453e-01
-4.140409231185913086e-01
3.272818624973297119e-01
1.559380441904067993e-01
-5.608767867088317871e-01
-1.852341592311859131e-01
3.132100105285644531e-01
-1.384933590888977051e-01
1.017218008637428284e-01
1.360706426203250885e-02
-5.470820665359497070e-01
5.127254500985145569e-02
-4.512774348258972168e-01
6.367073208093643188e-02
2.157815098762512207e-01
7.036948949098587036e-02
-3.924825787544250488e-01
-4.648641943931579590e-01
2.194987684488296509e-01
1.374469399452209473e-01
2.036742568016052246e-01
-2.789079248905181885e-01
-5.203716829419136047e-02
-2.759067118167877197e-01
1.869027167558670044e-01
-2.442777901887893677e-01
1.648566424846649170e-01
-3.741868957877159119e-02
-1.172083243727684021e-01
-1.154834926128387451e-01
1.686698496341705322e-01
-2.356685101985931396e-01
-1.756045520305633545e-01
-1.490530222654342651e-01
-4.703156054019927979e-01
-1.695778369903564453e-01
1.532138437032699585e-01
2.322255373001098633e-01
-2.552261948585510254e-01
3.300958275794982910e-01
2.605574764311313629e-02
3.166952431201934814e-01
-4.835479855537414551e-01
2.493457123637199402e-02
9.913931787014007568e-02
1.687159985303878784e-01
3.231974244117736816e-01
1.129227429628372192e-01
-3.437032997608184814e-01
8.755146525800228119e-03
-5.281647443771362305e-01
2.879799902439117432e-02
7.182151824235916138e-02
-3.527238368988037109e-01
1.576311439275741577e-01
1.961501687765121460e-01
1.111976578831672668e-01
1.224647089838981628e-01
2.661002874374389648e-01
2.050707489252090454e-01
-1.120721101760864258e-01
-8.760480582714080811e-02
-4.808621481060981750e-02
-1.257023215293884277e-01
-1.058568507432937622e-01
-3.150712326169013977e-02
-1.221248656511306763e-01
1.023597195744514465e-01
1.663303971290588379e-01
1.882851868867874146e-01
-4.695790708065032959e-01
9.272179007530212402e-02
-7.361225783824920654e-02
1.580330282449722290e-01
2.936305850744247437e-02
6.630641967058181763e-02
-1.996298283338546753e-01
-1.684681177139282227e-01
2.882421612739562988e-01
-4.110685884952545166e-01
-1.747105121612548828e-01
-2.192153781652450562e-01
-1.559068709611892700e-01
1.922012120485305786e-01
6.761407107114791870e-02
2.540391311049461365e-02
-2.067663669586181641e-01
1.698194742202758789e-01
2.034643888473510742e-01
2.071779221296310425e-01
-1.600461751222610474e-01
9.101249277591705322e-02
9.382154047489166260e-02
-7.269930094480514526e-02
-1.283236499875783920e-02
-1.999729722738265991e-01
8.112526684999465942e-02
7.171162404119968414e-03
1.218173429369926453e-01
2.969789318740367889e-02
1.442294567823410034e-01
-4.500137865543365479e-01
-2.985329627990722656e-01
2.117387056350708008e-01
-6.283010244369506836e-01
3.411560356616973877e-01
-4.108164012432098389e-01
1.251571327447891235e-01
-1.580366343259811401e-01
1.156983450055122375e-01
-4.293549656867980957e-01
-1.192114204168319702e-01
4.433903396129608154e-01
4.944599270820617676e-01
-5.206584930419921875e-01
-2.894211113452911377e-01
-3.519559502601623535e-01
7.876099646091461182e-02
-1.225821673870086670e-02
-1.255725771188735962e-01
1.780599653720855713e-01
-3.293633088469505310e-02
-5.257530212402343750e-01
-2.621417641639709473e-01
7.713042944669723511e-02
3.532878160476684570e-01
2.196997255086898804e-01
2.971466481685638428e-01
-1.795872300863265991e-01
-1.830807328224182129e-01
-1.392476260662078857e-02
1.846574097871780396e-01
8.803928270936012268e-03
-3.363977372646331787e-01
1.580649465322494507e-01
-3.855056464672088623e-01
2.478635758161544800e-01
-2.253192067146301270e-01
-4.787856340408325195e-01
3.658511936664581299e-01
2.522548437118530273e-01
-3.002950847148895264e-01
2.085121721029281616e-01
1.011437848210334778e-01
-8.058210015296936035e-01
3.568192198872566223e-02
-9.702655673027038574e-02
-1.526893079280853271e-01
4.908702149987220764e-02
1.856644749641418457e-01
-2.857366204261779785e-01
-7.405368983745574951e-02
-4.264164865016937256e-01
4.526898562908172607e-01
-2.511501312255859375e-01
5.260763168334960938e-01
-7.079304456710815430e-01
-4.690240621566772461e-01
-1.014185309410095215e+00
1.816469132900238037e-01
-1.296500712633132935e-01
3.194742500782012939e-01
3.094810545444488525e-01
1.682110577821731567e-01
2.120448499917984009e-01
-7.014986276626586914e-01
-4.994320571422576904e-01
1.432600468397140503e-01
-3.463713228702545166e-01
-2.815787307918071747e-02
-6.201837658882141113e-01
4.204370453953742981e-02
-2.501921951770782471e-01
1.322557628154754639e-01
1.843287050724029541e-01
-1.027273756335489452e-04
-5.870889425277709961e-01
-4.962366223335266113e-01
2.073638886213302612e-01
3.827490806579589844e-01
3.788942098617553711e-01
2.807134985923767090e-01
-1.203824505209922791e-01
8.036355674266815186e-02
-2.686944901943206787e-01
1.248282268643379211e-01
-4.921436309814453125e-01
2.401334494352340698e-01
-2.598308026790618896e-01
2.458086460828781128e-01
-4.813211560249328613e-01
1.922306269407272339e-01
-4.279241859912872314e-01
3.119075298309326172e-01
2.277483642101287842e-01
3.734820708632469177e-02
2.183073572814464569e-02
-9.273776784539222717e-03
-3.612416610121726990e-02
1.493603289127349854e-01
1.576932072639465332e-01
-2.833450138568878174e-01
2.466899156570434570e-01
7.662031799554824829e-02
1.547482796013355255e-02
7.308477908372879028e-02
2.082695066928863525e-01
-6.512317657470703125e-01
-5.394048243761062622e-02
-3.549469411373138428e-01
1.805308163166046143e-01
-2.231126725673675537e-01
-1.412453055381774902e-01
4.250004887580871582e-02
6.696315854787826538e-02
-1.532256156206130981e-01
-1.020593382418155670e-02
1.463581621646881104e-01
4.303045943379402161e-02
9.524914622306823730e-02
-3.791585192084312439e-02
-5.284545421600341797e-01
1.053617373108863831e-01
1.708213388919830322e-01
-1.017704457044601440e-01
2.998846173286437988e-01
-7.644782662391662598e-01
1.998090445995330811e-01
-2.021232992410659790e-02
1.937134265899658203e-01
1.446190029382705688e-01
-4.971442222595214844e-01
1.520176976919174194e-01
1.406378149986267090e-01
-3.087386190891265869e-01
-5.493659153580665588e-02
-1.486789882183074951e-01
-2.394169270992279053e-01
3.129157051444053650e-02
2.635623514652252197e-01
1.887429133057594299e-02
4.154535830020904541e-01
1.101814210414886475e-01
2.786456644535064697e-01
2.200156599283218384e-01
-7.128219604492187500e-01
-4.014801383018493652e-01
2.334404587745666504e-01
-1.962116211652755737e-01
2.079275101423263550e-01
1.579504609107971191e-01
-1.504152119159698486e-01
-4.161919057369232178e-01
1.484036743640899658e-01
2.705987095832824707e-01
-2.976035773754119873e-01
-3.002467453479766846e-01
-9.321917593479156494e-02
-6.643969416618347168e-01
3.023277819156646729e-01
-1.211600601673126221e-01
3.104450106620788574e-01
-4.237144812941551208e-02
-3.760648071765899658e-01
7.207574248313903809e-01
1.258687078952789307e-01
-2.066404670476913452e-01
9.093617647886276245e-02
-1.018879711627960205e-01
-7.289087772369384766e-01
-2.633758783340454102e-01
3.754862844944000244e-01
2.168689817190170288e-01
2.728132009506225586e-01
4.353041648864746094e-01
-1.115540266036987305e-01
-2.274604886770248413e-01
2.661492824554443359e-01
1.402626335620880127e-01
-3.886829912662506104e-01
1.601572930812835693e-01
-2.050388604402542114e-01
1.322773993015289307e-01
-9.036429971456527710e-02
2.791976183652877808e-02
5.541823804378509521e-02
-7.920880615711212158e-02
-2.942470312118530273e-01
7.750526815652847290e-02
-1.649906784296035767e-01
2.800985872745513916e-01
-1.508388370275497437e-01
-2.461015433073043823e-01
2.815716564655303955e-01
1.535463612526655197e-02
-1.417696028947830200e-01
-4.270434975624084473e-01
-2.682546675205230713e-01
-1.446567475795745850e-01
3.654350340366363525e-02
8.269548416137695312e-02
6.570737063884735107e-02
1.449570655822753906e-01
-9.215738624334335327e-02
2.689171116799116135e-03
-1.525306701660156250e-01
-1.152000501751899719e-01
-3.310252726078033447e-02
-2.205098718404769897e-01
7.330722361803054810e-02
1.657364517450332642e-01
3.926733508706092834e-02
-2.534776031970977783e-01
3.207769095897674561e-01
-3.553971946239471436e-01
-9.081584215164184570e-02
3.254814818501472473e-02
3.685176372528076172e-02
-2.896225452423095703e-01
1.072896048426628113e-01
-3.027755320072174072e-01
-3.024005591869354248e-01
2.020618319511413574e-01
2.156164199113845825e-01
-1.518084406852722168e-01
-5.397372841835021973e-01
1.940944194793701172e-01
1.999055296182632446e-01
1.475786864757537842e-01
1.189214289188385010e-01
-2.849750816822052002e-01
-2.209506034851074219e-01
1.258688122034072876e-01
1.622726321220397949e-01
-1.635656207799911499e-01
1.911367326974868774e-01
-1.886774897575378418e-01
-4.607492089271545410e-01
-3.313419222831726074e-01
4.399853944778442383e-01
-8.703788742423057556e-03
-8.360315114259719849e-03
1.231609284877777100e-01
1.043652892112731934e-01
-8.229215145111083984e-01
2.465380430221557617e-01
2.043817341327667236e-01
-1.303620040416717529e-01
1.650557070970535278e-01
-1.362735033035278320e-01
-3.923225775361061096e-02
-1.609477996826171875e-01
2.935423851013183594e-01
-2.069633454084396362e-01
1.875745207071304321e-01
1.075747162103652954e-01
2.197240144014358521e-01
-2.460310012102127075e-01
1.818062216043472290e-01
4.354589327704161406e-05
2.213473618030548096e-01
-1.534009575843811035e-01
7.271861284971237183e-02
1.042806282639503479e-01
1.642787009477615356e-01
1.258155852556228638e-01
-1.277256906032562256e-01
-7.960746437311172485e-02
-1.104821562767028809e-01
1.489026844501495361e-01
2.685014903545379639e-01
-1.986524909734725952e-01
-6.717492938041687012e-01
5.553155764937400818e-02
-8.094948530197143555e-02
2.326159179210662842e-01
4.671263694763183594e-02
2.465327233076095581e-01
-4.069572091102600098e-01
9.317189687862992287e-04
-1.602466553449630737e-01
2.046970874071121216e-01
7.089875638484954834e-02
-1.973988860845565796e-02
-1.805883795022964478e-01
-4.860000312328338623e-02
-1.770179271697998047e-01
-2.472646385431289673e-01
4.217007383704185486e-02
-9.482232481241226196e-02
-2.516331374645233154e-01
2.150226533412933350e-01
7.009252160787582397e-02
-2.221688628196716309e-01
1.706824749708175659e-01
-6.357246637344360352e-01
-5.362288951873779297e-01
2.915689647197723389e-01
-3.222812712192535400e-02
-1.199357435107231140e-01
1.635267883539199829e-01
-7.257657498121261597e-02
-5.582723394036293030e-02
-1.384796351194381714e-01
-1.978324204683303833e-01
1.618432700634002686e-01
1.650141924619674683e-01
-2.384116947650909424e-01
1.977695673704147339e-01
-2.456554584205150604e-02
2.712273001670837402e-01
6.694542765617370605e-01
-2.450599074363708496e-01
-5.612083077430725098e-01
1.575872004032135010e-01
-1.233329474925994873e-01
-4.736230671405792236e-01
-2.137315869331359863e-01
-1.863115280866622925e-01
-2.769541740417480469e-01
5.706120282411575317e-03
-3.628731667995452881e-01
2.742941677570343018e-01
2.509998977184295654e-01
-4.445681571960449219e-01
-1.229177936911582947e-01
-1.445022076368331909e-01
1.432839930057525635e-01
2.306403219699859619e-01
2.162719070911407471e-01
2.471882849931716919e-02
-3.482783585786819458e-02
-2.594813518226146698e-02
-2.704129368066787720e-02
-5.899779871106147766e-02
-5.838832259178161621e-02
-1.002583503723144531e-01
-2.115695178508758545e-01
1.139803454279899597e-01
2.972022444009780884e-02
-8.727329373359680176e-01
-2.822762131690979004e-01
3.086014091968536377e-01
5.460795015096664429e-02
4.940497875213623047e-02
5.500836372375488281e-01
2.538603544235229492e-01
3.427967727184295654e-01
1.137223988771438599e-01
-1.632676273584365845e-01
7.776022888720035553e-03
6.795095745474100113e-03
-2.992116510868072510e-01
-2.888684161007404327e-02
-1.924230158329010010e-01
2.451130449771881104e-01
-9.448306262493133545e-02
-3.794096708297729492e-01
2.885300815105438232e-01
1.808575987815856934e-01
3.420428559184074402e-02
-1.775005459785461426e-01
7.319341599941253662e-02
-8.517967164516448975e-02
2.124368697404861450e-01
3.374740108847618103e-02
4.049893468618392944e-02
1.006270013749599457e-02
1.771123707294464111e-01
-1.219804883003234863e-01
1.069271266460418701e-01
2.527264356613159180e-01
2.768864333629608154e-01
-4.340003430843353271e-01
-4.173272252082824707e-01
1.196277290582656860e-01
2.677654623985290527e-01
1.740058958530426025e-01
-8.900283277034759521e-02
-2.953551709651947021e-01
2.340536415576934814e-01
-4.498144984245300293e-01
3.329107165336608887e-01
1.223069336265325546e-02
-6.876633316278457642e-02
-1.919208317995071411e-01
2.827036380767822266e-02
-4.860702436417341232e-03
-6.163172125816345215e-01
4.225410223007202148e-01
-4.859594255685806274e-02
3.561102747917175293e-01
1.857600510120391846e-01
1.367971897125244141e-01
-7.512418031692504883e-01
-2.396220117807388306e-01
-2.271527349948883057e-01
4.244547188282012939e-01
-5.552476644515991211e-01
-7.753017544746398926e-01
1.800491958856582642e-01
1.378462761640548706e-01
-2.701708674430847168e-01
-3.547391295433044434e-01
3.664727509021759033e-01
-4.164458513259887695e-01
1.226871088147163391e-01
3.137986660003662109e-01
-2.922494411468505859e-01
1.805493533611297607e-01
-3.279990851879119873e-01
1.914213597774505615e-02
1.312211900949478149e-01
1.247488558292388916e-01
-1.617674380540847778e-01
-3.332007527351379395e-01
-3.156011700630187988e-01
-2.508370280265808105e-01
3.723848983645439148e-02
6.422797590494155884e-02
1.021908670663833618e-01
-3.043937385082244873e-01
-1.855383068323135376e-01
-1.937021762132644653e-01
-1.721113175153732300e-01
3.230706453323364258e-01
-3.628680706024169922e-01
2.799744606018066406e-01
-1.518062874674797058e-02
5.679266154766082764e-02
-2.332373857498168945e-01
2.259783744812011719e-01
6.438017636537551880e-02
6.361610442399978638e-02
-2.038948088884353638e-01
-2.694663107395172119e-01
2.501185610890388489e-02
-6.872922182083129883e-02
1.288756430149078369e-01
-5.186261534690856934e-01
2.392293214797973633e-01
-3.080201745033264160e-01
9.071903675794601440e-02
-5.570027977228164673e-02
-7.081810235977172852e-01
-1.394009916111826897e-03
8.616662025451660156e-02
-1.129197329282760620e-01
-4.083019495010375977e-02
-2.093439251184463501e-01
8.892720192670822144e-02
2.799372933804988861e-02
1.734828650951385498e-01
-2.619022130966186523e-01
1.077513620257377625e-01
-6.033777073025703430e-02
-7.155423611402511597e-02
2.735083103179931641e-01
-4.006248116493225098e-01
1.188173666596412659e-01
2.806886332109570503e-03
1.512922197580337524e-01
1.387070119380950928e-01
-5.931662321090698242e-01
5.682987570762634277e-01
2.080322504043579102e-01
-2.492235042154788971e-02
3.564049303531646729e-01
-2.233068495988845825e-01
-1.758127659559249878e-01
-1.008541062474250793e-01
2.203605473041534424e-01
1.810087114572525024e-01
-5.749123096466064453e-01
2.910517156124114990e-01
-6.052319407463073730e-01
1.420048177242279053e-01
3.116247951984405518e-01
-1.430086344480514526e-01
1.278606355190277100e-01
-3.627610206604003906e-01
1.212731972336769104e-01
-9.926651418209075928e-02
-4.270248711109161377e-01
9.026024490594863892e-02
1.467877924442291260e-01
3.547674417495727539e-02
-2.105209231376647949e-01
9.098088741302490234e-02
-4.511978030204772949e-01
-1.814787983894348145e-01
4.032879695296287537e-02
1.248779296875000000e-01
-3.061631917953491211e-01
-4.783444479107856750e-02
2.131438851356506348e-01
3.116507232189178467e-01
4.725950658321380615e-01
-3.148630857467651367e-01
-5.181786417961120605e-01
1.034607440233230591e-01
-6.125232204794883728e-02
1.294849216938018799e-01
1.722862720489501953e-01
-8.692850470542907715e-01
-3.147278428077697754e-01
-5.352802872657775879e-01
1.506395488977432251e-01
1.156985685229301453e-01
6.838181614875793457e-02
-4.338238015770912170e-02
2.291909158229827881e-01
1.823388189077377319e-01
-1.900265216827392578e-01
-1.030525565147399902e-01
-1.751003712415695190e-01
1.869057416915893555e-01
-2.513073682785034180e-01
-2.274778299033641815e-02
1.488086879253387451e-01
8.730153739452362061e-02
-2.157916128635406494e-01
-3.906429708003997803e-01
2.300416082143783569e-01
3.853408619761466980e-02
9.243276715278625488e-02
1.225157827138900757e-01
-1.134266555309295654e-01
2.720803618431091309e-01
-1.908649504184722900e-02
-1.231879368424415588e-01
2.144928276538848877e-01
4.165328145027160645e-01
-5.965113043785095215e-01
-4.851044118404388428e-01
-1.096181944012641907e-01
6.498181726783514023e-03
-1.789921820163726807e-01
8.404636383056640625e-02
3.043875694274902344e-01
2.946080267429351807e-01
-1.977381706237792969e-01
2.736051753163337708e-02
-2.221859991550445557e-01
-3.473693132400512695e-01
-2.804574966430664062e-01
6.062561878934502602e-04
8.604016155004501343e-02
3.848886191844940186e-01
-2.976189255714416504e-01
-1.522991657257080078e-01
1.316974312067031860e-01
6.249768659472465515e-02
-5.755063295364379883e-01
2.163197398185729980e-01
3.020759031642228365e-04
1.843376606702804565e-01
8.870332688093185425e-02
2.258524596691131592e-01
7.654516398906707764e-02
-1.433436423540115356e-01
5.948916077613830566e-02
-5.998353362083435059e-01
1.872488856315612793e-01
9.679576009511947632e-02
1.288821548223495483e-01
-5.750800371170043945e-01
5.018093436956405640e-02
-1.489421874284744263e-01
1.561691015958786011e-01
2.640553712844848633e-01
2.550737466663122177e-03
-3.991247415542602539e-01
4.387360066175460815e-02
1.044287756085395813e-01
-2.787715196609497070e-01
-1.271792314946651459e-02
8.137323707342147827e-02
1.272761523723602295e-01
6.322331726551055908e-02
-1.701360940933227539e-01
4.442707449197769165e-02
-3.376758694648742676e-01
-2.354259416460990906e-02
8.491391688585281372e-02
1.235686987638473511e-01
-1.225469335913658142e-01
1.836072355508804321e-01
1.313543766736984253e-01
1.466367542743682861e-01
2.962617576122283936e-01
3.054542541503906250e-01
-6.172521039843559265e-02
-3.400987684726715088e-01
2.564894855022430420e-01
-2.437513023614883423e-01
-6.027293205261230469e-02
3.441469371318817139e-02
-1.741038113832473755e-01
1.993530541658401489e-01
-1.891506314277648926e-01
1.707321219146251678e-02
-2.382948696613311768e-01
4.083912074565887451e-02
-6.592914462089538574e-01
5.128658413887023926e-01
3.223876357078552246e-01
1.011782363057136536e-01
-9.368503838777542114e-02
1.685668081045150757e-01
-6.303222179412841797e-01
-2.186473906040191650e-01
-5.591931939125061035e-01
1.830998808145523071e-01
-7.188649177551269531e-01
4.094062745571136475e-01
4.074444770812988281e-01
2.992558181285858154e-01
-1.893718838691711426e-01
-2.821120917797088623e-01
-4.711254835128784180e-01
-3.234505355358123779e-01
-1.898522973060607910e-01
-1.546513736248016357e-01
3.898577690124511719e-01
-3.137030899524688721e-01
-8.017334342002868652e-02
3.159036934375762939e-01
-2.330724745988845825e-01
1.624935567378997803e-01
-6.304908543825149536e-02
-2.223393470048904419e-01
1.798603981733322144e-01
1.458706557750701904e-01
-1.710672378540039062e-01
3.085952997207641602e-01
2.556888163089752197e-01
-2.994332015514373779e-01
-2.471735477447509766e-01
-8.163930177688598633e-01
7.112385332584381104e-02
2.434976547956466675e-01
2.723159790039062500e-01
-1.427110750228166580e-02
1.721956580877304077e-01
-7.638431191444396973e-01
-7.446476221084594727e-01
3.193706870079040527e-01
-1.709955185651779175e-01
1.320087760686874390e-01
2.182272076606750488e-01
5.454850196838378906e-01
1.500320434570312500e-01
-3.810804486274719238e-01
4.602444544434547424e-02
4.726393222808837891e-01
-1.930397301912307739e-01
1.015448272228240967e-01
-5.761761665344238281e-01
-2.127742171287536621e-01
-1.663479357957839966e-01
4.473099708557128906e-01
1.369072794914245605e-01
2.897095978260040283e-01
1.993648707866668701e-01
-6.673373579978942871e-01
2.611713707447052002e-01
-2.041643708944320679e-01
-3.749554157257080078e-01
-4.961048364639282227e-01
1.782797425985336304e-01
9.914234280586242676e-02
-2.749597840011119843e-02
-1.286345720291137695e-01
1.297270655632019043e-01
1.783637404441833496e-01
6.030217185616493225e-02
-3.000075817108154297e-01
1.406299024820327759e-01
5.589395016431808472e-02
-3.929280936717987061e-01
3.814962506294250488e-01
3.177709877490997314e-02
1.067570000886917114e-01
-2.887376248836517334e-01
1.144673302769660950e-02
-2.069319188594818115e-01
-3.590735197067260742e-01
4.764933884143829346e-02
9.149433672428131104e-02
8.991738408803939819e-02
2.280686348676681519e-01
2.007335126399993896e-01
1.033554598689079285e-01
1.390442904084920883e-02
1.964124143123626709e-01
-4.357292950153350830e-01
2.712903022766113281e-01
-7.973434403538703918e-03
-8.566189557313919067e-02
-1.491505354642868042e-01
3.363370895385742188e-01
3.342044651508331299e-01
-2.098142653703689575e-01
1.455160379409790039e-01
-5.977962538599967957e-02
9.874835610389709473e-02
-3.182951807975769043e-01
-5.200916528701782227e-01
-4.760022759437561035e-01
-7.324313372373580933e-02
1.393327396363019943e-02
1.723942160606384277e-01
-4.072263538837432861e-01
2.346023470163345337e-01
-1.878839284181594849e-01
6.805546581745147705e-02
-1.003907322883605957e-01
-3.579706549644470215e-01
2.093929201364517212e-01
2.878294885158538818e-01
2.502912189811468124e-03
2.744258642196655273e-01
-1.300478279590606689e-01
-3.256885111331939697e-01
-1.859466433525085449e-01
1.787920445203781128e-01
-2.737970948219299316e-01
1.018571667373180389e-02
1.958803832530975342e-01
-7.949253320693969727e-01
-3.161324858665466309e-01
-3.347339928150177002e-01
3.849273622035980225e-01
-8.006152510643005371e-02
3.702340126037597656e-01
-6.784323602914810181e-02
2.219050228595733643e-01
-9.351202845573425293e-02
-9.138108044862747192e-02
3.468710780143737793e-01
-6.196779012680053711e-01
2.032548189163208008e-02
1.603685617446899414e-01
-6.394944787025451660e-01
-8.625389635562896729e-02
-2.317388504743576050e-01
-2.460529506206512451e-01
-1.665576696395874023e-01
-8.480019867420196533e-02
-2.506501376628875732e-01
-2.663091421127319336e-01
4.254242479801177979e-01
2.732587456703186035e-01
-3.582654297351837158e-01
1.791694760322570801e-01
-2.960242331027984619e-01
2.456916570663452148e-01
-5.113865137100219727e-01
-1.672620624303817749e-01
2.218053042888641357e-01
3.077945411205291748e-01
-7.123283296823501587e-02
1.222667656838893890e-02
-4.432104527950286865e-01
-2.277938276529312134e-01
6.727117300033569336e-02
1.267527192831039429e-01
-4.646301567554473877e-01
2.417690679430961609e-02
-6.619682163000106812e-02
-2.686018943786621094e-01
-5.414604675024747849e-04
7.372574508190155029e-02
8.247482590377330780e-03
-2.480745166540145874e-01
-2.561258897185325623e-02
3.731624782085418701e-02
1.356126219034194946e-01
9.989688172936439514e-03
-5.097351036965847015e-03
-1.993957608938217163e-01
-5.472804903984069824e-01
-7.516382336616516113e-01
1.341587454080581665e-01
1.492667244747281075e-03
4.583214521408081055e-01
-1.445163488388061523e-01
-6.526451557874679565e-02
-6.457316130399703979e-02
3.373317420482635498e-01
-2.091287374496459961e-01
-2.420703321695327759e-01
-1.139481142163276672e-01
-4.222487807273864746e-01
-4.000437259674072266e-01
-7.612726837396621704e-02
2.789579331874847412e-01
2.428408861160278320e-01
-4.554219171404838562e-02
-2.318255007266998291e-01
-9.023560583591461182e-02
8.461249619722366333e-02
-5.113956332206726074e-01
-1.190555468201637268e-01
3.907694518566131592e-01
-3.768906593322753906e-01
2.616044580936431885e-01
-5.024031400680541992e-01
-5.016678944230079651e-02
1.475618220865726471e-02
-1.260773241519927979e-01
-6.676850467920303345e-02
7.873282581567764282e-02
-1.845588833093643188e-01
9.034319967031478882e-02
8.918698877096176147e-02
4.751079902052879333e-02
2.121602743864059448e-01
4.015946388244628906e-02
-7.693809270858764648e-02
-2.776284813880920410e-01
-1.002865880727767944e-01
6.596981734037399292e-02
1.602763682603836060e-01
-1.184682026505470276e-01
-5.105790123343467712e-02
-1.800286769866943359e-01
8.482910692691802979e-02
1.108974814414978027e-01
8.792158216238021851e-02
2.289216071367263794e-01
3.982478976249694824e-01
-3.235122859477996826e-01
-3.719193339347839355e-01
1.264096200466156006e-01
6.727439165115356445e-02
-1.088389009237289429e-01
-4.265216588973999023e-01
-5.978596210479736328e-01
2.732182480394840240e-02
-1.801928579807281494e-01
-2.846678905189037323e-02
2.258294448256492615e-02
9.770485758781433105e-02
5.088520050048828125e-02
-6.012039631605148315e-02
-3.209956288337707520e-01
9.756292402744293213e-02
-8.201456069946289062e-02
-4.777635335922241211e-01
7.758180797100067139e-02
-4.573189914226531982e-01
2.164221256971359253e-01
8.813123404979705811e-02
2.993893921375274658e-01
-5.043498873710632324e-01
-5.016472339630126953e-01
1.096878051757812500e-01
1.152413934469223022e-01
-2.352617532014846802e-01
-2.806307971477508545e-01
-9.364649653434753418e-02
-2.619150839745998383e-02
9.563924372196197510e-02
1.779885739088058472e-01
-3.968612253665924072e-01
1.611034274101257324e-01
-1.110693253576755524e-02
1.788608431816101074e-01
7.241567969322204590e-02
2.762323319911956787e-01
-1.947642415761947632e-01
-4.036948829889297485e-02
4.094707965850830078e-01
-5.285796523094177246e-01
1.477801799774169922e-01
-8.251836895942687988e-02
-1.320647597312927246e-01
2.685586363077163696e-02
-3.780932128429412842e-01
1.901437044143676758e-01
-2.790144383907318115e-01
2.029498219490051270e-01
5.195600390434265137e-01
-5.500658154487609863e-01
-3.272904828190803528e-02
-1.258085072040557861e-01
1.702269315719604492e-01
-2.683078348636627197e-01
-2.316028177738189697e-01
9.240525960922241211e-02
1.931914389133453369e-01
2.315837517380714417e-02
-3.233190476894378662e-01
2.156568467617034912e-01
5.354096367955207825e-02
-4.491026401519775391e-01
2.128040492534637451e-01
-1.218216493725776672e-01
-1.013334468007087708e-01
-1.568672806024551392e-01
2.106235325336456299e-01
-4.544663429260253906e-02
-1.745813637971878052e-01
2.028503715991973877e-01
1.854840219020843506e-01
-1.453209668397903442e-03
1.129078306257724762e-02
-2.102520018815994263e-01
1.976573169231414795e-01
-4.011293351650238037e-01
-1.604226231575012207e-01
-4.701265394687652588e-01
2.425982952117919922e-01
2.652838230133056641e-01
-3.330983817577362061e-01
3.234129846096038818e-01
-7.673265039920806885e-02
-1.831084489822387695e-01
1.604652702808380127e-01
1.687045097351074219e-01
-6.226694583892822266e-01
-4.750722348690032959e-01
-1.330041140317916870e-01
4.884092509746551514e-01
5.132387280464172363e-01
-3.358723223209381104e-02
-1.043303161859512329e-01
9.849036484956741333e-02
1.690159738063812256e-02
-2.973967604339122772e-02
2.392855882644653320e-01
-2.215231955051422119e-01
2.436691671609878540e-01
-1.430158168077468872e-01
1.598322689533233643e-01
-4.313039779663085938e-01
1.363706886768341064e-01
9.182158857583999634e-02
-5.007230639457702637e-01
2.109984867274761200e-02
3.105240762233734131e-01
1.854797750711441040e-01
-3.515799939632415771e-01
5.033386349678039551e-01
-1.999156922101974487e-02
3.810509145259857178e-01
-1.448918431997299194e-01
-6.643331050872802734e-01
9.884736686944961548e-02
-3.078734278678894043e-01
-2.044635117053985596e-01
2.217153459787368774e-02
1.890426576137542725e-01
-5.532457306981086731e-02
1.777776703238487244e-02
7.725559175014495850e-02
4.079340398311614990e-02
-1.106013730168342590e-01
2.220277041196823120e-01
-5.519416183233261108e-02
2.668918073177337646e-01
7.358627021312713623e-02
-4.031904041767120361e-01
1.601676940917968750e-01
-3.943932652473449707e-01
1.102718785405158997e-01
8.527030795812606812e-02
-3.569662943482398987e-02
-1.293926686048507690e-01
3.358654305338859558e-02
-3.298347890377044678e-01
-8.213126659393310547e-02
-3.288101851940155029e-01
-4.505633711814880371e-01
9.225883334875106812e-02
-4.650191366672515869e-01
-1.897639781236648560e-01
6.622302532196044922e-01
-5.791567564010620117e-01
2.671927586197853088e-02
-2.841727137565612793e-01
2.972612529993057251e-02
1.968207210302352905e-01
1.883106678724288940e-01
-4.981937408447265625e-01
-5.525497719645500183e-02
1.089873760938644409e-01
1.396239101886749268e-01
5.818973109126091003e-02
4.139755666255950928e-02
-1.117767542600631714e-01
3.600653409957885742e-01
-1.924118846654891968e-01
3.795508742332458496e-01
-2.594207227230072021e-01
-5.018379166722297668e-02
-6.102069020271301270e-01
3.945822268724441528e-02
-3.718736469745635986e-01
-6.717242598533630371e-01
-3.433346748352050781e-02
-2.235681712627410889e-01
1.022794842720031738e-01
1.403114199638366699e-01
1.468253582715988159e-01
1.226806640625000000e-02
6.970839947462081909e-02
1.352098137140274048e-01
-3.924512267112731934e-01
-5.097578167915344238e-01
4.412687942385673523e-02
-6.878593564033508301e-02
2.202399373054504395e-01
3.761705458164215088e-01
8.393455296754837036e-03
-2.706644535064697266e-01
-3.779390752315521240e-01
4.185749590396881104e-01
-4.916062355041503906e-01
2.475796639919281006e-01
-1.477437913417816162e-01
-3.139533400535583496e-01
3.086309731006622314e-01
1.575145274400711060e-01
-8.351083844900131226e-02
-1.839933246374130249e-01
2.761416435241699219e-01
-6.901641935110092163e-02
-2.397439070045948029e-02
-1.330351829528808594e-01
2.719845250248908997e-02
-9.041129611432552338e-03
1.846249997615814209e-01
-1.737858206033706665e-01
-1.054048612713813782e-01
-9.699670225381851196e-02
6.270477920770645142e-02
9.426055103540420532e-02
-3.938802182674407959e-01
-2.613790147006511688e-02
3.174076080322265625e-01
3.133958578109741211e-01
-2.122719436883926392e-01
-7.873026281595230103e-02
-9.315791726112365723e-02
1.764512956142425537e-01
-4.311481118202209473e-01
-8.463394641876220703e-01
2.507337182760238647e-02
4.096910953521728516e-01
-1.321347057819366455e-01
2.163476794958114624e-01
-2.162225246429443359e-01
2.597225308418273926e-01
2.539436519145965576e-02
1.090182587504386902e-01
-2.458177208900451660e-01
-6.418035179376602173e-02
-3.960365355014801025e-01
1.138981655240058899e-01
2.541479766368865967e-01
1.457038074731826782e-01
-9.035758674144744873e-02
-5.030624568462371826e-02
-1.150457412004470825e-01
3.686494827270507812e-01
1.307918578386306763e-01
-6.275067925453186035e-01
8.844208717346191406e-02
-1.135615035891532898e-01
5.426541715860366821e-02
9.519730508327484131e-02
-8.694818243384361267e-03
1.157087609171867371e-01
2.257874011993408203e-01
-2.440664023160934448e-01
2.084873914718627930e-01
-1.754729300737380981e-01
5.261067301034927368e-02
-1.046731248497962952e-01
1.427597999572753906e-01
3.409345075488090515e-02
-9.107376635074615479e-02
-3.080262802541255951e-02
-5.804702639579772949e-01
7.464559376239776611e-02
-1.450034230947494507e-01
-2.141564190387725830e-01
-1.748197078704833984e-01
1.411971729248762131e-02
-5.495444536209106445e-01
2.820465266704559326e-01
-1.657907068729400635e-01
3.458403348922729492e-01
1.535088568925857544e-01
-2.991701103746891022e-02
2.308613061904907227e-01
-2.720451913774013519e-02
1.821899972856044769e-02
4.901830852031707764e-02
1.384429037570953369e-01
1.046426147222518921e-01
-1.160737425088882446e-01
-2.060663998126983643e-01
2.877858281135559082e-01
1.603090316057205200e-01
-7.278691232204437256e-02
-6.104323863983154297e-01
-2.034979462623596191e-01
-1.053025797009468079e-01
-2.340570837259292603e-01
8.770356327295303345e-02
-2.740458548069000244e-01
-8.955926634371280670e-03
1.699986755847930908e-01
9.655371308326721191e-03
-1.431678049266338348e-02
-6.388743221759796143e-02
3.873982429504394531e-01
-9.926794469356536865e-02
8.250313997268676758e-02
-3.614356815814971924e-01
-3.973912894725799561e-01
-3.720012307167053223e-01
2.731363177299499512e-01
9.633282572031021118e-02
2.949174046516418457e-01
-5.648992955684661865e-02
2.323137372732162476e-01
-5.084319710731506348e-01
4.590822756290435791e-02
-2.141419947147369385e-01
1.454962939023971558e-01
-2.976410388946533203e-01
8.456165343523025513e-02
-1.792455613613128662e-01
1.647392362356185913e-01
1.391541063785552979e-01
2.535555325448513031e-02
-3.410112261772155762e-01
1.701593212783336639e-02
1.777402162551879883e-01
1.106320545077323914e-01
1.534245014190673828e-01
-5.438205599784851074e-01
7.220830023288726807e-02
2.234597653150558472e-01
2.180051952600479126e-01
